0.00645591551437974 -0.1609533131122589 0.21161261200904846 -0.16151541471481323 0.11814746260643005 0.06763579696416855 -0.11557818949222565 0.2534569501876831 0.23347191512584686 -0.19498160481452942 -0.5896656513214111 -0.14525124430656433 0.24686017632484436 0.14997686445713043 0.3361811339855194 0.06391328573226929 0.3185831904411316 0.27209389209747314 -0.2500229477882385 0.02031696029007435 0.1374862939119339 0.2902197539806366 0.21958446502685547 0.22520756721496582 0.04592191055417061 0.2569672167301178 -0.22998414933681488 0.12272612750530243 -0.12879431247711182 0.09786704182624817 -0.06472741067409515 0.19712026417255402 
-0.043838296085596085 -0.022461624816060066 -0.22959880530834198 0.20740100741386414 0.040130212903022766 -0.23125533759593964 -0.04660619795322418 -0.16462558507919312 -0.27439093589782715 -0.3286735713481903 0.19954544305801392 -0.15174323320388794 -0.08401795476675034 0.008146495558321476 0.3414805233478546 -0.29328635334968567 0.21419304609298706 -0.37534114718437195 0.08348987251520157 0.07188544422388077 0.30245164036750793 -0.257676899433136 0.027896564453840256 -0.07814586162567139 -0.11210456490516663 -0.02686067670583725 -0.3234078884124756 -0.17749625444412231 -0.09580623358488083 -0.328636109828949 -0.04149572178721428 -0.20466579496860504 
0.26167985796928406 0.2284253090620041 0.22558176517486572 0.05786043778061867 0.13270056247711182 0.11906250566244125 0.20741790533065796 -0.1922018826007843 -0.17389190196990967 -0.37346723675727844 0.1804497092962265 -0.03437845781445503 -0.3145419657230377 -0.13373737037181854 -0.20957520604133606 0.4203380048274994 -0.3491528034210205 -0.1623125523328781 0.26562780141830444 -0.27919793128967285 -0.20226459205150604 -0.0697532668709755 -0.27785730361938477 -0.17828792333602905 -0.19044800102710724 -0.4415353834629059 0.021157192066311836 0.03797350823879242 0.2756846845149994 0.33017101883888245 -0.05549633875489235 -0.10654769092798233 
-0.4452967941761017 -0.06125437840819359 -0.3760446310043335 0.0766419917345047 -0.06866540014743805 0.28844574093818665 -0.2979167103767395 0.25447022914886475 0.20035503804683685 0.1070023849606514 0.06576555967330933 0.18492208421230316 -0.20406709611415863 0.09094461053609848 -0.008274179883301258 -0.36879363656044006 0.24265575408935547 0.2047557234764099 0.35790008306503296 0.2877877652645111 0.30725565552711487 0.270130455493927 -0.3135060667991638 -0.4647763669490814 0.09461569786071777 -0.1959729939699173 0.26288342475891113 0.2163274735212326 -0.17907434701919556 -0.012674557976424694 -0.15641959011554718 -0.4808737337589264 
0.26732832193374634 0.16485251486301422 0.17285345494747162 0.4074053168296814 -0.18332725763320923 -0.19940389692783356 0.10758566856384277 0.06290609389543533 -0.34332749247550964 0.1874249428510666 -0.1987074911594391 0.218659445643425 -0.2756350040435791 -0.4166747033596039 -0.3819407522678375 0.1143701821565628 0.2076435089111328 -0.0014549880288541317 0.25184881687164307 -0.07440964877605438 0.24178045988082886 -0.1742336004972458 0.3016044497489929 0.25943630933761597 0.060570500791072845 0.2959539592266083 -0.125015988945961 0.3660542964935303 0.14667457342147827 -0.08547113835811615 0.1602553278207779 -0.11095070093870163 

