0.012099777348339558 -0.03327091410756111 0.17177064716815948 -0.25789156556129456 0.05178885906934738 0.029015228152275085 0.06939688324928284 -0.2362505942583084 0.050817593932151794 0.2971068322658539 0.05133660510182381 0.05176260322332382 0.05397079512476921 -0.13147927820682526 0.11543156206607819 -0.08117353171110153 
0.539512038230896 0.19524063169956207 0.02570617012679577 0.060764871537685394 -0.15497107803821564 -0.040824633091688156 -0.08321864902973175 0.09371442347764969 0.05835980921983719 -0.1688152402639389 -0.20599821209907532 -0.08828205615282059 -0.11190405488014221 -0.04428977519273758 -0.11487323045730591 0.399367094039917 
0.34215033054351807 0.0497952438890934 0.2312157303094864 -0.0902225524187088 -0.10415782779455185 -0.16367782652378082 -0.21851734817028046 -0.11852223426103592 -0.12083116173744202 -0.24332711100578308 0.20445433259010315 0.11584606766700745 -0.061634935438632965 0.14598730206489563 0.12240368872880936 0.242509663105011 
-0.04606448858976364 -0.009143914096057415 -0.06207180395722389 -0.4152671694755554 0.03437424823641777 -0.2725044786930084 0.004812274128198624 -0.13671043515205383 0.1972436159849167 -0.07796242833137512 -0.2550874650478363 0.16569751501083374 -0.24202993512153625 -0.1838008463382721 0.20319244265556335 -0.00015634982264600694 
-0.22082337737083435 -0.3025364577770233 -0.25822940468788147 0.22477932274341583 -0.13984306156635284 -0.2590055763721466 -0.13017788529396057 -0.03179876133799553 -0.1245325431227684 -0.21452392637729645 0.27580246329307556 0.06137372925877571 0.00026303736376576126 0.009425688534975052 -0.03136196359992027 0.28093767166137695 
0.2250368744134903 0.25611841678619385 -0.043959490954875946 -0.049001336097717285 -0.08307748287916183 -0.5126826763153076 -0.021049747243523598 0.0503382682800293 0.05264041945338249 -0.44161418080329895 0.0828104093670845 0.04468714818358421 -0.24544765055179596 0.0009259213111363351 -0.08731167763471603 0.09591535478830338 
0.07378257066011429 0.10319740325212479 0.0810975506901741 -0.03582625836133957 -0.1992204338312149 -0.09123416990041733 0.07243568450212479 -0.08932562917470932 0.29973337054252625 -0.25047197937965393 -0.21169635653495789 -0.018757861107587814 -0.17712479829788208 -0.10385682433843613 0.19036118686199188 0.0733848512172699 
0.2578679025173187 0.13437573611736298 0.1475001722574234 -0.004476333502680063 0.02329256758093834 0.0680963322520256 -0.10211797803640366 -0.0371570959687233 0.1818639487028122 -0.13098394870758057 -0.12024416774511337 0.1253732144832611 0.03943881392478943 -0.114663265645504 0.1913495808839798 0.058703478425741196 
-0.1049954742193222 0.20557241141796112 0.0531003400683403 0.05814402177929878 0.016667667776346207 -0.16719761490821838 0.1114521399140358 -0.009929267689585686 0.03221742436289787 -0.13274171948432922 -0.21017403900623322 -0.3019455373287201 0.08700647950172424 0.20334473252296448 0.13330863416194916 0.3126930892467499 
-0.11997115612030029 -0.07637062668800354 -0.20780496299266815 0.14066341519355774 0.6489720940589905 0.09530395269393921 -0.009773840196430683 -0.2503740191459656 -0.09933699667453766 0.08070068806409836 0.026988865807652473 0.16850093007087708 0.007265259977430105 -0.18384917080402374 0.16264739632606506 0.021796872839331627 
0.17451129853725433 0.16771671175956726 -0.07769092172384262 -0.3958524167537689 -0.0998234823346138 -0.4903927445411682 0.09250149875879288 0.08011175692081451 -0.09522878378629684 -0.27438241243362427 -0.12061302363872528 -0.20519042015075684 -0.23763322830200195 0.15228958427906036 -0.1392076015472412 0.28816306591033936 
0.21419085562229156 0.24291162192821503 -0.1454852968454361 -0.12069772928953171 -0.15254421532154083 -0.3375440835952759 -0.15620069205760956 0.013259091414511204 -0.04385536536574364 0.02088337577879429 -0.07785619795322418 0.09061450511217117 0.09984546899795532 0.0751766785979271 0.12851424515247345 -0.009249884635210037 
-0.16521356999874115 0.1514742076396942 -0.1417943388223648 -0.4256971478462219 -0.03430933877825737 -0.30505478382110596 -0.14469437301158905 -0.2161007821559906 0.22665627300739288 -0.1196560338139534 -0.12128908932209015 0.05784983187913895 -0.16179001331329346 0.18163427710533142 -0.06742071360349655 -0.06657449901103973 
-0.26212912797927856 -0.14868596196174622 -0.10305032134056091 0.17590266466140747 0.21349003911018372 0.1479453444480896 0.12796345353126526 -0.15430308878421783 0.17209357023239136 0.11453820765018463 0.24590425193309784 -0.2160698026418686 0.0007410855614580214 0.06412653625011444 0.13034749031066895 0.09063637256622314 
-0.1338532418012619 0.08606409281492233 0.2175920605659485 -0.17672236263751984 0.21042843163013458 -0.21534742414951324 -0.17065100371837616 -0.17973081767559052 0.008204164914786816 -0.04353296384215355 -0.01620664820075035 -0.17085014283657074 -0.041010335087776184 0.11750533431768417 0.006680329795926809 0.2106032818555832 
-0.29507291316986084 -0.11900363862514496 -0.04776628315448761 -0.13812626898288727 -0.09079789370298386 -0.35890722274780273 -0.12197525799274445 0.1374734789133072 0.24693390727043152 -0.17165477573871613 0.18152761459350586 -0.011243806220591068 -0.2668335437774658 -0.08109700679779053 0.13745766878128052 0.09553197771310806 
0.07961643487215042 0.1945851892232895 0.11643261462450027 -0.024359701201319695 -0.3251001238822937 -0.11158437281847 -0.20562641322612762 -0.007077614311128855 0.3825186491012573 0.051694776862859726 0.14772064983844757 -0.29446855187416077 0.08344753086566925 0.13161279261112213 0.11070948839187622 -0.20221169292926788 
0.10995388776063919 0.4532718062400818 -0.22070075571537018 0.4161970019340515 0.39607492089271545 -0.09256863594055176 -0.09978659451007843 -0.0974465012550354 -0.44005510210990906 -0.09880361706018448 0.0200881939381361 0.13230951130390167 0.5473760366439819 0.11010633409023285 0.12372028827667236 0.07293415814638138 
0.2698218822479248 0.10322432219982147 0.090805284678936 -0.10779683291912079 -0.09384682774543762 0.14512835443019867 0.13089746236801147 -0.09779620915651321 0.11816666275262833 0.19005346298217773 -0.03502437099814415 -0.159072607755661 0.1321578025817871 0.10582127422094345 -0.11704445630311966 -0.0018754390766844153 
0.17229294776916504 0.18666835129261017 0.1272202879190445 0.16528098285198212 -0.053831443190574646 -0.0077741858549416065 -0.06976944208145142 -0.17458616197109222 0.12714409828186035 -0.0994282215833664 0.09352614730596542 -0.1356096714735031 0.09078135341405869 0.05360027775168419 -0.0001521611848147586 -0.02853858470916748 
-0.20613262057304382 -0.01556767150759697 -0.08661887794733047 0.18308575451374054 0.05083152651786804 -0.4746790826320648 -0.10264000296592712 -0.04906654730439186 -0.007062703836709261 0.48536619544029236 -0.02417580410838127 -0.2971833348274231 -0.31266123056411743 -0.18784914910793304 0.032003894448280334 0.1260892152786255 
0.2742149531841278 -0.22388319671154022 -0.0425352044403553 -0.20524506270885468 -0.18437349796295166 -0.013200510293245316 -0.13628509640693665 -0.14648906886577606 0.007251121569424868 0.15662315487861633 -0.2276259809732437 0.0308665968477726 0.029528938233852386 0.2311316579580307 0.0676785409450531 -0.2143336534500122 
0.24291101098060608 -0.07727638632059097 0.2537359297275543 -0.015693647786974907 -0.07685045152902603 -0.04306359961628914 -0.0660543143749237 -0.15000341832637787 0.3028274178504944 -0.2262129783630371 -0.16794635355472565 -0.15179455280303955 -0.17295052111148834 0.16940347850322723 0.1916441172361374 -0.09304693341255188 
0.22480449080467224 -0.07899340242147446 0.01134602352976799 -0.1424558311700821 -0.3227796256542206 -0.3199772834777832 -0.12622402608394623 -0.030485374853014946 0.2741899788379669 -0.18200333416461945 0.09499630331993103 0.005488492548465729 0.052167266607284546 0.11380445957183838 0.07211802899837494 -0.16024324297904968 
0.01913314312696457 0.20694276690483093 -0.09684132784605026 0.12219634652137756 0.22583508491516113 -0.20570693910121918 0.030776122584939003 -0.11938657611608505 -0.23147954046726227 0.3909640312194824 0.07404537498950958 -0.06163431704044342 0.014803838916122913 -0.12499342858791351 -0.1166420429944992 -0.001530775218270719 
-0.3652912378311157 0.0985194593667984 0.15910454094409943 -0.6081418991088867 0.3965197801589966 -0.05069190636277199 -0.01921076327562332 0.12793442606925964 -0.34631794691085815 0.16412298381328583 -0.21434558928012848 0.10563045740127563 -0.17380349338054657 -0.3528566062450409 0.17189264297485352 -0.03774351626634598 
-0.12485435605049133 0.17837803065776825 -0.16888189315795898 0.06635849177837372 -0.06594718247652054 -0.1785067617893219 0.0661599338054657 -0.08803091943264008 -0.17643854022026062 -0.06736711412668228 0.058068759739398956 -0.2737634479999542 -0.2732459604740143 0.1646505892276764 0.06205843389034271 -0.07331068813800812 
0.17477022111415863 0.018487490713596344 0.06226501241326332 -0.16759951412677765 -0.295654833316803 -0.16801784932613373 -0.10518322139978409 0.0872698426246643 0.12088406831026077 -0.03867176175117493 -0.12467440217733383 -0.2837756276130676 -0.06251217424869537 0.14278414845466614 -0.14110207557678223 0.13665437698364258 
-0.03340613469481468 0.0821833461523056 0.09567990899085999 -0.13415683805942535 0.12207993865013123 -0.009630010463297367 -0.08760370314121246 0.09137822687625885 -0.054083917289972305 -0.07806828618049622 0.13729369640350342 -0.14257726073265076 0.06349043548107147 -0.03135450556874275 0.1350899636745453 0.17876288294792175 
0.0783158391714096 -0.12903715670108795 0.0991416871547699 0.04362285137176514 0.19413408637046814 0.050792232155799866 -0.016728857532143593 -0.034021876752376556 0.24521298706531525 0.2057381123304367 0.011179146356880665 0.13736800849437714 -0.18603436648845673 0.12447874993085861 0.08566475659608841 -0.14663849771022797 
-0.22215598821640015 -0.012549757026135921 0.1503693163394928 0.022029666230082512 -0.08042699098587036 -0.03878128156065941 -4.8121196414285805e-06 -0.06397779285907745 0.17343613505363464 0.3160973787307739 0.11028425395488739 -0.15599076449871063 -0.1258043348789215 -0.19765430688858032 -0.043677959591150284 0.10069915652275085 
-0.27703604102134705 -0.17873606085777283 -0.10639381408691406 0.08581661432981491 0.03693505749106407 -0.34533214569091797 -0.134915292263031 0.0016712950309738517 0.12002769112586975 -0.023152438923716545 0.02850888855755329 -0.4511266052722931 -0.08515403419733047 0.27162182331085205 -0.23269693553447723 -0.1692088395357132 
0.2635626494884491 -0.17137402296066284 0.07739106565713882 0.01915442943572998 0.09002845734357834 0.1688009351491928 -0.04326491802930832 -0.25163769721984863 0.06354252994060516 0.11220302432775497 -0.13402286171913147 0.08416818082332611 -0.1870414912700653 -0.05677037313580513 -0.09647934883832932 -0.16741617023944855 
0.19213110208511353 0.2250528782606125 0.012754105031490326 -0.13474392890930176 0.23071695864200592 -0.1274435818195343 0.048950400203466415 0.008849173784255981 -0.06239397078752518 0.03826715052127838 0.05584762245416641 0.46803006529808044 0.1514703631401062 0.09099232405424118 -0.09922374784946442 -0.0375141017138958 
-0.048863835632801056 -0.16061651706695557 0.09228367358446121 0.11777933686971664 0.012578404508531094 -0.03324667364358902 0.011616965755820274 -0.20929159224033356 0.006224507000297308 -0.05822278931736946 0.16676998138427734 -0.18844960629940033 -0.03398286551237106 0.07480914145708084 -0.02400590293109417 -0.17290203273296356 
0.22746586799621582 -0.004539873450994492 0.19748595356941223 0.016725461930036545 -0.06556623429059982 -0.13892164826393127 0.08526057749986649 -0.08499671518802643 -0.07022473961114883 0.17275886237621307 -0.027918018400669098 -0.27472856640815735 -0.14298900961875916 -0.01104559376835823 0.04001916944980621 -0.16627462208271027 
0.04951946809887886 -0.0597446970641613 0.16821971535682678 -0.063675656914711 0.17992107570171356 -0.10032438486814499 0.14464329183101654 -0.10690382122993469 0.335124671459198 0.0037346717435866594 0.32666638493537903 -0.18869490921497345 -0.0688035786151886 0.056093718856573105 0.05723277106881142 0.10132531076669693 
-0.13916842639446259 0.1425362378358841 0.06706653535366058 0.17674370110034943 0.038828883320093155 0.30430009961128235 -0.21705004572868347 0.09053242206573486 -0.2442910224199295 0.05607186257839203 0.13826310634613037 -0.013053463771939278 0.18615001440048218 0.0038217229302972555 -0.13952316343784332 -0.07957346737384796 
0.0245381947606802 -0.06521158665418625 0.28844770789146423 -0.1865353137254715 0.12121526151895523 0.030150853097438812 -0.18129688501358032 0.039985738694667816 0.08471234142780304 0.06552284210920334 0.14054779708385468 -0.04381094127893448 -0.012390694580972195 -0.1834658682346344 0.270906925201416 0.06021692603826523 
0.0629163458943367 -0.05699719116091728 -0.12427359074354172 0.13402533531188965 0.11801069229841232 0.05755353718996048 -0.0308919046074152 -0.10053637623786926 0.003917982801795006 0.28636056184768677 -0.09480764716863632 0.04276610165834427 0.0850503072142601 0.23407818377017975 -0.05128498747944832 -0.07183423638343811 
-0.03040139004588127 -0.09586717188358307 0.2133154422044754 -0.07081060111522675 0.13880008459091187 0.25727930665016174 0.016454432159662247 0.05861271172761917 0.004616970662027597 0.2867546081542969 0.14810842275619507 0.039224281907081604 -0.26197579503059387 -0.08629058301448822 -0.1418975591659546 -0.00893457792699337 
-0.2857397496700287 0.0026034675538539886 -0.016569366678595543 -0.2566082775592804 0.017113927751779556 -0.21209616959095 -0.18141046166419983 0.07071778178215027 -0.06914424151182175 -0.2690087854862213 -0.1826479434967041 0.4323256313800812 -0.06028663367033005 -0.37295424938201904 -0.146198570728302 0.08512797951698303 
0.2334274798631668 -0.1597554236650467 -0.10066705197095871 -0.21662133932113647 -0.02104276977479458 0.1477089375257492 -0.009137128479778767 0.1069774478673935 0.12036477029323578 0.3536638617515564 0.2605240046977997 -0.1792050153017044 -0.09503156691789627 -0.18130157887935638 -0.06963566690683365 0.09863249212503433 
0.07358619570732117 0.18368805944919586 0.09748005867004395 0.236113503575325 -0.10968580842018127 0.046464305371046066 0.07585854083299637 -0.1386743038892746 -0.19112496078014374 0.2199849933385849 -0.1678149700164795 -0.028013262897729874 0.11968968063592911 0.2540076673030853 0.13906331360340118 -0.2151331901550293 
-0.07191091030836105 0.17941205203533173 -0.04128793254494667 -0.12195255607366562 0.07821446657180786 -0.11979644000530243 0.08291692286729813 -0.1012539193034172 -0.0264545027166605 0.14828220009803772 -0.04103937745094299 -0.010250580497086048 0.13281753659248352 0.21910470724105835 -0.14408965408802032 -0.14808203279972076 
0.2201761156320572 0.33820804953575134 0.08489533513784409 -0.03252357244491577 0.07480040937662125 -0.00849431473761797 0.02354290522634983 -0.18482919037342072 -0.025955915451049805 0.1349300891160965 0.05356142297387123 0.07733388245105743 -0.2456657588481903 -0.2881845235824585 -0.02270515076816082 -0.26813802123069763 
0.05182909965515137 0.16271959245204926 -0.12548820674419403 0.137087881565094 0.0022367513738572598 0.28489241003990173 -0.09426882117986679 0.11232840269804001 -0.12466783076524734 -0.03286653757095337 0.2765023112297058 0.08324074000120163 -0.09734340012073517 -0.17011518776416779 0.02575269713997841 0.17369771003723145 
0.0034291737247258425 -0.2597787380218506 -0.021038351580500603 0.10742371529340744 -0.04582631215453148 -0.24302344024181366 0.02501722238957882 0.13582484424114227 -0.2892923057079315 0.11849210411310196 -0.09265796095132828 0.20634661614894867 0.12537680566310883 0.20029215514659882 0.06566039472818375 -0.07448400557041168 
0.12255167961120605 -0.2827152609825134 -0.08118699491024017 0.0684969574213028 0.21080544590950012 0.04740167409181595 -0.04540048539638519 0.09957873821258545 0.06262563169002533 0.06542614102363586 0.10836267471313477 0.12505194544792175 0.08816206455230713 -0.10062965005636215 0.13843460381031036 0.1563374251127243 
0.0055558932945132256 -0.19615794718265533 -0.2831549346446991 -0.0827467069029808 0.02508087269961834 -0.023690814152359962 0.12586231529712677 -0.0007510490249842405 0.18294347822666168 -0.19364914298057556 0.15567722916603088 0.23641054332256317 -0.1608934849500656 -0.03128361701965332 -0.04228520393371582 0.24867099523544312 
-0.037797730416059494 -0.13488629460334778 0.10351255536079407 0.03447845205664635 -0.04479581117630005 0.006338609382510185 -0.03828032314777374 0.11853749305009842 0.014540395699441433 0.08701100200414658 0.23436619341373444 0.21599459648132324 0.1037779226899147 -0.10348847508430481 0.00030040289857424796 -0.20333479344844818 
0.008151434361934662 -0.17753010988235474 -0.03658749908208847 0.2575816810131073 0.08773491531610489 0.08587069064378738 -0.11146494001150131 0.0120469331741333 -0.18376223742961884 0.13418716192245483 -0.060297828167676926 0.11781390756368637 0.09805575758218765 0.2249155342578888 0.006006322335451841 -0.13123218715190887 
-0.2095230519771576 -0.24933698773384094 0.057848311960697174 -0.2306421548128128 0.20447717607021332 -0.02834540605545044 -0.13768787682056427 0.03875346481800079 -0.014698471873998642 -0.1593548208475113 0.15411248803138733 0.10675585269927979 -0.051752373576164246 0.06126122176647186 -0.18420667946338654 0.04221634939312935 
0.020268721505999565 -0.07426773756742477 0.15485034883022308 -0.03539172187447548 0.059808921068906784 0.04618056118488312 0.03798188641667366 -0.03762876242399216 -0.0523693785071373 -0.11223326623439789 -0.11924458295106888 0.2964310944080353 0.24995091557502747 -0.04255422577261925 -0.01627497747540474 0.07501623779535294 
0.17817261815071106 -0.14661097526550293 0.29588407278060913 0.08004733920097351 -0.07172949612140656 0.0030215068254619837 -0.19150465726852417 0.08100046217441559 0.3092636168003082 0.061681006103754044 -0.05693002790212631 -0.12008032202720642 0.01598655804991722 0.017074041068553925 -0.08131750673055649 0.07236028462648392 
0.11491615325212479 -0.18585848808288574 0.10509410500526428 0.1006096750497818 0.2608095407485962 -0.08867602050304413 0.07259591668844223 -0.003649062244221568 0.08894320577383041 -0.04799332469701767 -0.08999327570199966 0.11921455711126328 -0.05340779945254326 0.02255014143884182 -0.1594965010881424 0.1006668359041214 
0.19545632600784302 0.0741390734910965 -0.11931509524583817 0.001989600248634815 0.006000805646181107 0.12584137916564941 -0.1414680778980255 -0.02534574642777443 -0.07308848947286606 -0.1687927097082138 0.24759092926979065 0.24370941519737244 -0.0491354763507843 0.07732248306274414 0.14543335139751434 0.08092784881591797 
0.03201191499829292 0.09898772835731506 0.20827004313468933 -0.31164315342903137 -0.12445061653852463 0.057435572147369385 -0.2065850794315338 -0.10496387630701065 0.027533914893865585 -0.2088714987039566 -0.08263075351715088 -0.19847697019577026 -0.10015573352575302 -0.03828108310699463 0.35078492760658264 0.4557371437549591 
0.09913476556539536 0.21699590981006622 0.0459369532763958 0.11585104465484619 -0.1322041153907776 0.12999825179576874 -0.1222093403339386 -0.1207321509718895 0.011621200479567051 -0.05709247291088104 0.22681444883346558 -0.09160167723894119 0.16849476099014282 -0.0580640472471714 -0.16384220123291016 -0.06862767040729523 
0.13796557486057281 0.14605014026165009 -0.03507262095808983 -0.09059500694274902 0.25159358978271484 -0.12315928190946579 -0.06719326972961426 -0.045460045337677 -0.15429750084877014 0.014182643964886665 -0.014001861214637756 0.17778314650058746 0.10582125186920166 0.12568356096744537 0.06887833029031754 0.134536474943161 
0.12872421741485596 0.041667014360427856 0.24001383781433105 0.3080950677394867 0.385069340467453 -0.10928810387849808 -0.1109442263841629 0.0009823732543736696 0.062498100101947784 0.2462112009525299 0.05080585554242134 -0.05497067794203758 0.27209872007369995 0.15989668667316437 0.019932111725211143 -0.08789051324129105 
-0.10410565882921219 0.015223870053887367 0.05487880855798721 -0.07984901964664459 -0.35987770557403564 0.0821322500705719 -0.15814797580242157 0.17828147113323212 -0.04383065551519394 -0.2669994831085205 0.1026281863451004 -0.23255620896816254 0.006278614979237318 -0.32441356778144836 0.08765149116516113 -0.23033373057842255 
0.0005205741617828608 -0.04968437924981117 -0.014255354180932045 0.0838969498872757 -0.1106390506029129 0.01542793307453394 -0.09438899159431458 -0.17334137856960297 -0.17500968277454376 0.016440069302916527 0.21516062319278717 0.06675497442483902 -0.259432315826416 -0.14524303376674652 0.15836171805858612 -0.28327563405036926 
-0.08370988816022873 -0.2848517894744873 0.07895803451538086 0.1534174084663391 0.3329877555370331 0.1666908711194992 -0.17053499817848206 -0.03168877214193344 -0.04975255951285362 0.32721084356307983 -0.010470825247466564 0.14485232532024384 0.04450076073408127 -0.09550987184047699 0.01009372342377901 -0.1344558745622635 
-0.10189145058393478 -0.28125783801078796 -0.014477374032139778 -0.10686127841472626 0.3017581105232239 -0.07879363000392914 -0.12961626052856445 -0.0486157201230526 0.16783148050308228 -0.002420878503471613 0.12114450335502625 0.12933534383773804 0.2554047107696533 -0.13255701959133148 0.1508258879184723 0.12501883506774902 
-0.05703631043434143 0.49432632327079773 -0.2567119598388672 0.23868130147457123 -0.12850992381572723 -0.026769807562232018 -0.16971555352210999 0.0996185839176178 -0.28085774183273315 0.3369082808494568 0.18780551850795746 0.6263976693153381 -0.12151171267032623 0.19773706793785095 -0.12081549316644669 0.13246428966522217 
-0.011620915494859219 -0.17890483140945435 -0.04965461418032646 -0.03455577790737152 -0.11470752209424973 -0.2484167367219925 -0.1327659785747528 -0.20077277719974518 0.32361623644828796 0.015832360833883286 0.22067594528198242 -0.1492932140827179 -0.022123482078313828 -0.2716578543186188 0.08730277419090271 0.14822137355804443 
-0.19739626348018646 -0.08330957591533661 -0.1751270890235901 0.057767387479543686 0.24282638728618622 -0.06071898341178894 -0.20503365993499756 -0.0090913325548172 0.03454243391752243 0.19622299075126648 0.1656220704317093 0.2931082546710968 0.022687586024403572 0.24349522590637207 -0.058834075927734375 -0.01776767149567604 
0.002652078168466687 -0.21470458805561066 0.10066328942775726 -0.16663601994514465 -0.44286295771598816 0.11221521347761154 0.15037287771701813 -0.11523646116256714 0.2040591984987259 0.03480149060487747 -0.40587490797042847 0.09455574303865433 0.14147160947322845 -0.23151828348636627 -0.24635757505893707 -0.26304909586906433 
-0.06729882210493088 -0.3060002326965332 -0.07263945788145065 0.004819933325052261 0.12068740278482437 0.14094048738479614 -0.09178159385919571 0.08892829716205597 0.24532119929790497 -0.05033811926841736 0.02287469245493412 0.08035682886838913 0.25196003913879395 -0.052206866443157196 -0.20652653276920319 -0.11376817524433136 
-0.1872808337211609 -0.20109893381595612 0.10229932516813278 -0.07554049044847488 0.3504638075828552 -0.2238752543926239 0.09667354077100754 -0.17488189041614532 0.2538135051727295 0.10644084215164185 0.21903963387012482 0.04177527129650116 0.32568609714508057 -0.07043160498142242 0.12035088241100311 -0.04591944441199303 
-0.093497134745121 -0.09655215591192245 -0.19276319444179535 -0.05626855045557022 0.17379416525363922 0.06823670119047165 0.08118992298841476 -0.04785626381635666 0.0024945009499788284 0.060669783502817154 0.06993696838617325 0.09517689794301987 0.05008874833583832 0.25725409388542175 -0.043502677232027054 -0.08985068649053574 
-0.17969490587711334 0.266927570104599 -0.19035358726978302 0.19687271118164062 -0.06870749592781067 0.09229137748479843 0.1257503628730774 0.1604173332452774 0.002322829095646739 -0.2466193586587906 -0.12006654590368271 -0.1175866574048996 -0.11376384645700455 -0.10934053361415863 -0.03318246826529503 -0.20390164852142334 
-0.27274230122566223 0.003412370104342699 0.5015686750411987 0.19918081164360046 -0.05664457008242607 0.3991648852825165 -0.10720515996217728 -0.07537912577390671 0.2946399748325348 -0.03160104528069496 -0.2429189532995224 0.04227251932024956 -0.2981334924697876 -0.09396056830883026 0.11609170585870743 0.03127966448664665 
-0.009345627389848232 0.11835642158985138 -0.16264651715755463 -0.14005911350250244 -0.17492029070854187 -0.10511253774166107 -0.14936701953411102 -0.05955652892589569 0.003768846159800887 -0.37505805492401123 0.20378457009792328 0.24440933763980865 0.05165376886725426 0.11960198730230331 -0.1298648715019226 -0.11622472107410431 
-0.22161826491355896 -0.17868860065937042 -0.10507438331842422 0.151588574051857 0.25701233744621277 -0.06458917260169983 0.12648865580558777 -0.12261028587818146 0.07364760339260101 -0.09281402081251144 0.21457120776176453 0.021092059090733528 0.23551596701145172 0.12354137748479843 -0.14059726893901825 -0.08910699188709259 
0.2362464815378189 0.09248566627502441 -0.1147046759724617 -0.06143743544816971 0.10418353229761124 0.1012633889913559 -0.17795555293560028 0.13742314279079437 -0.012005307711660862 0.0442068949341774 -0.05419870838522911 0.10657896101474762 0.2096327841281891 -0.05250217393040657 -0.09829472005367279 0.1882934868335724 
-0.2240021973848343 0.21931137144565582 0.24552103877067566 -0.13060954213142395 -0.06001030653715134 0.22726330161094666 -0.15747588872909546 -0.19520293176174164 0.1518942415714264 0.1618095189332962 0.053263142704963684 -0.34266823530197144 0.2123982012271881 -0.2638380527496338 0.20083017647266388 -0.04702153429389 
-0.03042738139629364 0.2149113267660141 -0.0045927297323942184 -0.2541852295398712 -0.29204055666923523 -0.07641712576150894 -0.11144640296697617 -0.08214820176362991 -0.051646243780851364 0.08818677067756653 -0.11186323314905167 -0.0918656662106514 -0.09701623767614365 -0.32868584990501404 0.10939181596040726 -0.055482421070337296 
-0.15523557364940643 0.08572079986333847 -0.11712393909692764 0.10150076448917389 0.07578211277723312 -0.0685701072216034 0.15382401645183563 0.007488133851438761 -0.16019383072853088 -0.17545345425605774 -0.026410629972815514 0.36966627836227417 0.159049853682518 0.07748773694038391 -0.12480873614549637 0.12782949209213257 

