-0.015420452691614628 -0.3144890367984772 -0.1534241884946823 -0.03375906124711037 0.1549357771873474 -0.09548521041870117 -0.03523946925997734 0.21831268072128296 0.35102036595344543 -0.005356455221772194 0.3098341226577759 -0.23591946065425873 -0.05662410706281662 -0.05423373356461525 0.13252675533294678 -0.18617577850818634 
0.08247581124305725 0.09236809611320496 -0.08352728188037872 -0.2387138307094574 -0.0844016894698143 -0.30051371455192566 -0.30806082487106323 0.11106348782777786 0.0643821433186531 0.20098313689231873 -0.18897461891174316 0.00174575368873775 -0.2857877016067505 -0.22070623934268951 0.20017290115356445 -0.5147010087966919 
-0.16566134989261627 0.0797148123383522 -0.04420747980475426 0.029300320893526077 -0.2753680646419525 -0.07803045958280563 0.344183087348938 -0.13839459419250488 0.26904311776161194 0.3317192494869232 0.26404231786727905 -0.3188529908657074 -0.06589116901159286 0.2224007248878479 0.1894514560699463 0.1439652293920517 
-0.018340542912483215 -0.11754804104566574 0.15612797439098358 0.1293565332889557 -0.29514071345329285 0.2389003485441208 0.2566385865211487 -0.16294138133525848 -0.4076828062534332 0.028886111453175545 0.09528101235628128 0.44414642453193665 0.020819183439016342 -0.22601594030857086 0.037517476826906204 0.3340531885623932 
0.19789785146713257 -0.1626853495836258 -0.11573684960603714 0.29190903902053833 0.06308983266353607 -0.2043834924697876 0.33174407482147217 -0.35505279898643494 0.14174537360668182 0.3083116114139557 -0.18040740489959717 -0.0701344907283783 0.07874614745378494 0.21530739963054657 -0.38043734431266785 0.1702970564365387 
0.19241249561309814 -0.048749446868896484 -0.32795047760009766 0.005127316806465387 0.37201863527297974 0.3226015865802765 -0.25733816623687744 0.3802366852760315 0.3691804111003876 -0.283181756734848 0.05448266491293907 -0.5641735792160034 0.14772571623325348 -0.20464588701725006 -0.009008293971419334 -0.40657901763916016 
-0.21925492584705353 0.041778553277254105 -0.06608777493238449 0.03097839094698429 0.12986907362937927 0.08940551429986954 0.13249965012073517 0.1980932652950287 -0.07682334631681442 -0.11819473654031754 -0.1920638382434845 0.15093748271465302 -0.09784103184938431 0.2345331609249115 0.01233908161520958 0.020755572244524956 
0.17428205907344818 0.03537369519472122 -0.13566410541534424 0.2582561671733856 0.13899609446525574 -0.17830616235733032 0.12216563522815704 -0.02606441266834736 -0.23859430849552155 0.07370781153440475 -0.2174714356660843 0.0038575029466301203 -0.12281709164381027 -0.21178728342056274 -0.07302360981702805 0.144612655043602 
-0.3502519726753235 0.32683560252189636 -0.22567832469940186 -0.3141809105873108 -0.23863133788108826 -0.13806167244911194 0.19837327301502228 0.09235940873622894 0.19980260729789734 0.2091439664363861 -0.01237953919917345 -0.03296196833252907 0.22179153561592102 0.10210201889276505 0.1744007170200348 -0.07038883119821548 
-0.011350690387189388 0.18968380987644196 -0.06177815422415733 -0.060040898621082306 -0.4347516894340515 0.29724493622779846 -0.07075962424278259 -0.3413715958595276 -0.4928049147129059 -0.26276978850364685 -0.23480044305324554 -0.28097397089004517 -0.02547614276409149 0.350768506526947 -0.10311070084571838 0.2176171988248825 
0.028341617435216904 0.32773783802986145 -0.11494365334510803 -0.008421029895544052 -0.3559573292732239 0.050192635506391525 -0.05071340501308441 0.19139748811721802 -0.3816734254360199 -0.35823601484298706 -0.3004232943058014 -0.23229064047336578 0.11668406426906586 -0.02537042275071144 0.23499755561351776 0.23318476974964142 
-0.1527978628873825 -0.16344591975212097 0.0485069677233696 -0.09147275984287262 -0.05418924614787102 0.14868752658367157 0.10603097826242447 -0.3093886077404022 0.22922185063362122 0.19754861295223236 0.15797355771064758 0.11220934242010117 0.3236546516418457 0.26160964369773865 -0.09658253192901611 0.16015836596488953 
-0.05311653017997742 -0.25657668709754944 -0.2729576826095581 0.4524805247783661 0.11108311265707016 0.24803635478019714 0.0014878771035000682 0.19654595851898193 0.06609845161437988 0.2875818610191345 0.14442791044712067 0.19703678786754608 0.05975756794214249 0.11495274305343628 -0.3890398442745209 0.15582045912742615 
0.17030267417430878 -0.13578370213508606 -0.3650526702404022 0.23629362881183624 0.1748940348625183 -0.222188338637352 -0.1256508082151413 0.009815197438001633 -0.07718522846698761 0.24631571769714355 0.19274626672267914 -0.054476961493492126 0.15452900528907776 -0.2975597381591797 -0.03450438380241394 -0.17359474301338196 
0.15307217836380005 -0.07200580090284348 -0.04361756891012192 -0.25434410572052 0.10508576780557632 -0.09915903210639954 -0.07739650458097458 0.23501655459403992 0.17014080286026 -0.2825222611427307 0.11460071802139282 0.1038166731595993 0.15107150375843048 0.056359317153692245 -0.1432870775461197 0.05784408748149872 
-0.11401773989200592 0.045741450041532516 0.07008276879787445 0.30294492840766907 -0.017434796318411827 0.026433756574988365 -0.024847742170095444 0.057441290467977524 0.017391454428434372 -0.2499886453151703 -0.3612576425075531 -0.27563920617103577 -0.08723296970129013 -0.26262614130973816 0.11324793100357056 0.07154785841703415 
0.11784674972295761 0.08269263803958893 -0.07584235817193985 0.07444006949663162 0.27841705083847046 0.197931170463562 -0.06948511302471161 0.21729876101016998 0.010275216773152351 -0.11312921345233917 -0.2613344192504883 -0.1904226392507553 -0.03540121018886566 0.22263233363628387 -0.3284052014350891 0.25165557861328125 
0.2938898801803589 0.08452245593070984 -0.3509785830974579 -0.03481224924325943 0.18140193819999695 0.15119430422782898 -0.10933162271976471 0.14748463034629822 0.33342626690864563 0.22832037508487701 0.11649669706821442 -0.06478673964738846 -0.22330617904663086 0.20283366739749908 0.05222668871283531 -0.05832213908433914 
-0.11276009678840637 -0.30339720845222473 -0.15866844356060028 0.1582954078912735 0.09179752320051193 0.3498671054840088 -0.08983106166124344 0.1550169140100479 0.4140446186065674 -0.03335753083229065 0.2571617066860199 -0.28551092743873596 0.2584843337535858 -0.019520228728652 -0.033568717539310455 0.009499741718173027 
-0.2615974247455597 0.39865270256996155 -0.23553353548049927 0.2506393492221832 0.17413240671157837 -0.03146480768918991 0.12125008553266525 0.004446456208825111 -0.24529600143432617 -0.33794885873794556 -0.07341715693473816 0.4626954197883606 -0.14634841680526733 -0.008745064027607441 0.3089281916618347 0.01509994175285101 
0.06993650645017624 -0.12759585678577423 0.07844690978527069 -0.12343835830688477 -0.39671188592910767 0.09906197339296341 -0.12457595020532608 0.03418279439210892 -0.07557311654090881 -0.1284095048904419 0.07283009588718414 -0.09829585999250412 0.14511524140834808 0.24079781770706177 0.20905357599258423 -0.2598392069339752 
0.03204869478940964 0.2907620370388031 -0.13514341413974762 -0.04853551462292671 0.0175812765955925 0.22696106135845184 -0.0018067777855321765 -0.09190314263105392 -0.40510284900665283 -0.41802117228507996 0.04582562297582626 0.34455087780952454 -0.21173861622810364 -0.20524369180202484 -0.03916545584797859 -0.2732253074645996 
0.17938777804374695 0.10478905588388443 -0.10979729890823364 -0.1639801412820816 -0.17182324826717377 -0.215497687458992 -0.19167497754096985 0.137103870511055 0.22471340000629425 -0.07004290819168091 0.2340697944164276 -0.034554075449705124 0.05588015541434288 0.08236024528741837 0.10202531516551971 0.20646899938583374 
0.0016411803662776947 -0.10389497131109238 0.17571167647838593 -0.23596137762069702 -0.26850491762161255 0.008937224745750427 0.03506624326109886 -0.09553531557321548 0.06174658238887787 0.006652868818491697 0.16211609542369843 0.023225849494338036 -0.014690200798213482 -0.11676479130983353 -0.21165846288204193 0.010421331971883774 
-0.32847750186920166 0.1972273290157318 -0.05263610929250717 0.1843050718307495 -0.03583501651883125 0.07461920380592346 0.23140688240528107 -0.01934993453323841 -0.13993434607982635 0.15694159269332886 -0.0006600370397791266 0.015025919303297997 -0.09201016277074814 -0.005050173494964838 0.07628334313631058 0.025149408727884293 
0.19180622696876526 -0.363047331571579 0.1899196356534958 0.22793516516685486 0.004906536545604467 0.21968741714954376 -0.00636560982093215 -0.28639259934425354 0.14300109446048737 0.08756416290998459 -0.19327406585216522 0.021524742245674133 0.10529615730047226 -0.1851450502872467 -0.2684248685836792 0.004617000930011272 
0.25246191024780273 0.05749690160155296 0.17366881668567657 -0.1780078411102295 0.04166846722364426 -0.1326223462820053 0.1581144779920578 0.02493862621486187 -0.28904661536216736 -0.1692538857460022 -0.030507240444421768 0.23712080717086792 0.16762080788612366 0.2891833484172821 0.250248521566391 -0.052932024002075195 
-0.07356932759284973 -0.27648529410362244 0.1583603173494339 0.20383691787719727 -0.035468827933073044 0.05699731037020683 -0.3308892250061035 -0.27790892124176025 0.05658821761608124 -0.2754219174385071 -0.2451474368572235 0.27333709597587585 -0.1523415446281433 0.13275146484375 -0.07044770568609238 -0.11442076414823532 
-0.032226938754320145 -0.21528777480125427 -0.4321002662181854 -0.04603712260723114 -0.2829877436161041 -0.015576587058603764 0.14625102281570435 0.10114218294620514 -0.1885494887828827 -0.18599218130111694 -0.20995131134986877 0.11707928776741028 -0.23375000059604645 0.08257649838924408 0.24195946753025055 -0.13040375709533691 
0.1451510339975357 -0.03938446193933487 0.11628284305334091 0.07718953490257263 0.16266654431819916 -0.20149466395378113 0.0874076783657074 0.07594235241413116 0.3704131543636322 0.24310874938964844 0.22794941067695618 0.07524289935827255 -0.17560777068138123 0.18221013247966766 -0.09777387976646423 -0.24892427027225494 
-0.21913854777812958 0.0355050191283226 -0.0012969070812687278 -0.26808682084083557 0.002000706037506461 -0.03435353934764862 0.28980913758277893 -0.02634419873356819 0.04278508573770523 0.10328394919633865 0.1755477339029312 -0.22497357428073883 0.24407565593719482 0.3262398838996887 -0.15313763916492462 0.1964758038520813 
-0.3110896646976471 -0.01222579088062048 -0.36238306760787964 0.10598541796207428 0.2963930070400238 0.36309343576431274 0.14077191054821014 -0.14284612238407135 -0.5401580333709717 0.11409322917461395 -0.0038825564552098513 0.36340340971946716 -0.11890558898448944 -0.11414875090122223 -0.0016040779883041978 -0.29381924867630005 
-0.17453207075595856 0.26585185527801514 -0.3331124484539032 0.16867482662200928 0.06923267245292664 0.0069058858789503574 -0.20011703670024872 -0.27611568570137024 -0.12338151782751083 -0.2257828414440155 -0.13649506866931915 0.2353634387254715 -0.18762081861495972 0.13647578656673431 -0.15916471183300018 0.004767708480358124 
-0.14235585927963257 -0.07350486516952515 0.041545379906892776 -0.20119702816009521 0.06164723262190819 -0.24463672935962677 0.15848052501678467 -0.10702530294656754 0.16348759829998016 0.30941492319107056 0.19799013435840607 0.0073279161006212234 0.05373264476656914 -0.18129976093769073 0.34654372930526733 0.19009162485599518 
0.25895920395851135 0.1293671578168869 0.1879625767469406 -0.0792473703622818 -0.12275467067956924 -0.05449172481894493 0.037643589079380035 0.15518763661384583 0.16445805132389069 -0.429505318403244 -0.24131157994270325 0.12177308648824692 0.1545512080192566 0.12311162054538727 0.18417493999004364 0.09019871801137924 
0.023849360644817352 0.10004469007253647 0.018797870725393295 0.35960930585861206 -0.4640418589115143 -0.2148526906967163 0.2508077025413513 -0.1569465696811676 -0.21713097393512726 -0.17409586906433105 -0.32457149028778076 0.4274541735649109 -0.1047767698764801 0.19577144086360931 0.00904084648936987 -0.17638356983661652 
-0.3951413631439209 0.013294157572090626 -0.24850304424762726 -0.34000512957572937 0.01897444576025009 -0.22979839146137238 -0.26524555683135986 -0.13005711138248444 -0.21284028887748718 0.08695775270462036 0.2611358165740967 -0.31432920694351196 0.14775460958480835 -0.37212425470352173 -0.07731030881404877 0.14711526036262512 
-0.036713387817144394 -0.15641537308692932 -0.026883913204073906 0.04344618692994118 -0.28683918714523315 -0.17933443188667297 0.08503500372171402 -0.2992875874042511 -0.26448044180870056 -0.11431349068880081 0.16294850409030914 0.10387668758630753 0.10778473317623138 0.14802753925323486 -0.11613651365041733 -0.17002418637275696 
-0.24375340342521667 -0.11225264519453049 0.1170847937464714 -0.0439605712890625 0.051402054727077484 -0.177454873919487 0.046247612684965134 -0.07531854510307312 0.1897393763065338 -0.12083867937326431 0.1680922508239746 0.2849922180175781 0.07119298726320267 -0.13914550840854645 -0.17187607288360596 0.18645235896110535 
0.15354394912719727 0.18393222987651825 -0.20849746465682983 -0.19397999346256256 -0.1848820149898529 -0.20921294391155243 -0.08309467136859894 0.10323606431484222 -0.1859012246131897 0.17477662861347198 0.14431791007518768 -0.27458131313323975 -0.15785305202007294 0.030504239723086357 -0.14287370443344116 0.025699613615870476 
0.07030165195465088 -0.07225336134433746 0.028480127453804016 0.1334601193666458 0.04950038343667984 0.1311112642288208 0.19744449853897095 -0.10108117014169693 0.05188244953751564 -0.1813039630651474 -0.11266742646694183 0.14974051713943481 0.055525604635477066 -0.18590420484542847 -0.3032528758049011 0.03628076985478401 
0.06429487466812134 0.1926911622285843 0.03761070594191551 0.11100480705499649 0.011357825249433517 0.2012334167957306 -0.15952348709106445 0.17158088088035583 -0.07995933294296265 0.40847843885421753 0.1639915108680725 0.013199695385992527 -0.22792619466781616 -0.27841728925704956 0.015162275172770023 -0.021368687972426414 
0.23340266942977905 0.058907169848680496 -0.17771299183368683 -0.08248824626207352 -0.2083599865436554 0.06557260453701019 -0.12344425916671753 0.21413034200668335 0.10167033970355988 -0.012503724545240402 -0.05884433910250664 0.18022848665714264 0.09475333243608475 -0.14968498051166534 -0.0862855613231659 0.1752307116985321 
-0.2509686350822449 -0.05502195656299591 -0.2873445749282837 -0.36838018894195557 0.1843527853488922 -0.5596402883529663 -0.28254809975624084 -0.12310712784528732 0.2743508517742157 0.1743556410074234 0.21896861493587494 0.004104413092136383 -0.20477181673049927 -0.2657144367694855 -0.1965324431657791 -0.17105373740196228 
-0.04785531759262085 0.23558546602725983 -0.37638646364212036 -0.02672618255019188 0.11569396406412125 0.01861397922039032 0.14857737720012665 0.2026563137769699 -0.23423950374126434 0.21573470532894135 -0.005249171983450651 0.13600680232048035 -0.16894792020320892 -0.1504586637020111 0.12659524381160736 0.15823578834533691 
0.20264533162117004 0.18341316282749176 -0.3194434344768524 -0.1225661039352417 -0.0571117028594017 -0.23595064878463745 -0.10863541066646576 0.3360264301300049 -0.14027832448482513 -0.2232334315776825 0.06401841342449188 -0.23318219184875488 -0.052006181329488754 -0.038499750196933746 -0.17687278985977173 0.08980755507946014 
0.12989461421966553 -0.03595035895705223 0.22054176032543182 0.0707472711801529 0.22647522389888763 -0.11458315700292587 0.15308521687984467 0.11085920035839081 0.31148016452789307 -0.1121729165315628 0.19052553176879883 -0.22476522624492645 0.16666162014007568 0.21460840106010437 -0.0796981230378151 -0.14949317276477814 
-0.157836452126503 -0.21184249222278595 0.14540235698223114 0.10804423689842224 0.3195187449455261 -0.11300893127918243 -0.21699510514736176 0.08706186711788177 -0.30024734139442444 0.12881693243980408 -0.4727979600429535 -0.04583556205034256 -0.3707042932510376 0.07641036063432693 0.08076777309179306 0.0451003760099411 

