0.2961658239364624 0.5393790602684021 -0.08239582180976868 -0.03985035791993141 -0.41137605905532837 -0.4595019519329071 0.22208917140960693 0.6871313452720642 -0.011172093451023102 0.21986839175224304 -0.3709942102432251 0.17434637248516083 -0.5199707746505737 0.2637954354286194 0.17199654877185822 0.10384584963321686 
-0.082542784512043 0.11979827284812927 0.03157918527722359 -0.14118055999279022 0.04316691681742668 0.03144385293126106 0.0906379222869873 0.12261530011892319 -0.18527646362781525 -0.14358100295066833 0.06021273136138916 -0.11776455491781235 0.04005454108119011 -0.26022255420684814 -0.1549973338842392 -0.14514300227165222 
0.1980217546224594 0.6872547268867493 -0.13904477655887604 -0.20859870314598083 -0.4663122892379761 -0.3853479027748108 0.37286674976348877 0.6415523886680603 -0.29181694984436035 0.08046300709247589 -0.0428641103208065 -0.061440810561180115 -0.3854692280292511 0.31380075216293335 0.10344848036766052 -0.21268287301063538 
0.1645287275314331 0.062239911407232285 0.07582182437181473 -0.070530466735363 0.011554481461644173 0.12292715162038803 -0.3509003221988678 -0.11928694695234299 -0.33236387372016907 -0.2396160215139389 -0.320709228515625 0.07476089149713516 -0.2660471200942993 -0.07910014688968658 0.018936630338430405 0.043995168060064316 
0.1973775178194046 0.21440815925598145 -0.09618572145700455 -0.20872922241687775 -0.01018354669213295 -0.018488509580492973 0.13403354585170746 0.015100385062396526 0.16665098071098328 0.021912844851613045 -0.08192224055528641 -0.18119871616363525 0.19330577552318573 0.08394555002450943 -0.020756518468260765 0.1453089714050293 
0.10131242871284485 -0.05303392559289932 0.1499040722846985 0.15671028196811676 -0.20429223775863647 -0.12407242506742477 -0.15249131619930267 -0.12177323549985886 0.48198825120925903 0.1529543250799179 0.20581449568271637 -0.13623076677322388 0.36619412899017334 0.11624207347631454 0.20933663845062256 0.4186195433139801 
-0.1982562243938446 0.24474868178367615 -0.12919354438781738 -0.030770152807235718 -0.4094424545764923 -0.02442256733775139 -0.009318966418504715 0.2898193895816803 0.23839837312698364 -0.029535964131355286 -0.04110198840498924 0.11272177845239639 -0.24616466462612152 -0.0677405595779419 0.2274336963891983 -0.05039144679903984 
0.0008842740789987147 -0.053506847470998764 -0.1635921746492386 -0.019920995458960533 0.061542898416519165 0.06150388345122337 -0.011663172394037247 0.14739899337291718 0.10915979743003845 0.21694448590278625 0.36282822489738464 -0.18242689967155457 0.129973366856575 0.1256304383277893 -0.014323266223073006 -0.043677713721990585 
-0.07250477373600006 -0.294188529253006 -0.2847531735897064 -0.13296891748905182 -0.271429181098938 -0.19281932711601257 0.1832054853439331 0.11350618302822113 0.19457288086414337 0.2121540606021881 -0.18191003799438477 0.02147848531603813 -0.22422322630882263 -0.06498783826828003 0.269133985042572 0.09733032435178757 
-0.24292270839214325 0.06985656917095184 -0.3460729718208313 0.12204484641551971 -0.2726535201072693 0.11733389645814896 -0.0012578683672472835 0.006313184276223183 -0.08051308989524841 0.013666984625160694 -0.041623033583164215 -0.04195670410990715 -0.34068232774734497 -0.017800267785787582 -0.3518999218940735 -0.27563172578811646 
-0.022196056321263313 0.21577294170856476 -0.12189431488513947 -0.15266577899456024 0.12019272893667221 -0.17537741363048553 0.12116387486457825 0.10095003992319107 0.014184843748807907 -0.16200226545333862 0.22140085697174072 0.05588578060269356 0.21417833864688873 -0.27543020248413086 0.2502262592315674 -0.0929717868566513 
-0.23822975158691406 -0.03357277438044548 0.04304541274905205 0.05770125612616539 -0.02673724852502346 0.09624707698822021 0.351375013589859 0.10375135391950607 0.08758706599473953 -0.0014196520205587149 0.06223904341459274 -0.037250928580760956 0.11004513502120972 0.006801276467740536 -0.4078352153301239 0.03245453163981438 
-0.04384610801935196 -0.2903543710708618 -0.17678889632225037 0.03371813893318176 -0.19136272370815277 -0.08412908017635345 0.04479460045695305 0.23046563565731049 0.20431062579154968 -0.22726355493068695 -0.24199332296848297 0.15923689305782318 -0.22288697957992554 0.10343054682016373 0.1917027235031128 0.20752637088298798 
-0.014710464514791965 -0.12257656455039978 -0.4164268672466278 0.03289831802248955 -0.08031567931175232 -0.4821888506412506 0.13171063363552094 0.17236033082008362 0.32779186964035034 0.05819617211818695 -0.22904029488563538 -0.08008986711502075 -0.24658003449440002 0.2887517809867859 0.0037037930451333523 0.3090386390686035 
-0.03962421789765358 0.13209471106529236 -0.6305256485939026 -0.1598278284072876 -0.3341677188873291 -0.5057204365730286 0.10966770350933075 0.23076023161411285 0.340786874294281 -0.06296000629663467 -0.1430671662092209 -0.16833998262882233 -0.00025474667199887335 0.2350439876317978 0.07796022295951843 0.2656254172325134 
0.19449235498905182 0.42137086391448975 0.13547231256961823 0.22727063298225403 -0.18367645144462585 -0.5364758968353271 -0.2751525938510895 0.4113970100879669 0.2744321823120117 -0.045234013348817825 0.07252788543701172 0.17336535453796387 0.07836627215147018 0.4359709620475769 0.045000623911619186 -0.4914221167564392 
-0.26731106638908386 0.1288347989320755 -0.07849237322807312 -0.015381380915641785 -0.3069645166397095 -0.07686828076839447 0.14088380336761475 0.02145151048898697 0.11411066353321075 0.15240409970283508 0.11554142832756042 0.11216454207897186 -0.07643720507621765 -0.03181967884302139 -0.13681598007678986 -0.20205050706863403 
-0.08018051087856293 -0.3819787800312042 -0.02281946875154972 0.21542425453662872 0.1762913465499878 0.16164787113666534 0.4370157718658447 0.2663846015930176 0.14273402094841003 0.5296554565429688 0.18357491493225098 0.17320497334003448 0.02978046052157879 -0.06911671161651611 0.17443948984146118 -0.3787890374660492 
-0.16615787148475647 -0.3192152678966522 0.10498664528131485 -0.07868744432926178 0.30038076639175415 0.16345547139644623 -0.37601369619369507 -0.2838924527168274 -0.1633852869272232 -0.31830450892448425 -0.10291291028261185 -0.11778940260410309 0.04876270890235901 -0.24441654980182648 -0.11011086404323578 -0.12628962099552155 
-0.1021542176604271 0.29828140139579773 -0.04275306314229965 0.2052278071641922 0.020728228613734245 -0.13045266270637512 0.01170954667031765 0.1804012954235077 0.2116611897945404 0.3008944094181061 -0.09069377928972244 0.08623255789279938 -0.2643098831176758 0.0003055821289308369 -0.238758385181427 0.049982912838459015 
0.08742938935756683 -0.15310509502887726 -0.19809691607952118 -0.05004020407795906 -0.22032277286052704 -0.34338292479515076 0.044040072709321976 -0.1902540624141693 -0.12822875380516052 -0.15720440447330475 -0.23357807099819183 -0.07155118137598038 -0.23296698927879333 -0.17113851010799408 -0.32131296396255493 -0.2941470146179199 
0.0028140400536358356 -0.209376260638237 -0.04790005087852478 0.2983907461166382 -0.10584023594856262 -0.4760863482952118 0.22481365501880646 0.17907604575157166 0.31752169132232666 0.6094532012939453 0.21530120074748993 -0.06177080422639847 0.3461686968803406 0.054781217128038406 0.14635111391544342 0.006767990067601204 
-0.30217355489730835 0.1010742038488388 -0.3407069146633148 0.07715211063623428 -0.1514609158039093 0.08106191456317902 0.39449751377105713 0.24440719187259674 -0.16731326282024384 0.054184701293706894 -0.14669521152973175 0.18860816955566406 -0.4164087176322937 0.3293178677558899 0.20040257275104523 -0.271572470664978 
-0.20921868085861206 0.10496607422828674 -0.23967696726322174 0.16652223467826843 -0.28818830847740173 -0.27276864647865295 0.21766109764575958 0.2585434913635254 0.009230381809175014 -0.06457969546318054 -0.4245626926422119 0.014628930017352104 -0.22945700585842133 0.36046290397644043 0.19303186237812042 -0.19355061650276184 
-0.08802759647369385 -0.1598394513130188 -0.05143986642360687 0.17681244015693665 0.07635917514562607 0.18541833758354187 0.24501922726631165 0.034930601716041565 0.11932475119829178 -0.1340833157300949 0.14546488225460052 -0.07948199659585953 -0.12835568189620972 0.07917726039886475 0.17042416334152222 -0.20589511096477509 
-0.2668400704860687 0.027213454246520996 -0.32847002148628235 -0.1548016518354416 -0.21343114972114563 0.11241115629673004 0.321321040391922 0.11606928706169128 0.1348365992307663 0.1474342793226242 -0.22419953346252441 -0.08081134408712387 -0.3530399203300476 0.2029256671667099 0.1621662825345993 -0.19858825206756592 
-0.05018423870205879 -0.16930997371673584 -0.2899087071418762 -0.028379537165164948 -0.18211090564727783 -0.06252530217170715 0.028048498556017876 -0.019339533522725105 0.11610636115074158 -0.01911976747214794 0.057918135076761246 -0.06563197821378708 -0.2937133014202118 -0.2742916941642761 -0.1954517960548401 -0.18492576479911804 
-0.08849693089723587 -0.23854316771030426 0.13492482900619507 0.15570473670959473 0.21963782608509064 0.250232994556427 0.21868260204792023 -0.18835456669330597 -0.14539548754692078 -0.11688457429409027 0.2057606726884842 -0.051765359938144684 -0.027931345626711845 0.1664656698703766 -0.4938249886035919 0.0751747339963913 
-0.45540496706962585 0.20829173922538757 -0.061060830950737 -0.03498831018805504 0.1967320740222931 0.1196068748831749 0.1263023316860199 0.10287255048751831 -0.041128672659397125 0.01675844006240368 -0.15633536875247955 0.19032084941864014 -0.04606224596500397 -0.122640460729599 -0.33412477374076843 -0.23825287818908691 
-0.06795687973499298 0.505670964717865 -0.0261223241686821 0.4863646924495697 0.0586739107966423 -0.20640122890472412 0.12495975196361542 0.13035425543785095 0.21818573772907257 0.41120466589927673 0.16206209361553192 0.13057398796081543 0.2098938524723053 0.2762099802494049 -0.020666565746068954 -0.1846609115600586 
-0.23928101360797882 0.1547803431749344 -0.21870693564414978 0.07733265310525894 -0.2411443144083023 -0.2086876630783081 -0.16326555609703064 0.06933363527059555 -0.0313265360891819 0.03443743661046028 -0.19577975571155548 0.05372481793165207 -0.20909613370895386 0.1579761654138565 0.14603520929813385 0.09182155877351761 
-0.08509206026792526 -0.1496003121137619 0.07223809510469437 -0.008547086268663406 -0.2791990339756012 -0.4063762128353119 0.015698717907071114 0.093986377120018 0.06978335976600647 -0.14997968077659607 -0.38501834869384766 -0.19387789070606232 -0.3669734597206116 0.11421213299036026 0.27959030866622925 -0.029815133661031723 
-0.11465815454721451 -0.11646188050508499 -0.03762537240982056 0.08865708857774734 0.34587937593460083 -0.222599595785141 0.0897941067814827 0.12976261973381042 0.12580108642578125 0.49052494764328003 0.07316169887781143 -0.07756887376308441 -0.14148090779781342 -0.05578183755278587 -0.10559365898370743 0.027711324393749237 
0.06765969097614288 0.1043039932847023 0.02936909906566143 -0.2825509309768677 0.07326313853263855 -0.0661584883928299 0.10960053652524948 -0.0437973290681839 -0.11320662498474121 0.4603695273399353 0.2380898892879486 0.021907884627580643 -0.054416585713624954 -0.06039245054125786 0.2072015106678009 0.24596746265888214 
-0.12809376418590546 0.24750261008739471 -0.11738608777523041 0.2459338903427124 0.032381571829319 -0.3519665002822876 -0.4278120994567871 0.4440368413925171 -0.06115959584712982 0.10625700652599335 0.004438504111021757 0.10863287001848221 0.20273327827453613 -0.002264894312247634 -0.19059325754642487 -0.15384535491466522 
-0.20108631253242493 0.12557214498519897 0.05363228917121887 0.07282731682062149 0.333589643239975 -0.028234723955392838 -0.07445836812257767 -0.17032790184020996 -0.287009060382843 -0.18847809731960297 -0.20135432481765747 -0.07726940512657166 -0.05795211344957352 -0.145376056432724 0.21674412488937378 0.094611257314682 
0.05660403147339821 -0.00904128048568964 -0.029994355514645576 -0.3441392183303833 0.042956624180078506 0.018174994736909866 0.01324579305946827 -0.05331183224916458 -0.2613357603549957 0.23103025555610657 0.37030279636383057 -0.3322746157646179 0.19272291660308838 -0.1315905749797821 0.06231673061847687 -0.16973821818828583 
-0.38048654794692993 0.5355402827262878 0.0855921134352684 -0.2176390439271927 0.07401882857084274 -0.11488305032253265 -0.33305102586746216 0.3443850576877594 -0.035880196839571 0.08472545444965363 0.12093189358711243 -0.033751435577869415 0.08762676268815994 0.27622342109680176 -0.2833205759525299 0.25798672437667847 
0.10694809257984161 0.0014126464957371354 -0.4270493984222412 -0.03280775249004364 -0.4102342128753662 -0.34432804584503174 0.1471412032842636 0.17705568671226501 -0.03418248891830444 0.04956047236919403 -0.17235657572746277 -0.05942467600107193 0.055835820734500885 -0.2884161174297333 0.08858024328947067 0.15650339424610138 
-0.14894141256809235 -0.12217310070991516 0.26794925332069397 -0.029621858149766922 0.15966162085533142 -0.21990680694580078 -0.27954620122909546 -0.20372939109802246 -0.03231571987271309 0.10746926814317703 -0.18400689959526062 0.05453866347670555 -0.18795782327651978 0.15559609234333038 -0.11411769688129425 -0.04317167401313782 
0.05847988277673721 0.3702898919582367 -0.18715135753154755 -0.1039561927318573 0.010034753009676933 -0.31373581290245056 -0.3105596601963043 0.19840428233146667 0.16144955158233643 -0.22671887278556824 -0.1486871838569641 -0.021550377830863 0.3831392228603363 -0.06919096410274506 0.08340912312269211 0.5471035242080688 
-0.23037274181842804 -0.21787771582603455 0.011004348285496235 0.07257290184497833 -0.045851923525333405 -0.32414600253105164 0.058540381491184235 0.05424274876713753 0.18915635347366333 -0.27685895562171936 -0.3810206353664398 -0.006212492007762194 0.13016551733016968 0.1588943898677826 0.33523425459861755 0.032779306173324585 
-0.011811226606369019 0.03979343920946121 -0.22664794325828552 -0.29545971751213074 -0.2616529166698456 0.2831239700317383 -0.23646141588687897 -0.05631878599524498 0.26352518796920776 -0.20903393626213074 -0.19323712587356567 -0.08163923025131226 -0.08581246435642242 0.1588791310787201 -0.05359761416912079 0.20660634338855743 
-0.19014999270439148 -0.008793703280389309 0.15229341387748718 0.035407617688179016 0.21048416197299957 0.3418067395687103 0.09119074046611786 0.2059307098388672 0.04484788328409195 0.08937444537878036 -0.15222716331481934 -0.21976421773433685 -0.20486292243003845 0.3266075849533081 -0.0020501604303717613 -0.31432124972343445 
-0.09692256897687912 -0.028842657804489136 0.09264534711837769 -0.2182682305574417 0.10136117041110992 -0.20681148767471313 -0.4146752655506134 -0.19072940945625305 0.10926328599452972 0.08793115615844727 -0.1556212306022644 -0.2695121765136719 -0.06999701261520386 -0.1434466689825058 0.22039593756198883 0.37649741768836975 
-0.26390594244003296 0.16188566386699677 -0.3794075548648834 -0.07834115624427795 -0.062826968729496 0.12687468528747559 -0.49794143438339233 -0.12950719892978668 0.34244635701179504 -0.0521085262298584 0.16375388205051422 -0.3229086399078369 0.09443387389183044 0.07008174806833267 -0.03357089310884476 0.29042118787765503 
0.07039224356412888 0.17849129438400269 -0.3438967168331146 -0.13129374384880066 0.06379452347755432 0.12987074255943298 -0.49657687544822693 -0.3591625988483429 0.2512398362159729 0.40010562539100647 0.586828351020813 -0.18072670698165894 0.3044404685497284 -0.22810079157352448 -0.06423109024763107 0.2188260406255722 
0.18681465089321136 0.44268563389778137 -0.19401612877845764 0.1544274240732193 0.016920648515224457 -0.6982213258743286 -0.24733519554138184 0.06808815151453018 -0.2420334815979004 -0.06035344675183296 -0.354987233877182 -0.16679537296295166 -0.054056230932474136 -0.17544721066951752 -0.10532049834728241 0.12076427787542343 
-0.09201400727033615 -0.2889251112937927 0.161150261759758 -0.16975842416286469 0.20985236763954163 -0.3755868971347809 -0.4456738531589508 -0.3907812535762787 -0.017053505405783653 -0.30409079790115356 -0.3705551326274872 0.1746234893798828 -0.06642361730337143 -0.03893965855240822 -0.1775994449853897 0.05104532465338707 
-0.2711780369281769 0.5429174900054932 0.12447816133499146 -0.1405726820230484 0.12249257415533066 -0.8466586470603943 0.017689283937215805 0.23234570026397705 0.17744866013526917 -0.18622779846191406 0.19679893553256989 0.1988047957420349 0.21248257160186768 0.6101428270339966 -0.023984137922525406 -0.24342423677444458 
-0.20632542669773102 0.25203049182891846 0.2650209665298462 -0.024607118219137192 0.19180737435817719 0.2278779149055481 -0.2785663902759552 -0.2490810602903366 -0.3502679765224457 -0.2832685708999634 -0.24592210352420807 -0.06374456733465195 -0.25026193261146545 0.07809054106473923 0.09461957961320877 0.18554842472076416 
-0.13962267339229584 0.0591784343123436 0.24352715909481049 -0.16968142986297607 0.13093608617782593 -0.34637221693992615 -0.1330863982439041 0.25206467509269714 -0.1696510761976242 0.08689521253108978 0.29800891876220703 0.05075094476342201 0.19718366861343384 0.4020894467830658 -0.1290951520204544 0.0031949011608958244 
-0.020890001207590103 -0.02905219793319702 0.22868479788303375 0.0722900852560997 0.33429720997810364 0.05921752005815506 -0.43621596693992615 -0.2750493884086609 0.04507903382182121 -0.1803397834300995 -0.14224278926849365 0.06783297657966614 0.02605377323925495 -0.0852014422416687 -0.2448616325855255 -0.18988387286663055 
0.0036982204765081406 0.25227221846580505 0.3690851330757141 0.0015645306557416916 0.1962754875421524 -0.1205667033791542 -0.11950378865003586 0.4599715769290924 -0.12160125374794006 0.2755311131477356 0.37011682987213135 0.10663685947656631 -0.050543300807476044 0.37881433963775635 -0.307143896818161 -0.0651916116476059 
0.1527814269065857 -0.13297857344150543 -0.27954262495040894 0.021767469123005867 0.14228157699108124 -0.36221593618392944 -0.5181642770767212 -0.19907283782958984 0.12168188393115997 -0.2634681463241577 0.03687012195587158 -0.2243867963552475 0.1314544826745987 -0.0009265700355172157 0.15488778054714203 0.09531241655349731 
-0.028034662827849388 0.04920883849263191 -0.36616531014442444 0.14669939875602722 0.18393634259700775 -0.5194622278213501 -0.508546769618988 -0.15371006727218628 0.1316916048526764 -0.49587178230285645 0.0359131395816803 -0.22240623831748962 0.32842352986335754 2.1760630261269398e-05 0.22909536957740784 0.4021303653717041 
0.13844089210033417 -0.10876540094614029 -0.02904411032795906 -0.11517103016376495 -0.1540885865688324 -0.22047297656536102 0.07830459624528885 -0.0479293167591095 -0.15715399384498596 -0.25098684430122375 0.07472869753837585 0.15744204819202423 0.3283569812774658 0.05746591091156006 0.2141038477420807 -0.08948627859354019 
0.029647231101989746 -0.09215711057186127 -0.17324486374855042 0.096269890666008 -0.07721731811761856 -0.5433558821678162 -0.4608285129070282 -0.1526498943567276 -0.0003865770995616913 -0.24126718938350677 0.1695953905582428 0.0651475340127945 0.15892380475997925 0.21937093138694763 0.1412007063627243 0.2764672040939331 
0.009784340858459473 0.23443782329559326 -0.24701301753520966 -0.29217174649238586 -0.14772675931453705 0.15142716467380524 0.3799911439418793 0.2484644055366516 -0.18736082315444946 -0.25777456164360046 -0.2879392206668854 -0.07760412245988846 0.1816267967224121 0.133737251162529 -0.09751781821250916 -0.07748100906610489 
-0.0159713476896286 -0.008404230698943138 0.17824852466583252 -0.33803555369377136 0.30735480785369873 -0.04961681738495827 -0.08964433521032333 -0.1955033391714096 -0.35380738973617554 -0.14197003841400146 0.0894036665558815 -0.09153132140636444 -0.04000094160437584 0.01678510196506977 -0.01546056754887104 -0.16469648480415344 
-0.17311592400074005 -0.17830507457256317 -0.009571204893290997 0.17337334156036377 0.028212685137987137 -0.006825593300163746 0.046878449618816376 0.18834000825881958 -0.21215206384658813 0.37821489572525024 0.0881977304816246 -0.3227425217628479 -0.2593619227409363 0.15621082484722137 0.022939225658774376 -0.033468954265117645 
-0.012483539991080761 0.32377561926841736 0.11539663374423981 0.10478735715150833 -0.119914211332798 -0.23684334754943848 -0.32209497690200806 0.701560378074646 -0.16578476130962372 0.15656639635562897 -0.11717511713504791 0.22414171695709229 0.07281950861215591 0.017066743224859238 -0.4151546061038971 -0.2858014404773712 
-0.13570168614387512 -0.12897299230098724 -0.1134490892291069 0.1287708878517151 -0.31551721692085266 -0.1748111993074417 -0.06985925883054733 -0.11472804844379425 0.1721680760383606 -0.08252708613872528 -0.18167226016521454 -0.033399682492017746 0.11458709836006165 -0.02059183269739151 0.10722945630550385 0.4099661707878113 
0.19698625802993774 0.22968070209026337 -0.25724995136260986 -0.17614972591400146 0.15523061156272888 -0.18440209329128265 -0.26211753487586975 -0.26026463508605957 0.21631784737110138 0.03946748003363609 0.03869878128170967 0.05300615727901459 0.18173950910568237 -0.27055972814559937 0.16555629670619965 0.47419729828834534 
-0.5347719788551331 0.17146779596805573 0.29249194264411926 0.15867556631565094 -0.22744230926036835 -0.0638699010014534 -0.04733283817768097 0.6930378079414368 0.38225263357162476 0.6836093664169312 0.41345760226249695 0.1467650830745697 0.13155612349510193 0.04189396649599075 -0.22695963084697723 -0.38376718759536743 
-0.2653656303882599 0.10117980092763901 -0.03822717443108559 -0.17898155748844147 0.1986989974975586 -0.011265227571129799 0.12842366099357605 -0.0030152841936796904 -0.25066208839416504 -0.26438188552856445 -0.20833389461040497 -0.149224191904068 0.1033906489610672 0.07383058965206146 0.11168995499610901 -0.21389713883399963 
0.1331576108932495 0.05359675735235214 -0.03668859601020813 -0.34423261880874634 -0.09123240411281586 0.03507748246192932 -0.2525317370891571 0.6922203898429871 -0.17513954639434814 0.5305114984512329 0.2293868362903595 -0.14069776237010956 -0.09271752834320068 -0.14091414213180542 0.2450062781572342 -0.11986704170703888 
0.06821692734956741 -0.1515408754348755 0.25508394837379456 0.0019920787308365107 0.3065669536590576 -0.2033340185880661 0.2936035394668579 -0.0639708936214447 -0.1149059385061264 -0.09590759128332138 -0.16804777085781097 -0.18552106618881226 -0.25870490074157715 0.011949198320508003 -0.10494611412286758 -0.013351655565202236 
-0.19122277200222015 -0.25698864459991455 0.20880964398384094 -0.2315162569284439 0.13457243144512177 0.07685690373182297 -0.057275064289569855 -0.036252204328775406 -0.03321758657693863 0.1652977466583252 -0.06259768456220627 -0.3590749502182007 -0.16860520839691162 0.2944660484790802 0.24102167785167694 0.19859087467193604 
-0.31931495666503906 -0.2306073009967804 0.10814182460308075 -0.0629703477025032 0.3530574142932892 0.04667355865240097 0.15279239416122437 -0.05684414878487587 0.18562480807304382 0.022604385390877724 -0.010392948053777218 -0.1789695769548416 -0.14735481142997742 -0.19421936571598053 0.4406687617301941 0.1925879269838333 
0.1602657437324524 0.002561502857133746 -0.013865727931261063 -0.15834005177021027 0.2646075189113617 -0.086700938642025 0.17598043382167816 0.01448929775506258 -0.201218381524086 -0.04201604798436165 0.060568295419216156 0.16178083419799805 0.10580562055110931 -0.11322799324989319 -0.11493130028247833 0.06357478350400925 
0.06548784673213959 -0.07446661591529846 -0.05097445100545883 -0.09549903869628906 0.25127169489860535 0.06718984246253967 0.1271664947271347 0.09251400083303452 -0.2925550043582916 -0.6232315301895142 -0.19501908123493195 -0.26838648319244385 -0.24766084551811218 -0.3037209212779999 -0.16223332285881042 0.17303411662578583 
-0.18432702124118805 0.10319046676158905 0.4844168424606323 0.10686582326889038 0.21001996099948883 0.01903291791677475 -0.1778511255979538 -0.13494764268398285 -0.10918287932872772 0.11932411044836044 0.3215539753437042 0.11744507402181625 -0.1694757491350174 -0.1620217114686966 -0.019914813339710236 0.29819023609161377 
-0.026109235361218452 -0.09460338205099106 -0.24400906264781952 -0.12238788604736328 0.009958887472748756 -0.40904197096824646 -0.4241569936275482 -0.26668408513069153 0.12284836173057556 -0.04100886359810829 -0.24457645416259766 -0.17760783433914185 -0.1289672702550888 -0.42289799451828003 0.17966264486312866 0.5878223776817322 
0.057672977447509766 0.12909533083438873 0.24396789073944092 -0.23419684171676636 -0.22720639407634735 -0.25648176670074463 -0.969352662563324 0.07555563747882843 -0.003018200397491455 -0.21722552180290222 0.1308974325656891 -0.07279476523399353 0.2869240641593933 0.0896943062543869 0.33258363604545593 -0.09269274026155472 
0.1724681854248047 0.17935189604759216 0.2654365301132202 -0.025418639183044434 0.03578862175345421 -0.3461499512195587 0.32079029083251953 -0.11636355519294739 -0.04604031518101692 -0.20002062618732452 -0.25900185108184814 -0.3686563968658447 -0.2696918845176697 -0.20028775930404663 -0.0626179501414299 0.0400659441947937 
-0.29424387216567993 0.24453821778297424 0.223231241106987 -0.2262018471956253 -0.012652454897761345 0.1571095585823059 -0.135320782661438 -0.1534794718027115 -0.2674805223941803 -0.13952921330928802 0.26958566904067993 0.09133002907037735 0.04733256623148918 -0.18572889268398285 0.15978117287158966 0.25664469599723816 
-0.47199374437332153 -0.07681502401828766 -0.11119873821735382 -0.4741399586200714 -0.10583893209695816 0.1794690638780594 -0.10556092113256454 -0.13935495913028717 -0.07717326283454895 0.0243652556091547 0.3860173523426056 0.024020293727517128 0.06391079723834991 -0.1834527999162674 0.07135265320539474 -0.09360145032405853 
-0.8478828072547913 -0.17081473767757416 0.03445566073060036 -0.25561654567718506 0.06744468957185745 0.45126616954803467 -0.2779332101345062 0.18505169451236725 -0.41510215401649475 -0.04925310239195824 0.3608950674533844 -0.25096189975738525 -0.002455799374729395 0.1295401155948639 0.09938641637563705 0.16750310361385345 
-0.06670743227005005 0.2763862907886505 -0.44120627641677856 0.15173257887363434 -0.07400532811880112 -0.12676137685775757 0.25618427991867065 0.6465615034103394 0.273287832736969 0.430682510137558 -0.3051320016384125 0.10714291036128998 -0.4869982898235321 -0.2593066096305847 0.3134772479534149 -0.21057219803333282 
0.019590338692069054 -0.02880663238465786 0.21798358857631683 -0.23090003430843353 0.2755860984325409 0.12824656069278717 0.12134651839733124 0.07363828271627426 -0.07332354784011841 -0.5734715461730957 -0.045751236379146576 0.033681582659482956 -0.20155534148216248 0.023023588582873344 -0.12642157077789307 0.1680537909269333 
-0.034128621220588684 -0.03018086589872837 -0.03991685435175896 -0.15011879801750183 -0.012354869395494461 -0.17267729341983795 -0.6239814162254333 -0.2160155326128006 0.06881202757358551 0.07103420794010162 0.21179133653640747 -0.028745874762535095 0.07478965073823929 -0.375316858291626 -0.008070670999586582 0.37955960631370544 
-0.14073306322097778 0.06279415637254715 0.2889682352542877 0.021999606862664223 0.29827916622161865 -0.1457456648349762 0.0029560800176113844 -0.28748780488967896 -0.2704188823699951 -0.10505107045173645 -0.01050072256475687 -0.05733804032206535 0.09817295521497726 -0.09322904050350189 0.08148070424795151 0.10184481739997864 
0.008100721053779125 0.14672167599201202 -0.2826113700866699 -0.08433151990175247 0.016389384865760803 -0.06638750433921814 0.16169361770153046 0.1833159178495407 0.235752135515213 -0.05878322944045067 0.03304889798164368 -0.09390304982662201 -0.1664409637451172 -0.2862812578678131 0.10603941977024078 0.24128495156764984 
-0.25517818331718445 -0.08069194108247757 0.18553628027439117 0.03821030259132385 0.39724549651145935 0.24571792781352997 0.3980591595172882 0.0623776838183403 -0.18836049735546112 -0.5044275522232056 0.0501025915145874 -0.022329356521368027 -0.24137941002845764 -0.13980573415756226 -0.09177347272634506 0.03874590992927551 
-0.2731790244579315 -0.09584219008684158 -0.1044292077422142 0.2614855468273163 -0.03553491085767746 -0.23034244775772095 0.16272114217281342 -0.07942118495702744 0.02716502919793129 -0.11098567396402359 0.19504332542419434 -0.04608531296253204 -0.22608448565006256 -0.02339104749262333 -0.2921655774116516 -0.16647610068321228 
0.01262052170932293 0.3898627758026123 0.015075946226716042 -0.33050182461738586 0.32296064496040344 0.399911493062973 -0.6156657934188843 0.19330142438411713 -0.08908990025520325 -0.16693750023841858 -0.008170331828296185 -0.06924618780612946 0.07428678870201111 -0.2940053343772888 0.1544177085161209 0.4846234917640686 
-0.13857196271419525 0.1739989072084427 0.19813042879104614 -0.24756427109241486 0.24102568626403809 0.16171087324619293 -0.38186582922935486 0.2469647228717804 -0.07573714107275009 0.13098961114883423 0.23874692618846893 0.0021250159479677677 0.18101809918880463 -0.22210320830345154 -0.05968021601438522 0.33632370829582214 
0.07700215280056 0.06430838257074356 -0.024516921490430832 -0.18139442801475525 0.12591566145420074 -0.0469069704413414 -0.3563573360443115 -0.16179797053337097 -0.12588544189929962 -0.31600421667099 -0.11006105691194534 0.04826950654387474 -0.06902386993169785 -0.4868016541004181 0.18339219689369202 0.3356236517429352 
0.029126876965165138 0.3509218692779541 0.06213404983282089 -0.30543211102485657 0.05262952297925949 0.06841454654932022 -0.8103880286216736 0.10840363055467606 -0.01408754475414753 -0.3474831283092499 -0.0622318834066391 -0.2422846108675003 -0.19308845698833466 -0.06448492407798767 0.0028786822222173214 0.41977658867836 
-0.047021593898534775 0.03661296144127846 -0.02846653014421463 0.0018871058709919453 -0.19023898243904114 -0.10437963902950287 -0.5057559013366699 -0.2383960336446762 0.32490965723991394 -0.22772377729415894 -0.10962235927581787 0.0016390008386224508 -0.32074135541915894 0.05447574332356453 0.20728150010108948 0.059687137603759766 
0.12601104378700256 0.13773323595523834 -0.0419926755130291 -0.08892157673835754 0.3990563750267029 -0.23441070318222046 0.2871224880218506 0.08637519180774689 -0.3885296583175659 -0.16098853945732117 -0.009027695283293724 0.08694349974393845 -0.2083587944507599 -0.13289061188697815 0.0992116630077362 0.09122633934020996 
0.016807904466986656 0.13087515532970428 0.25455328822135925 -0.19313445687294006 -0.007824543863534927 -0.4218882620334625 -0.015433929860591888 0.17575593292713165 0.16209793090820312 0.05733434855937958 -0.08297328650951385 -0.029494278132915497 -0.5263532400131226 0.09097712486982346 -0.028857728466391563 -0.14127536118030548 
-0.5858836770057678 -0.18194450438022614 -0.01590905897319317 0.30649128556251526 0.0037198092322796583 -0.5172802209854126 -0.4833550751209259 0.3493462800979614 0.38733306527137756 0.10771089792251587 -0.16764786839485168 0.3900291323661804 -0.14655564725399017 -0.1294926553964615 0.3094673156738281 0.4174903631210327 
0.16799336671829224 0.06270153820514679 0.0161473136395216 -0.26782092452049255 0.434450626373291 -0.043249137699604034 -0.039485473185777664 -0.11219176650047302 -0.07758903503417969 -0.10754852741956711 0.1751646101474762 -0.20991036295890808 -0.0198876541107893 -0.11366082727909088 5.78344042878598e-07 0.15251335501670837 
-0.037249960005283356 0.10721290856599808 0.35622814297676086 0.01041479967534542 0.15059030055999756 0.3362564444541931 -0.09277556091547012 0.14332157373428345 -0.22758665680885315 0.04326244816184044 0.3662225902080536 -0.16579395532608032 0.06550875306129456 -0.22811858355998993 0.20398445427417755 0.24792033433914185 

