0.22488878667354584 0.22506903111934662 0.04328504577279091 0.05894935503602028 -0.058670420199632645 0.054670076817274094 -0.32494768500328064 -0.21504764258861542 0.04502193629741669 -0.17026585340499878 -0.022271931171417236 0.26032260060310364 -0.3499518036842346 0.05964428931474686 -0.18927502632141113 -0.5099119544029236 
0.24315251410007477 0.26966336369514465 0.10547991096973419 0.13373452425003052 0.05262606963515282 0.2764298617839813 -0.14796783030033112 -0.5108820199966431 0.03121664747595787 -0.4646872878074646 -0.1918715089559555 0.35483112931251526 -0.4051182270050049 0.31581032276153564 0.2570868730545044 0.00443623960018158 
-0.1032680943608284 -0.34060558676719666 0.1691141575574875 -0.17176517844200134 0.19620467722415924 0.0040224469266831875 -0.2784384489059448 -0.23022623360157013 -0.012395346537232399 -0.1082158014178276 0.47224757075309753 0.03304964303970337 0.23187102377414703 0.3038737177848816 -0.012615877203643322 -0.2821322977542877 
-0.04800739139318466 -0.22969293594360352 -0.10812892764806747 -0.14108894765377045 0.1661023497581482 -0.07759739458560944 -0.04632880166172981 -0.15757958590984344 -0.30455565452575684 0.11848381161689758 0.43966957926750183 -0.09387405216693878 -0.0700305625796318 0.21711884438991547 -0.00921832025051117 0.08805270493030548 
0.07367826998233795 0.09587755799293518 0.030712315812706947 -0.13502472639083862 0.08609645068645477 -0.04086682200431824 -0.2236747443675995 -0.2993391156196594 -0.11328272521495819 -0.04748773202300072 0.4179939031600952 -0.1862139105796814 -0.09512222558259964 0.14905458688735962 -0.03555985912680626 -0.5227022767066956 
-0.1046544760465622 -0.7332203984260559 0.2096455842256546 0.1321626454591751 0.017979133874177933 -0.05633294954895973 0.14028747379779816 -0.19234046339988708 -0.16599313914775848 0.3154555559158325 -0.36870911717414856 -0.3311896324157715 -0.4166446030139923 0.08823563903570175 0.26249274611473083 -0.3513544797897339 
0.22086675465106964 -1.259063720703125 0.37056925892829895 -0.11796591430902481 -0.055524203926324844 0.34744319319725037 -0.21778827905654907 -0.4446367025375366 -0.5173892378807068 0.22930186986923218 -0.5236368775367737 -0.7552635073661804 0.2916756570339203 0.23977921903133392 -0.11603086441755295 0.28871089220046997 
0.005777275655418634 -0.24297766387462616 0.07748008519411087 -0.16222859919071198 0.12159314751625061 -0.23947188258171082 -0.050219226628541946 -0.3526574671268463 0.055704087018966675 -0.3237166106700897 -0.2860170900821686 -0.05220954492688179 -0.1952403038740158 0.3826327919960022 -0.03535916656255722 0.30527329444885254 
-0.06713341921567917 -0.013469141907989979 0.16629153490066528 0.03269439563155174 -0.25903159379959106 0.15052923560142517 0.25499066710472107 -0.3824622929096222 0.3354284465312958 -0.5843045115470886 0.049370281398296356 0.06823088228702545 -0.2774151563644409 -0.3806731104850769 0.2867002785205841 0.37293097376823425 
0.7910248041152954 0.3775920271873474 -0.08431169390678406 0.4250412583351135 0.1041685938835144 0.2944546937942505 0.01835821196436882 0.24290503561496735 -0.23204389214515686 -0.03989345580339432 -0.022851765155792236 -0.17971932888031006 -0.12048286944627762 -0.19484418630599976 -0.0622686930000782 0.13512776792049408 
0.18133580684661865 0.2524486482143402 0.3114575147628784 -0.21783141791820526 -0.026374071836471558 0.1826675534248352 0.2782440781593323 -0.1932746022939682 -0.1325702667236328 0.12506312131881714 0.17992925643920898 0.23184926807880402 -0.2832835912704468 -0.060040026903152466 0.045987021178007126 -0.46315133571624756 
0.08088651299476624 -0.24747303128242493 -0.2538827657699585 -0.1794508397579193 -0.02942613512277603 -0.07720616459846497 -0.048609837889671326 -0.02971644699573517 0.052205123007297516 -0.021639099344611168 0.23856377601623535 -0.16712906956672668 -0.06441451609134674 0.15277151763439178 -0.11192070692777634 0.26057857275009155 
-0.10727135837078094 0.07456810027360916 0.16728243231773376 -0.20378713309764862 -0.24961915612220764 -0.01770244725048542 -0.05787358805537224 -0.11144393682479858 -0.12310442328453064 -0.22420692443847656 0.07998225092887878 -0.12621775269508362 -0.17192892730236053 -0.35796040296554565 0.2565882205963135 -0.2698666751384735 
0.08606474101543427 -0.2163459062576294 -0.15926295518875122 -0.40054959058761597 -0.28697285056114197 -0.31787413358688354 -0.1838112324476242 -0.22970744967460632 -0.2329806238412857 0.05886935070157051 -0.031063899397850037 -0.04868510738015175 -0.026131486520171165 0.1126413568854332 -0.21893924474716187 0.10099418461322784 
-0.004754446912556887 0.2624463438987732 -0.06227469816803932 0.10224022716283798 -0.18829448521137238 -0.005506796296685934 0.03869427740573883 -0.2703598141670227 -0.23893126845359802 -0.5355434417724609 -0.150797039270401 -0.06885123997926712 -0.13677091896533966 0.026985716074705124 -0.09046508371829987 0.3429718315601349 
0.12776803970336914 0.36001262068748474 -0.036548979580402374 0.05112198367714882 -0.015439106151461601 0.29684191942214966 0.1902504414319992 -0.16867299377918243 -0.019550012424588203 -0.45358049869537354 0.08063884824514389 0.1807030439376831 -0.13573609292507172 -0.10054156184196472 0.10672156512737274 0.3139462471008301 
-0.09822564572095871 -0.28058916330337524 0.0332421138882637 0.1855001300573349 0.12327001243829727 0.1054234579205513 0.07712841033935547 0.09800242632627487 -0.029736781492829323 0.10984508693218231 -0.3968731164932251 -0.05826924741268158 -0.027317363768815994 -0.12455394119024277 0.04015976935625076 -0.01502158772200346 
0.11844028532505035 -0.09692203253507614 -0.1466725766658783 0.2930537164211273 -0.10727915912866592 -0.06284540891647339 0.2219458669424057 0.1523934006690979 0.181965172290802 -0.02033751830458641 -0.3908171057701111 -0.24949273467063904 -0.258248507976532 0.1324046552181244 0.21881352365016937 -0.11196763813495636 
0.00041164321010001004 0.0224376879632473 0.08819843828678131 -0.1832931786775589 0.015291410498321056 0.4261389672756195 -0.03224186599254608 -0.6176004409790039 0.11248394101858139 0.1045897901058197 -0.012315332889556885 -0.09503596276044846 0.30670157074928284 0.135959193110466 -0.2784980535507202 -0.3077276051044464 
0.25966811180114746 0.012525403872132301 0.1551533043384552 0.16601143777370453 0.06246190145611763 -0.02283313311636448 0.02248951606452465 -0.08171247690916061 0.2076718807220459 0.02920147031545639 0.006449853535741568 0.10483160614967346 -0.21157383918762207 -0.1533772200345993 0.2411518543958664 0.1329321265220642 
-0.1359284222126007 -0.15050272643566132 0.18016131222248077 -0.014656856656074524 0.06526656448841095 0.3559083938598633 -0.33627748489379883 -0.25002890825271606 0.1781764179468155 -0.03419382497668266 0.09463926404714584 -0.060812078416347504 0.19109851121902466 0.35721635818481445 0.09063078463077545 -0.37886756658554077 
-0.12184377014636993 0.28696396946907043 0.01425936073064804 -0.08803316950798035 0.10200220346450806 -0.05741823464632034 0.06388579308986664 -0.15026997029781342 0.11012840270996094 0.13992337882518768 0.031496018171310425 -0.10765113681554794 0.035702090710401535 0.19290883839130402 -0.4176945686340332 -0.271690309047699 
-0.0015609846450388432 -0.41422417759895325 0.2960963547229767 -0.14957627654075623 0.25892168283462524 -0.04573081061244011 -0.018879607319831848 0.17564333975315094 -0.15869763493537903 -0.7545362114906311 -0.23174743354320526 -0.2877006232738495 0.226434126496315 -0.25452375411987305 0.020905373618006706 0.08001388609409332 
-0.02112109586596489 -0.19599808752536774 0.2923256754875183 0.21420373022556305 0.12331978231668472 -0.2586216628551483 0.32071369886398315 0.10076959431171417 0.05485093593597412 -0.13288559019565582 -0.0987510159611702 0.24089115858078003 -0.4036819338798523 -0.29797229170799255 0.30462977290153503 0.1781332641839981 
-0.1932179480791092 0.09369400888681412 0.13273002207279205 0.04224330931901932 -0.15024003386497498 0.07697750627994537 0.4713216722011566 -0.17233309149742126 0.21232225000858307 0.17249736189842224 0.11328920722007751 0.06802693754434586 0.11618229001760483 -0.1640361100435257 0.19061115384101868 0.1701270192861557 
0.03170492872595787 -0.20228298008441925 -0.1578473150730133 -0.043883953243494034 0.19381126761436462 -0.1539585441350937 -0.17907194793224335 0.4951431155204773 0.12416446208953857 0.08132389187812805 0.027716785669326782 -0.12484633177518845 -0.5865094661712646 0.14933115243911743 -0.05831308662891388 0.026597416028380394 
-0.13784080743789673 -0.10936272144317627 0.10446629673242569 -0.04862966015934944 -0.23797771334648132 -0.5281200408935547 -0.2284727692604065 -0.0016310698119923472 0.1186092346906662 0.3866034150123596 0.08341572433710098 0.08462172001600266 -0.29739484190940857 0.34661293029785156 -0.04455308988690376 -0.2845074534416199 
-0.01944739744067192 0.08949866145849228 -0.044275134801864624 0.1350579559803009 0.030734479427337646 0.21010541915893555 0.15823577344417572 -0.35381948947906494 -0.020650193095207214 -0.15682344138622284 0.2047191858291626 0.11990732699632645 0.11399605870246887 0.260955274105072 0.0016958240885287523 0.05115357041358948 
-0.09837960451841354 -0.27355602383613586 -0.03584138676524162 -0.1588689684867859 -0.23899181187152863 -0.2692771553993225 -0.15510070323944092 -0.07098765671253204 0.023688320070505142 0.5136894583702087 0.09432774037122726 0.19961491227149963 0.04347330331802368 0.259017676115036 -0.1560373604297638 -0.44297701120376587 
0.16367770731449127 0.01043169479817152 0.2877478003501892 0.09864780306816101 0.018294135108590126 -0.09900816529989243 -0.19312608242034912 -0.11569945514202118 0.26373371481895447 0.34140002727508545 0.11382501572370529 0.04375413432717323 -0.4091832935810089 -0.24063342809677124 0.3617563843727112 -0.10840103775262833 
-0.14880584180355072 0.12314392626285553 0.06520925462245941 -0.07447676360607147 -0.07584952563047409 -0.03415931388735771 0.36397790908813477 0.014888658188283443 0.0685335025191307 -0.08751625567674637 0.07227884978055954 0.06671510636806488 0.04821878671646118 -0.12835437059402466 0.02977556549012661 -0.05218145251274109 
-0.06473737210035324 0.2980200946331024 -0.06057904660701752 0.3400295078754425 -0.1984521895647049 0.038363728672266006 0.11170291155576706 0.21063132584095 0.1866587996482849 0.25023168325424194 -0.17471608519554138 -0.08179228752851486 -0.0670616403222084 0.06911379098892212 -0.15863336622714996 -0.2761370539665222 
0.2580062448978424 0.19541671872138977 0.015836013481020927 0.13469858467578888 -0.0955955982208252 0.379347562789917 -0.2190476953983307 0.14153489470481873 0.04393588751554489 -0.2159934788942337 0.22110764682292938 -0.5225356221199036 -0.04310663044452667 0.12704159319400787 0.01577775739133358 -0.19067399203777313 
0.23063130676746368 0.18787957727909088 0.03012765571475029 0.2619301378726959 -0.0447014719247818 0.2422979325056076 -0.1545698493719101 0.05090111121535301 -0.349687784910202 -0.1855982095003128 -0.36844006180763245 0.06680405139923096 -0.13115699589252472 0.17051565647125244 -0.22115729749202728 -0.1175045296549797 
0.018109409138560295 -0.08210164308547974 0.299049973487854 -0.22765089571475983 0.34477925300598145 0.13517211377620697 0.12482904642820358 0.05889815464615822 0.04044682905077934 -0.13806752860546112 -0.3184441328048706 -0.1392902135848999 0.19797076284885406 0.13661685585975647 0.11924070119857788 -0.1491377204656601 
-0.10604940354824066 -0.11872314661741257 0.17968681454658508 -0.0031806083861738443 0.053813446313142776 0.3130762279033661 0.12321937829256058 -0.3078538477420807 0.14595487713813782 -0.12700363993644714 0.05308402329683304 -0.09592340886592865 -0.06425445526838303 0.0923895537853241 0.19159965217113495 0.04418158158659935 
-0.0166585985571146 0.1274484097957611 0.3356934189796448 -0.04395564645528793 0.15309366583824158 0.02372913807630539 0.11607735604047775 -0.3786531090736389 0.23123382031917572 -0.07267211377620697 -0.35239121317863464 -0.393482506275177 0.06960572302341461 0.05346863344311714 0.08700377494096756 -0.2170225828886032 
0.39239200949668884 -0.04480411112308502 0.08173520117998123 -0.03759589046239853 0.043282341212034225 -0.21646936237812042 0.2106606364250183 -0.846378743648529 -0.05739860609173775 -0.15683859586715698 -0.5053306221961975 -0.11663681268692017 0.17446699738502502 0.14163045585155487 -0.15350989997386932 -0.12226955592632294 
0.10319016873836517 0.1824236512184143 -0.19444561004638672 -0.03365343064069748 0.037208616733551025 0.27044185996055603 0.0245269313454628 -0.0892731323838234 0.4265255928039551 0.18594399094581604 -0.33980023860931396 -0.07259398698806763 0.10230255872011185 0.06526874750852585 0.8452925086021423 0.21023601293563843 
-0.18073934316635132 0.041646718978881836 0.13976244628429413 0.14122241735458374 0.00542851909995079 0.22136537730693817 0.24917587637901306 0.03216688334941864 0.29428648948669434 0.19628110527992249 -0.009479483589529991 0.1875891089439392 -0.3168143332004547 0.0842054933309555 0.235586479306221 -0.11432342976331711 
-0.4581035375595093 0.1379069983959198 -0.0492679588496685 0.15985247492790222 -0.11667033284902573 -0.08688074350357056 0.10965438932180405 -0.05835562199354172 0.012863000854849815 -0.16043713688850403 -0.30728796124458313 0.024525413289666176 0.08532461524009705 0.20645232498645782 -0.21979808807373047 -0.08483240753412247 
-0.11952457576990128 -0.21325001120567322 -0.04087429866194725 0.06560053676366806 0.1606403887271881 0.30439382791519165 0.25270402431488037 0.24668756127357483 -0.2940167188644409 -0.07223331928253174 0.17177167534828186 0.2933236360549927 -0.06301133334636688 -0.01491931639611721 -0.2833050787448883 0.18359611928462982 
-0.27400511503219604 -0.020936083048582077 -0.26842424273490906 0.0025592194870114326 -0.26246771216392517 -0.13927437365055084 -0.33364757895469666 -0.15069766342639923 -0.4938768744468689 -0.29046380519866943 0.04238034784793854 -0.18036417663097382 0.14365893602371216 -0.03861209377646446 -0.253700315952301 0.13562916219234467 
0.1343611180782318 -0.03727279230952263 0.21371780335903168 0.06894122064113617 0.04221164062619209 0.18248938024044037 0.2578159272670746 0.07466978579759598 0.13265815377235413 0.14769671857357025 -0.11622783541679382 0.11471781134605408 -0.061797089874744415 -0.1753590852022171 0.005914438050240278 0.24335891008377075 
-0.015344258397817612 0.04075842350721359 -0.11902541667222977 0.26055073738098145 -0.11547110229730606 0.11335565894842148 -0.17536354064941406 -0.40752121806144714 -0.1947031319141388 -0.31693312525749207 -0.2551814317703247 -0.22181998193264008 0.11520133167505264 0.26108118891716003 0.10392045974731445 -0.21522289514541626 
0.0643622875213623 -0.04598885402083397 -0.17856493592262268 0.30801913142204285 -0.04748888686299324 0.01391542423516512 0.46651920676231384 0.005470949690788984 -0.1507313996553421 0.0037386242765933275 0.12040639668703079 0.13142231106758118 -0.10312613099813461 0.1376223862171173 -0.09565693140029907 -0.062255751341581345 
-0.14357168972492218 0.1631813645362854 -0.024812383577227592 0.10739418864250183 -0.21905472874641418 -0.061831846833229065 0.06887798011302948 0.17098569869995117 0.23309758305549622 0.21246114373207092 -0.34506043791770935 0.04149150103330612 0.11798835545778275 -0.07965891808271408 -0.1928795576095581 -0.16961106657981873 
-0.02362777478992939 0.27404969930648804 0.14320355653762817 0.07970181107521057 -0.2539943754673004 0.01804489828646183 -0.22264491021633148 -0.10709326714277267 -0.5682609677314758 0.12302994728088379 -0.2416301667690277 0.1477857083082199 0.15824288129806519 0.17555280029773712 -0.3668070435523987 -0.1669292002916336 
-0.013241298496723175 -0.20640163123607635 0.20263448357582092 0.05257558822631836 0.03470075502991676 -0.07901474833488464 -0.0951087549328804 0.09042316675186157 -0.17146217823028564 0.15392901003360748 0.008748441934585571 -0.12474604696035385 -0.08295275270938873 -0.11368253827095032 0.023810602724552155 -0.034038860350847244 
0.15257135033607483 -0.22551260888576508 0.2263457477092743 -0.12531492114067078 -0.20875082910060883 -0.41071000695228577 0.027035189792513847 0.04401008412241936 -0.16629090905189514 -0.043913133442401886 -0.13558423519134521 0.05783712491393089 0.020405873656272888 0.09992532432079315 0.2961035370826721 -0.11460915952920914 
-0.06306268274784088 -0.13670440018177032 0.12432009726762772 -0.10536379367113113 0.15875418484210968 -0.27012142539024353 0.09881680458784103 0.08036155253648758 0.2569156885147095 -0.028740007430315018 -0.10780501365661621 -0.5951149463653564 0.20140734314918518 -0.1253945678472519 -0.1335095912218094 -0.22186091542243958 
0.10177227854728699 0.24292553961277008 0.1214757189154625 0.3565862476825714 -0.056964799761772156 -0.2060287445783615 0.2392786592245102 0.08587738126516342 -0.05052587017416954 0.032209768891334534 0.14615559577941895 0.3589969873428345 -0.2170846313238144 -0.16021868586540222 -0.1755715012550354 0.11854715645313263 
0.08262401819229126 -0.41755881905555725 -0.060543790459632874 -0.13045187294483185 0.05828554928302765 -0.08811686933040619 0.2713685631752014 -0.094850555062294 0.28045108914375305 0.18205714225769043 -0.04071970656514168 -0.4450521469116211 0.036286983639001846 0.15923409163951874 -0.027802782133221626 -0.052497971802949905 
0.35325929522514343 0.06638272851705551 -0.29746222496032715 0.10872302204370499 -0.00594343151897192 0.03397756814956665 -0.06132776662707329 0.06819628924131393 -0.08331967145204544 0.518482506275177 0.29099538922309875 -0.31543174386024475 -0.4026346206665039 -0.0940893366932869 0.0018225692911073565 -0.10687326639890671 
-0.1863226741552353 0.16968005895614624 -0.6806068420410156 0.058878783136606216 -0.07430737465620041 0.08579403162002563 -0.017035307362675667 -0.41270455718040466 0.2423989623785019 0.2682536542415619 -0.4019957482814789 -0.35946905612945557 -0.14298732578754425 -0.20186014473438263 -0.5949972867965698 0.137446328997612 
-0.11285780370235443 0.027437562122941017 -0.14809590578079224 0.33725059032440186 0.20766986906528473 0.0579746849834919 0.05775066837668419 -0.1283719688653946 -0.6935372352600098 -0.30528950691223145 0.12729910016059875 0.17789484560489655 -0.33183711767196655 0.2670837342739105 -0.18117037415504456 -0.241947203874588 
0.2489921599626541 0.025287657976150513 0.15989159047603607 0.07069210708141327 -0.27581730484962463 -0.26349401473999023 -0.22796420753002167 -0.22964954376220703 -0.36292922496795654 0.10987970232963562 -0.03002973273396492 -0.12511998414993286 0.15504245460033417 0.06099923327565193 -0.08888290822505951 -0.2712387144565582 
-0.014308411628007889 -0.13294698297977448 -0.04422317445278168 0.4085744023323059 0.1642332375049591 0.23450082540512085 0.09434942156076431 0.37790578603744507 -0.2717129588127136 0.16747000813484192 0.16540440917015076 0.17594832181930542 -0.33507341146469116 -0.0034999202471226454 0.4604104459285736 0.017552409321069717 
0.33537620306015015 -0.2837434709072113 -0.08232264965772629 0.3256695866584778 -0.2910483777523041 0.4776075780391693 -0.014112365432083607 0.1646726131439209 -0.1520390808582306 -0.09309035539627075 0.09180596470832825 0.19003748893737793 -0.2606593370437622 -0.0015699408249929547 0.40566226840019226 -0.04800362139940262 
-0.08831518143415451 0.016925077885389328 0.037267863750457764 0.11270266026258469 0.15066272020339966 -0.07619563490152359 0.1777624785900116 -0.18699677288532257 0.20618849992752075 -0.05406980216503143 0.20990052819252014 0.020166004076600075 0.06365519762039185 -0.011544120498001575 -0.15797185897827148 -0.055575285106897354 
0.2773786187171936 -0.041521258652210236 0.1534513682126999 -0.06742744147777557 -0.3243021070957184 0.13774816691875458 0.23104126751422882 -0.11455446481704712 0.04493141174316406 -0.016123048961162567 0.1925784945487976 -0.07299283891916275 -0.025810880586504936 0.2512868642807007 0.27612191438674927 -0.18834717571735382 
0.20412352681159973 0.11387263983488083 0.055814314633607864 -0.06279376894235611 -0.09599163383245468 0.0385982021689415 -0.07450513541698456 -0.02156692184507847 -0.7598506212234497 -0.24823971092700958 -0.11270156502723694 -0.13882304728031158 0.004228097386658192 0.005627877544611692 -0.043974991887807846 -0.01097524631768465 
-0.14748920500278473 0.07433974742889404 0.17973604798316956 0.051064375787973404 -0.3050086498260498 -0.22061048448085785 -0.2685069143772125 0.11385980993509293 -0.4437830448150635 -0.17685352265834808 -0.18739080429077148 -0.13123834133148193 0.30685991048812866 -0.1293892115354538 -0.00817902386188507 0.02205502800643444 
0.329673707485199 -0.14044730365276337 -0.02688063308596611 -0.162058025598526 -0.29583740234375 -0.05182594060897827 -0.16451169550418854 0.13385669887065887 -0.39045265316963196 -0.13587985932826996 -0.055002667009830475 0.09895338118076324 0.039565447717905045 0.15553481876850128 0.10698581486940384 -0.09145085513591766 
0.02783610299229622 0.1381222903728485 0.10832741856575012 -0.1292898803949356 0.3253743648529053 -0.21996758878231049 0.23426295816898346 0.28958961367607117 0.1864096224308014 -0.0790245532989502 0.26318123936653137 -0.11331333220005035 0.049422357231378555 0.14093394577503204 -0.11019683629274368 0.07373105734586716 
-0.018333828076720238 -0.16342175006866455 0.12195806950330734 -0.06874687224626541 -0.08439461886882782 -0.08164079487323761 -0.007031853310763836 0.061697088181972504 0.26554104685783386 -0.0238658357411623 0.023338455706834793 -0.08987017720937729 0.09796798229217529 0.1395053118467331 0.04714115336537361 0.19520637392997742 
-0.07631388306617737 -0.10514994710683823 0.09676943719387054 -0.05697939172387123 -0.23995111882686615 -0.15414811670780182 0.32822662591934204 0.3154695928096771 0.2348185032606125 -0.08039628714323044 0.13878490030765533 0.13284802436828613 -0.24823692440986633 -0.12450244277715683 0.12574449181556702 0.22061654925346375 
0.08609984070062637 0.06548115611076355 0.10987777262926102 0.4495691955089569 -0.19729875028133392 -0.2963077425956726 0.3166908025741577 -0.005501648411154747 0.14465148746967316 -0.01362390536814928 0.23168917000293732 -0.030219675973057747 -0.21732047200202942 0.15173546969890594 -0.2659510672092438 -0.06107592210173607 
-0.02085004933178425 0.04676276072859764 -0.1829509437084198 -0.037148378789424896 -0.23408101499080658 -0.35452431440353394 0.2959633469581604 0.3237309157848358 0.08903814107179642 -0.13866086304187775 0.10458280891180038 0.01584993116557598 -0.1674291044473648 0.015761788934469223 0.09594713896512985 0.1841173619031906 
0.1466056853532791 -0.07229389995336533 -0.2045668065547943 -0.7490062713623047 0.043142493814229965 0.3011358976364136 0.14375178515911102 0.3161669969558716 -0.33929499983787537 0.18404118716716766 -0.18667863309383392 0.11874799430370331 -0.07931075245141983 -0.09481625258922577 0.10567954182624817 -0.0620938241481781 
0.05872536823153496 1.0105777978897095 -0.5749161243438721 0.1607857495546341 0.008971544913947582 -0.04055551812052727 0.27201321721076965 -0.4315624535083771 -0.384682834148407 -0.6547162532806396 0.24146555364131927 0.3683827817440033 -0.2666163146495819 -0.5285462141036987 -0.9272241592407227 0.8938623070716858 
0.2242145836353302 -0.3488410413265228 -0.16201089322566986 0.7097716927528381 -0.09424430131912231 -0.2822248339653015 0.17331591248512268 -0.12468256801366806 -0.19380614161491394 -0.3088696002960205 0.3966640532016754 0.38639143109321594 -0.06423909217119217 0.29522818326950073 -0.25472554564476013 -0.07823877036571503 
0.11325950920581818 -0.39881399273872375 0.021559348329901695 0.01854771375656128 -0.10192590951919556 0.03072270192205906 -0.15728594362735748 0.3430876135826111 -0.00965434405952692 0.09498004615306854 -0.12115295231342316 -0.08858344703912735 0.3333967626094818 -0.048546452075242996 0.1286923885345459 -0.02284166030585766 
0.18926110863685608 -0.14819617569446564 0.03102106973528862 0.6093817949295044 0.20748573541641235 0.312635213136673 0.4518890082836151 -0.26652875542640686 -0.7351197600364685 0.16236497461795807 0.0036232240963727236 0.2755473256111145 -0.30561041831970215 0.5068508386611938 -0.010541662573814392 -0.18066231906414032 
0.10310187935829163 0.02652384154498577 -0.15265871584415436 -0.17784005403518677 0.06338685005903244 0.6018884181976318 -0.058276090770959854 0.2044285535812378 -0.047247808426618576 0.1488994061946869 -0.0696055069565773 -0.12665534019470215 -0.3348020017147064 0.38348105549812317 0.19573329389095306 0.099446602165699 
-0.06606793403625488 -0.2241416573524475 0.226523295044899 -0.06101208180189133 -0.1042480617761612 -0.32513391971588135 -0.19045807421207428 0.07640314102172852 -0.08434218168258667 -0.15041597187519073 -0.07366025447845459 -0.06282105296850204 0.04485895112156868 0.0311029851436615 0.2948867976665497 -0.21227455139160156 
0.05443008989095688 -0.058841727674007416 -0.03118300810456276 0.043946098536252975 -0.3743206262588501 0.0638597309589386 -0.002670278772711754 0.25825586915016174 0.016489392146468163 0.13218438625335693 0.04395449534058571 -0.07589918375015259 0.15085747838020325 0.09504327178001404 -0.10057715326547623 0.0983794555068016 
0.3386315107345581 -0.2825457751750946 -0.334870845079422 0.22453677654266357 0.030734140425920486 -0.249745711684227 0.02159726619720459 0.09720340371131897 -0.5416638851165771 0.06071044132113457 0.37270256876945496 0.07045521587133408 -0.09165157377719879 0.28293377161026 0.037265803664922714 -0.1661529541015625 
0.34813496470451355 -0.3512544631958008 0.19842296838760376 -0.23153960704803467 -0.2643405795097351 0.010285845026373863 -0.132045179605484 0.2753237187862396 -0.21167178452014923 -0.029933832585811615 -0.19245801866054535 0.10701067000627518 0.06969542801380157 -0.02647687867283821 0.5191853046417236 0.14725792407989502 
0.1769513487815857 -0.32955610752105713 0.03290154039859772 -0.07057713717222214 -0.09088035672903061 0.022556163370609283 -0.17911434173583984 0.29449141025543213 0.017365988343954086 0.20329779386520386 0.006431705318391323 -0.1962379515171051 0.20122748613357544 0.07380364835262299 0.2949553430080414 0.1169578805565834 

