-0.05019811540842056 -0.4395833909511566 -0.10238973796367645 0.04335322603583336 0.14972588419914246 -0.033734679222106934 0.027485311031341553 0.3628658950328827 0.06743333488702774 0.07957379519939423 -0.2732638716697693 0.09657972306013107 0.20500686764717102 0.3656059205532074 -0.2711251676082611 -0.06697022169828415 
-0.39982861280441284 -0.7454640865325928 -0.441125750541687 0.23150882124900818 -0.463704377412796 -0.17658399045467377 -0.038568753749132156 0.0714358538389206 0.0904330313205719 0.35193362832069397 0.2515661120414734 0.04968598112463951 -0.21309858560562134 -0.04802451655268669 -0.17184820771217346 -0.16403384506702423 
0.061693161725997925 0.017586160451173782 0.1609032303094864 0.23463457822799683 -0.3247086703777313 0.16790913045406342 -0.008549333550035954 0.1537906676530838 -0.0996706560254097 0.15616576373577118 0.23918460309505463 0.26840919256210327 -0.18781238794326782 0.10271293669939041 0.03386838734149933 0.058617521077394485 
-0.14357224106788635 -0.46492066979408264 -0.5574132800102234 0.026483627036213875 0.3070670962333679 0.010615918785333633 0.021508343517780304 0.08938518166542053 0.31489628553390503 0.07915770262479782 -0.03642480820417404 0.0108626838773489 0.27322709560394287 0.09804528951644897 -0.181247279047966 0.1303199976682663 
0.04801032319664955 -0.0034032100811600685 0.2431773841381073 -0.26551949977874756 -0.4100205600261688 0.019452344626188278 0.10347835719585419 0.3207092583179474 0.1828806847333908 -0.22468915581703186 0.009546560235321522 0.14253710210323334 -0.25986647605895996 0.2903536260128021 -0.37037667632102966 0.17909850180149078 
-0.1250217854976654 -0.1453353315591812 0.12517252564430237 0.0282971803098917 0.40265971422195435 -0.03733439743518829 -0.136973574757576 0.039145577698946 0.35743680596351624 -0.41102471947669983 -0.15183192491531372 0.19625109434127808 -0.09056048095226288 0.28491702675819397 -0.10566090047359467 0.0825684666633606 
-0.18995437026023865 -0.003424690105021 0.15104162693023682 -0.03296562656760216 0.011845862492918968 0.03705896809697151 -0.24254344403743744 -0.057202938944101334 0.1845884621143341 -0.14165262877941132 0.18568463623523712 0.0163229089230299 -0.40326425433158875 -0.1892433911561966 -0.3692098557949066 0.1684390902519226 
0.09344862401485443 0.36275461316108704 -0.038607530295848846 -0.32008644938468933 0.26015201210975647 -0.34244248270988464 -0.01036978792399168 -0.21978794038295746 -0.007652914617210627 0.22624793648719788 -0.18897365033626556 -0.09030535072088242 0.11863051354885101 -0.009158946573734283 -0.04033898189663887 -0.18947643041610718 
-0.4084678292274475 0.009137427434325218 0.3337112069129944 -0.0008798980852589011 -0.294618159532547 0.08273180574178696 -0.21780981123447418 -0.22290128469467163 -0.5694452524185181 -0.16501058638095856 0.29044535756111145 -0.16911183297634125 -0.18037623167037964 0.08863705396652222 -0.03004848025739193 -0.0012431178474798799 
0.32135865092277527 0.07941445708274841 -0.3774849772453308 0.314100444316864 -0.381024032831192 0.2935783565044403 -0.17998525500297546 -0.591560423374176 0.06140213459730148 -0.18691343069076538 0.3224021792411804 -0.0672198235988617 -0.42967045307159424 -0.8008167743682861 -0.0707625225186348 -0.1725258082151413 
-0.11189739406108856 0.3132281005382538 -0.4444003105163574 -0.01692228391766548 -0.2533017694950104 -0.18941724300384521 0.008488262072205544 -0.004355316050350666 -0.31424903869628906 -0.025289343670010567 0.13824307918548584 0.24461106956005096 -0.0011396977351978421 -0.2350829541683197 0.12386292219161987 -0.11173004657030106 
0.01865398697555065 -0.039947595447301865 -0.3074306845664978 -0.2970696687698364 -0.3197891414165497 0.16423438489437103 0.05474869906902313 0.027579719200730324 0.10073300451040268 0.12614262104034424 0.1916845440864563 0.12262482196092606 0.013993784785270691 -0.37852150201797485 -0.15234510600566864 0.07240308821201324 
0.03176876902580261 0.21346953511238098 0.350600928068161 -0.03396652638912201 -0.0987526997923851 0.05608323961496353 0.10794651508331299 0.054025497287511826 -0.07482375204563141 0.3279435634613037 0.22055405378341675 0.26797130703926086 -0.011107999831438065 0.09856155514717102 -0.04177158698439598 0.1901819109916687 
0.0033739625941962004 -0.3743615448474884 0.2681342363357544 0.20834921300411224 0.3374493420124054 0.20705124735832214 -0.15039177238941193 0.2139091044664383 0.3659985363483429 -0.19685612618923187 -0.24518191814422607 -0.012724521569907665 0.2672262191772461 0.05829114094376564 0.017354540526866913 -0.2502624988555908 
-0.013890628702938557 -0.06950128078460693 0.07718727737665176 0.3006378710269928 0.3757700026035309 -0.14396969974040985 0.11038973927497864 0.18649940192699432 -0.3439946174621582 0.0437997467815876 0.2567612826824188 0.08174511790275574 -0.14238213002681732 0.2462809681892395 -0.16757343709468842 -0.2823200523853302 
-0.5363700985908508 -0.08214359730482101 -0.07756615430116653 -0.3216792345046997 -0.2156573235988617 0.09866302460432053 0.05295143648982048 -0.04474085569381714 -0.35093003511428833 -0.03172492980957031 -0.3609607517719269 0.39396932721138 0.1453002393245697 0.4099963903427124 -0.15388216078281403 -0.3161914646625519 
0.06634928286075592 0.3012045621871948 -0.36038342118263245 0.027424369007349014 0.2079002559185028 0.21809707581996918 -0.23558783531188965 -0.17409709095954895 -0.1896781623363495 -0.24156083166599274 0.10538757592439651 -0.2288517951965332 -0.11238683015108109 -0.1459362506866455 -0.01124577410519123 0.04843974858522415 
-0.2803075909614563 0.21155066788196564 -0.5487049221992493 -0.1913612335920334 0.006874687038362026 0.1612483710050583 -0.3191473186016083 -0.06111515313386917 -0.2565639615058899 0.4353344738483429 -0.15330785512924194 -0.15450413525104523 0.41370928287506104 -0.19088949263095856 -0.38607674837112427 0.10143693536520004 
0.1517026275396347 0.00412887753918767 0.03152230381965637 -0.14791133999824524 -0.06820543855428696 0.13616013526916504 -0.14560341835021973 0.07997577637434006 -0.4590863585472107 -0.09871894866228104 0.11635161936283112 -0.44024020433425903 -0.20290230214595795 -0.32906508445739746 -0.35713455080986023 -0.19407598674297333 
0.054819151759147644 0.205632746219635 -0.24802973866462708 0.04157237708568573 -0.36514702439308167 0.028393801301717758 0.1501891165971756 0.17531521618366241 0.27782341837882996 0.2054670751094818 -0.32547545433044434 0.016127169132232666 0.02438761480152607 0.05566443130373955 0.03684861958026886 -0.16550225019454956 
-0.025870902463793755 -0.07941295951604843 0.37565353512763977 -0.5648018717765808 -0.3185247778892517 -0.0529354028403759 0.09286098927259445 0.2891656160354614 -0.08504743874073029 0.20317061245441437 0.09085655212402344 -0.3100604712963104 0.010513867251574993 0.03498179465532303 -0.027178969234228134 -0.16404208540916443 
0.08528796583414078 -0.22988583147525787 0.3950392007827759 -0.3059904873371124 -0.20719869434833527 -0.29745879769325256 -0.053505804389715195 -0.19396238029003143 0.003171217627823353 0.3442419469356537 -0.17593170702457428 -0.20714731514453888 -0.3641537129878998 0.04184022918343544 0.22101269662380219 0.03502579405903816 
0.32843542098999023 -0.2650357186794281 -0.12475065141916275 -0.3541247248649597 -0.24373751878738403 -0.3428228795528412 -0.18584658205509186 -0.3366396427154541 -0.03538424149155617 0.26356181502342224 -0.1492636650800705 -0.4900084137916565 0.10408550500869751 0.035123687237501144 0.3006874620914459 -0.016879549250006676 
-0.18675726652145386 0.4392900764942169 0.1736871898174286 0.05119025707244873 -0.004089669790118933 0.14977620542049408 -0.03344836086034775 0.1787174493074417 -0.10504354536533356 -0.3925318419933319 0.30065035820007324 -0.10302785784006119 -0.19748850166797638 0.11356908828020096 0.5232890248298645 -0.15413467586040497 
0.027136946097016335 -0.2515234053134918 -0.22797910869121552 0.13881424069404602 0.013500814326107502 -0.2893151044845581 0.09974773973226547 -0.007995028048753738 -0.23022304475307465 -0.21619382500648499 0.40404993295669556 -0.3997645080089569 -0.08645546436309814 -0.43141844868659973 0.2641260325908661 -0.11405102908611298 
-0.21439066529273987 -0.27556994557380676 0.22952230274677277 0.34626999497413635 0.34590697288513184 -0.09636411815881729 -0.26773858070373535 -0.297745943069458 -0.27300018072128296 -0.11627287417650223 0.016964701935648918 -0.41866201162338257 -0.30030983686447144 -0.002101054647937417 -0.14811034500598907 0.06334830820560455 
0.28542518615722656 -0.3753816783428192 0.49607664346694946 -0.5062223672866821 -0.18158861994743347 0.11894145607948303 -0.14003625512123108 0.21635939180850983 0.0343722365796566 0.14748407900333405 0.0768897756934166 -0.08768816292285919 -0.3162701427936554 0.15771135687828064 0.13457880914211273 -0.15030066668987274 
0.24195893108844757 0.05182372406125069 -0.08027875423431396 0.030924499034881592 0.05147233605384827 0.09634316712617874 -0.18156425654888153 0.1392410397529602 -0.050932660698890686 0.34940433502197266 0.2942838668823242 -0.025258371606469154 0.31622835993766785 0.13352400064468384 0.24520254135131836 0.13519994914531708 
-0.2171042561531067 -0.02035462111234665 0.12967941164970398 0.03734228387475014 -0.4284500777721405 0.1397775113582611 -0.13738831877708435 -0.09178871661424637 -0.040744584053754807 -0.43778127431869507 -0.2465486228466034 -0.12729831039905548 -0.21314936876296997 0.1067541092634201 -0.46374306082725525 -0.22758473455905914 
0.24629797041416168 -0.0849340632557869 -0.017726490274071693 0.06372920423746109 0.1839946061372757 -0.17609016597270966 0.05563347414135933 -0.24387532472610474 0.1673046350479126 -0.2954142391681671 0.20673775672912598 -0.42101672291755676 -0.38854390382766724 0.04215608537197113 -0.3319351077079773 -0.25283822417259216 
0.16999413073062897 -0.11045632511377335 0.041308145970106125 -0.21780966222286224 -0.18464042246341705 0.08260863274335861 -0.2860063910484314 0.04222770407795906 0.009106469340622425 0.19949696958065033 -0.05950776860117912 -0.5488884449005127 -0.2837534248828888 -0.23673053085803986 0.15585608780384064 -0.23674799501895905 
-0.028931278735399246 -0.00025934120640158653 0.1967032253742218 0.12136851996183395 -0.15267206728458405 -0.04409044235944748 -0.1234627440571785 -0.022860068827867508 0.36971884965896606 0.3756970465183258 -0.07760176807641983 0.06945183128118515 0.06720739603042603 -0.22561554610729218 -0.15377148985862732 -0.23353764414787292 
-0.154804989695549 -0.09439513832330704 0.15855629742145538 -0.3443809151649475 -0.1811683475971222 0.11488673090934753 -0.06176058202981949 -0.15766312181949615 -0.07204567641019821 -0.0562104731798172 -0.2973381280899048 -0.027272135019302368 0.08575176447629929 -0.48056912422180176 0.2532537877559662 -0.06806150823831558 
-0.112401582300663 0.35301473736763 -0.5648370981216431 0.3165459632873535 0.45730191469192505 0.009082404896616936 -0.08111458271741867 0.05128541216254234 -0.4292721450328827 -0.17979586124420166 0.13139750063419342 0.4638960063457489 -0.07391322404146194 0.39774614572525024 0.32010388374328613 -0.10399838536977768 
-0.13773725926876068 -0.1586630493402481 -0.17685559391975403 0.13546481728553772 0.06231153383851051 -0.5171478986740112 -0.0029966309666633606 -0.11728747934103012 0.19763188064098358 -0.08521270751953125 0.15360189974308014 -0.5369186401367188 0.12342770397663116 -0.0790657177567482 -0.21438901126384735 0.06419558823108673 
-0.10594040155410767 0.25624600052833557 0.030540550127625465 -0.007420247886329889 0.15187405049800873 0.02832425944507122 0.09007172286510468 0.21632927656173706 -0.13887612521648407 0.01130255963653326 -0.14312942326068878 -0.4512600004673004 -0.23343302309513092 0.03558291122317314 0.11290231347084045 -0.3014901280403137 
0.13020972907543182 0.020021162927150726 -0.13492189347743988 -0.06930656731128693 0.2563440203666687 -0.2987038791179657 -0.06286836415529251 0.06462536007165909 0.06990017741918564 0.06330578029155731 0.013414374552667141 -0.06552118808031082 0.328990638256073 -0.19126884639263153 -0.04560474306344986 0.2235523760318756 
0.027987727895379066 0.07614466547966003 -0.2091662436723709 -0.267389178276062 -0.8813386559486389 0.04624311998486519 -0.150826558470726 -0.272455096244812 -0.2497592717409134 0.09944599866867065 -0.06357219070196152 0.49189335107803345 0.06744935363531113 -0.4400174021720886 0.13196372985839844 -0.3637717664241791 
-0.17733624577522278 0.04521254450082779 0.02765660732984543 -0.18260598182678223 -0.12640054523944855 -0.18875204026699066 -0.09503525495529175 0.2226972132921219 0.03150777891278267 -0.01547712367027998 -0.088714599609375 -0.3783656060695648 -0.15560704469680786 0.37749966979026794 0.29817134141921997 -0.24200816452503204 
-0.03367775306105614 -0.3787044584751129 0.15291553735733032 -0.003645653836429119 0.24056825041770935 0.2909849286079407 -0.08404141664505005 -0.08137538284063339 0.5986049771308899 -0.2690249979496002 -0.2995062470436096 0.43289914727211 0.08438794314861298 -0.06608608365058899 0.24302563071250916 -0.2714613378047943 
0.15671510994434357 0.1021561548113823 -0.3613780736923218 0.1553780436515808 0.19558702409267426 -0.34208688139915466 -0.18149451911449432 0.25969526171684265 0.14407651126384735 0.2413129359483719 0.15944498777389526 -0.11710904538631439 0.22505024075508118 0.47260457277297974 -0.21702568233013153 -0.02305544726550579 
-0.11227687448263168 0.09312431514263153 -0.22293788194656372 -0.0189007930457592 -0.15675383806228638 -0.17990641295909882 0.13340096175670624 -0.03508332744240761 0.2865743339061737 -0.6562145352363586 -0.32391172647476196 0.46350133419036865 -0.06379476934671402 0.07639612257480621 0.03365202620625496 0.06120920553803444 
0.2549020051956177 -0.23577158153057098 0.44133177399635315 -0.5110019445419312 -0.26250067353248596 -0.01757672056555748 0.04108750820159912 0.24778759479522705 -0.00012331658217590302 -0.17470493912696838 0.06919007003307343 -0.6175975203514099 0.06449372321367264 0.08539608120918274 0.05438265949487686 0.09349411725997925 
0.22641538083553314 -0.00038342151674441993 -0.37287843227386475 0.18782609701156616 0.10227970778942108 -0.2627285420894623 -0.02959386259317398 0.24667680263519287 -0.019923005253076553 0.18302787840366364 -0.19179381430149078 -0.23943278193473816 0.10991227626800537 0.25570207834243774 -0.14776398241519928 0.08418159931898117 
0.12007743865251541 -0.07551900297403336 -0.3739837408065796 0.006551649421453476 0.12632450461387634 0.06533610075712204 0.0012222991790622473 0.04248940944671631 -0.08291754126548767 -0.09365198016166687 -0.013289954513311386 -0.4978194832801819 -0.04955075681209564 0.04316870868206024 -0.027336206287145615 -0.10220333933830261 
0.2181251049041748 0.1575154811143875 -0.07165688276290894 -0.11077777296304703 0.012449723668396473 -0.3310970664024353 0.013200724497437477 -0.16501227021217346 -0.18226969242095947 -0.0884573757648468 -0.2530302405357361 -0.026196742430329323 0.35867592692375183 -0.28399956226348877 0.2206880897283554 0.13958290219306946 
-0.150271937251091 0.022336909547448158 -0.11350975185632706 -0.21734297275543213 -0.07622479647397995 0.22503544390201569 -0.2825694680213928 -0.43402519822120667 0.1305513083934784 0.041495323181152344 -0.04440823569893837 0.2681214213371277 0.49669820070266724 -0.4891621172428131 -0.32768699526786804 -0.25026363134384155 
-0.014329969882965088 -0.051000531762838364 -0.20957505702972412 -0.031184939667582512 -0.28917062282562256 0.0035011402796953917 0.24972274899482727 -0.013466596603393555 0.019416863098740578 0.3448115587234497 -0.4751739799976349 0.10659100115299225 0.21163688600063324 0.1184988021850586 -0.19501638412475586 0.17602145671844482 

