-0.112032949924469 0.024682678282260895 0.20136365294456482 0.26565706729888916 0.1154639795422554 0.1905568242073059 0.07631784677505493 0.04665006324648857 0.028305763378739357 -0.04323485493659973 0.08532946556806564 0.04867368936538696 -0.007102455012500286 -0.22388698160648346 -0.02002364583313465 0.08145900070667267 -0.05554039031267166 0.1020403727889061 -0.21250297129154205 0.2898657023906708 0.07049942016601562 0.12289740145206451 0.22308237850666046 0.01924128644168377 -0.16167519986629486 0.07075108587741852 0.20511698722839355 -0.291849285364151 0.17913319170475006 0.09850229322910309 0.1281929612159729 -0.18123450875282288 
-0.13080014288425446 -0.09024734050035477 -0.1318769007921219 -0.189121812582016 -0.40585318207740784 -0.32778558135032654 -0.2709577977657318 -0.25012707710266113 0.17551274597644806 0.07597500830888748 -0.019229844212532043 0.15027031302452087 0.14826206862926483 0.034624598920345306 -0.07738403975963593 0.24191193282604218 0.05369323119521141 0.26978617906570435 -0.05888594314455986 0.13357661664485931 0.10936424881219864 0.232378289103508 0.3110432028770447 0.20702636241912842 0.17731119692325592 0.12993691861629486 -0.11975596845149994 0.0973464772105217 -0.23993133008480072 0.0507366769015789 -0.03594163805246353 0.17276647686958313 
-0.05696593225002289 0.32353830337524414 -0.3866539001464844 -0.28675952553749084 -0.42882096767425537 0.08286997675895691 -0.15333876013755798 0.223005473613739 0.26279890537261963 0.2363543063402176 -0.10630865395069122 0.024497011676430702 -0.23731257021427155 -0.010952373035252094 -0.13512755930423737 -0.017750663682818413 -0.3808608651161194 -0.030790898948907852 0.23424464464187622 0.043993666768074036 -0.06727403402328491 0.07512083649635315 0.2672046720981598 -0.2012452483177185 -0.07499893009662628 0.23242831230163574 0.19045346975326538 -0.027970625087618828 0.10537636280059814 -0.004073731135576963 0.0046563949435949326 0.017457542940974236 
-0.10858245939016342 -0.27567267417907715 0.04201794043183327 -0.1483774185180664 -0.037002064287662506 -0.06295596063137054 -0.007832368835806847 -0.040719036012887955 -0.04913261905312538 -0.2895440459251404 0.010601064190268517 0.08172149956226349 -0.20363259315490723 -0.13745419681072235 -0.24525895714759827 -0.12578672170639038 0.04446377977728844 -0.03129740059375763 0.012927461415529251 -0.07853683829307556 0.07905642688274384 -0.03257555514574051 -0.13118156790733337 -0.20075395703315735 -0.10493355989456177 -0.20234808325767517 0.20819777250289917 0.16611075401306152 -0.30540627241134644 0.2777479588985443 -0.2953151762485504 0.16282980144023895 
-0.14353320002555847 0.1487465798854828 0.22983334958553314 -0.1946069449186325 0.13901963829994202 0.13664303719997406 -0.4166027903556824 -0.15770728886127472 -0.24624958634376526 -0.33421415090560913 -0.3349877595901489 0.15301580727100372 0.000924325140658766 0.27874264121055603 -0.2407926321029663 -0.4000028669834137 0.17195884883403778 0.2985900938510895 0.11919673532247543 0.13743725419044495 0.14423419535160065 -0.2279966026544571 -0.094483882188797 0.17290546000003815 0.18525293469429016 -0.26716896891593933 0.011675512418150902 0.1392279863357544 -0.1740121841430664 0.1502925604581833 0.20137269794940948 -0.21189706027507782 

