-0.12609265744686127 -0.20192772150039673 0.05045543983578682 0.21356064081192017 -0.030336668714880943 -0.12706439197063446 -0.1553037017583847 0.12977010011672974 -0.07864522188901901 0.1178242638707161 -0.12056993693113327 0.1997372955083847 0.2651471793651581 -0.18042105436325073 0.11317824572324753 -0.12039662152528763 
0.21350711584091187 -0.14202849566936493 -0.005872948095202446 -0.06674309074878693 0.17479479312896729 -0.3056105971336365 0.1257053017616272 -0.24384786188602448 0.17125925421714783 0.22996078431606293 -0.12920331954956055 -0.18961021304130554 0.19095642864704132 0.3548741936683655 0.303682416677475 0.28308001160621643 
0.03530722111463547 -0.07833216339349747 0.046683114022016525 0.1488914042711258 0.15512733161449432 0.22293910384178162 -0.01726582646369934 -0.093431256711483 -0.005416523199528456 0.2360556274652481 -0.004263848997652531 -0.04930894821882248 -0.012157471850514412 0.07507382333278656 0.005076427012681961 -0.21267478168010712 
-0.07608085870742798 -0.238084614276886 -0.09489137679338455 0.15466825664043427 -0.30022162199020386 -0.02165970765054226 -0.07652707397937775 -0.006563185714185238 -0.34241393208503723 -0.15692344307899475 0.02560279704630375 0.039131201803684235 0.05791788920760155 -0.1253536492586136 -0.1417950689792633 -0.08995421975851059 
-0.023135967552661896 -0.21125246584415436 -0.14910903573036194 0.09732639044523239 -0.0531497597694397 0.025062195956707 0.03145080432295799 -0.11018674075603485 -0.311116486787796 0.3050270974636078 -0.03531903028488159 0.0821952372789383 -0.0014273934066295624 -0.029710831120610237 0.22251245379447937 -0.24354422092437744 
0.16637128591537476 -0.7785523533821106 0.4884614944458008 0.07723566889762878 0.5346130132675171 0.2680535316467285 0.3411971628665924 -0.04439384117722511 -0.12842391431331635 -0.08515909314155579 -0.17817439138889313 0.12015203386545181 -0.09443508833646774 0.19857428967952728 0.40641850233078003 0.05240049585700035 
-0.024868376553058624 -0.04714400693774223 -0.06888996064662933 0.3217361569404602 -0.030745219439268112 0.08217712491750717 0.08015621453523636 0.22123892605304718 -0.23998285830020905 -0.01638653501868248 0.04302660748362541 0.26536884903907776 0.017911875620484352 0.08551345020532608 -0.017985602840781212 -0.08920793980360031 
-0.1586654782295227 -0.08092740923166275 0.22960609197616577 0.21658356487751007 -0.17522241175174713 0.16683389246463776 0.19965988397598267 0.05810287594795227 0.2247447967529297 -0.11542126536369324 -0.1459943950176239 0.12473738938570023 0.12713392078876495 -0.1154029369354248 0.15703769028186798 -0.0008881093235686421 
0.16061845421791077 0.3414671719074249 0.18791233003139496 0.2760811448097229 0.1930467188358307 -0.251516193151474 0.2689005434513092 0.12715192139148712 0.25529244542121887 0.09770532697439194 0.32709407806396484 -0.19046877324581146 0.16438111662864685 0.14405441284179688 0.1277940720319748 0.10971416532993317 
0.1681402623653412 -0.06277813762426376 0.2569514811038971 0.2719745337963104 0.002026311121881008 -0.185517817735672 0.08843721449375153 0.1538153886795044 -0.1482425034046173 0.2011352777481079 -0.0830146074295044 0.2924879491329193 0.05019570142030716 -0.277020663022995 0.034083954989910126 -0.11833412945270538 
-0.03816835582256317 0.15054835379123688 0.1332520842552185 0.23512540757656097 -0.2903311848640442 -0.014219691976904869 0.21390199661254883 0.21223385632038116 -0.30369362235069275 -0.0890078917145729 -0.16053183376789093 0.2622751295566559 0.15089130401611328 -0.09228597581386566 -0.2569747865200043 0.28154101967811584 
-0.10559988766908646 -0.10291559249162674 0.07883498817682266 -0.2161119431257248 0.11554093658924103 -0.16731703281402588 -0.1462561935186386 0.13762862980365753 -0.08528298884630203 -0.20027166604995728 0.14668706059455872 0.09810467809438705 -0.004048069939017296 -0.130875825881958 0.18866629898548126 -0.12146484851837158 
0.09148212522268295 0.1435321718454361 0.02979164943099022 0.274367094039917 -0.3374979794025421 -0.07276221364736557 0.0964776948094368 0.05374240502715111 -0.1589033156633377 0.13192467391490936 -0.13056644797325134 0.09782443195581436 0.05440254509449005 0.28184136748313904 -0.06824859231710434 -0.14264169335365295 
0.20430736243724823 0.030109994113445282 0.08703865110874176 0.06377892941236496 0.37529614567756653 -0.05592634528875351 -0.1470608413219452 0.051182981580495834 -0.4194645285606384 0.22196181118488312 -0.1399231255054474 -0.058393947780132294 0.09381608664989471 0.23445041477680206 0.004486033692955971 -0.38744187355041504 
0.11598683148622513 0.05852578207850456 -0.055000580847263336 0.17395643889904022 -0.3976913094520569 0.12228855490684509 0.04377786070108414 0.014927251264452934 -0.13145890831947327 0.26429733633995056 0.09884802997112274 0.20633487403392792 0.3002367615699768 -0.056211549788713455 -0.02923828549683094 -0.09383238106966019 
0.035867758095264435 0.012392559088766575 -0.050296854227781296 0.29082757234573364 -0.013448106124997139 -0.1881876438856125 0.11082492768764496 0.18652185797691345 0.09703885018825531 -0.16805808246135712 0.12797178328037262 0.16939973831176758 -0.1511717289686203 0.03889933601021767 -0.16098706424236298 0.17143163084983826 
-0.08468430489301682 -0.1282581090927124 0.034406185150146484 0.3509179949760437 -0.043284546583890915 0.09253264218568802 -0.12307433038949966 0.24383577704429626 -0.08726385980844498 0.17085961997509003 0.08664000034332275 0.061109717935323715 0.24144239723682404 -0.031891122460365295 -0.09260273724794388 0.001542203244753182 
0.11300719529390335 0.13381324708461761 -0.2138107866048813 -0.20369255542755127 -0.11184636503458023 -0.05222517251968384 0.049696844071149826 -0.18534107506275177 0.24501004815101624 -0.054471585899591446 0.299877792596817 0.0039728544652462006 0.12916813790798187 0.19603396952152252 0.20412737131118774 -0.03609197959303856 
0.28282204270362854 0.15686717629432678 0.19061648845672607 -0.014791667461395264 0.2680363059043884 -0.0944887027144432 -0.15488165616989136 0.03474391996860504 -0.05820223689079285 0.28265026211738586 0.09811602532863617 -0.08241881430149078 0.08392620831727982 0.09365928918123245 -0.09786736220121384 0.044801682233810425 
-0.28809186816215515 -0.08737014979124069 -0.03180581331253052 0.12741222977638245 -0.09808611869812012 -0.13228416442871094 -0.22445611655712128 -0.3178572356700897 0.37153881788253784 -0.108756884932518 0.412337988615036 -0.30431485176086426 -0.030757810920476913 -0.16146047413349152 0.09782380610704422 0.2627611756324768 
-0.09182839840650558 0.2083958238363266 -0.03897552937269211 0.07872959971427917 -0.09253541380167007 0.07793007791042328 -0.09939025342464447 -0.18585535883903503 -0.05610828474164009 0.0706389844417572 0.040385615080595016 -0.08915162086486816 0.027124281972646713 -0.040409572422504425 0.04667367786169052 0.19751010835170746 
-0.06494669616222382 0.16104048490524292 -0.14551334083080292 -0.15196560323238373 0.21951119601726532 -0.41356322169303894 0.07258467376232147 -0.20471683144569397 0.1625019907951355 0.006255365442484617 0.16618838906288147 -0.2208617776632309 -0.02448965422809124 -0.143941730260849 0.29507407546043396 0.20562374591827393 
-0.20289818942546844 0.009197157807648182 -0.11504936218261719 0.1547262966632843 -0.12263383716344833 -0.4907970726490021 -0.029199866577982903 0.029548052698373795 0.3401043713092804 0.005851804278790951 0.38698187470436096 -0.03851420059800148 0.09688547253608704 -0.14943531155586243 0.20480524003505707 0.1480577141046524 
0.07993796467781067 -0.24553918838500977 0.24383310973644257 0.4296526610851288 0.026560116559267044 0.11395134031772614 -0.004542229697108269 -0.16046717762947083 -0.16312210261821747 0.19017940759658813 0.06847915798425674 -0.18147093057632446 0.015877574682235718 0.012498508207499981 -0.05605575069785118 0.2609442472457886 
0.35255616903305054 -0.2725391685962677 0.08485226333141327 0.0442381352186203 0.12714076042175293 -0.14694812893867493 -0.025549592450261116 -0.15668687224388123 -0.16717655956745148 0.07364122569561005 -0.39754971861839294 -0.11722590029239655 -0.15166983008384705 0.24277694523334503 -0.01275694277137518 -0.5076870322227478 
0.09549947828054428 -0.07507339864969254 0.1093335971236229 0.04087565094232559 -0.1897052377462387 -0.0840715765953064 0.17068319022655487 0.10382362455129623 0.156207874417305 0.07591269165277481 0.24308227002620697 -0.05650820955634117 -0.0033427071757614613 -0.2893134355545044 0.07471343874931335 0.08118969202041626 
-0.054479923099279404 -0.30405673384666443 0.12830321490764618 -0.12112531810998917 -0.14093665778636932 0.07588450610637665 0.2167096883058548 -0.07689487934112549 0.17170333862304688 0.10826554149389267 0.025702226907014847 0.14950506389141083 0.19996881484985352 0.0928831472992897 0.38302934169769287 -0.14995454251766205 
0.15849734842777252 0.2858174443244934 0.10896524786949158 -0.2670856714248657 0.10884199291467667 -0.10866980254650116 0.03365166112780571 0.05478832125663757 0.04251321032643318 0.3285425007343292 -0.01802215725183487 0.08327007293701172 -0.32422319054603577 -0.04139183089137077 0.1857908070087433 -0.6973305344581604 
0.29150155186653137 -0.008588365279138088 0.1612590104341507 -0.005760108586400747 -0.2612069547176361 -0.1818641722202301 0.16619856655597687 0.274334192276001 -0.22610442340373993 -0.10017528384923935 -0.10362506657838821 0.11504145711660385 0.07482700794935226 -0.09999090433120728 -0.1987457573413849 0.16637219488620758 
-0.18948780000209808 -0.3096952438354492 0.03081526793539524 0.11790592223405838 -0.01681559905409813 -0.17632238566875458 -0.13159362971782684 0.18728256225585938 0.2469610869884491 -0.1279306709766388 0.2886115610599518 -0.09992082417011261 0.2318229079246521 0.0862802043557167 0.038744986057281494 0.08511488139629364 
0.09311889857053757 -0.20976917445659637 0.12604010105133057 0.3261001408100128 -0.0032447788398712873 -0.05541567876935005 0.26422813534736633 -0.19711871445178986 -0.3708374500274658 0.14103469252586365 -0.12099578231573105 -0.035094860941171646 0.24929548799991608 0.030187105759978294 0.25325092673301697 -0.07459006458520889 
0.030312180519104004 -0.09918175637722015 0.3507491648197174 0.14315509796142578 0.07624214142560959 -0.03152984380722046 0.25241604447364807 0.3418225347995758 -0.1158454418182373 -0.24933941662311554 0.009755379520356655 0.2662416398525238 0.0774366706609726 -0.036917299032211304 -0.15790456533432007 -0.064496710896492 
-0.1259409785270691 0.17683665454387665 -0.11668627709150314 0.17279300093650818 -0.18480470776557922 -0.08121613413095474 0.029366228729486465 0.01826450414955616 -0.039929233491420746 0.09694712609052658 -0.11938423663377762 0.2853289544582367 0.13599495589733124 0.06187731400132179 -0.017823055386543274 0.21584539115428925 
0.22337815165519714 0.034672144800424576 -0.15960851311683655 -0.2156733125448227 0.07109645754098892 -0.19343440234661102 0.21164186298847198 -0.1349123865365982 -0.02698088437318802 0.08160068839788437 -0.27154335379600525 -0.29865747690200806 0.12371622025966644 0.30175819993019104 0.23378349840641022 -0.11321473121643066 
0.028994865715503693 -0.1390480250120163 0.24821077287197113 0.3907446265220642 0.22963155806064606 0.05724025517702103 0.25756707787513733 -0.06172528117895126 -0.01869659498333931 -0.22275473177433014 -0.0545487217605114 0.24552401900291443 0.20347875356674194 -0.2285054326057434 0.005688042379915714 -0.058455485850572586 
0.07432615011930466 0.13527636229991913 0.14873290061950684 0.4386391341686249 0.15812771022319794 -0.22526228427886963 -0.024567775428295135 -0.034932512789964676 0.1034214198589325 0.17843613028526306 -0.021198447793722153 0.19703038036823273 0.09491193294525146 -0.03272326663136482 0.03486372530460358 0.1353907585144043 
0.20629465579986572 0.0827411413192749 -0.08790819346904755 0.32605859637260437 -0.18901409208774567 -0.027691537514328957 0.10164152830839157 0.06457442045211792 -0.1870291531085968 0.15601906180381775 -0.08212172985076904 0.295920729637146 0.23824919760227203 0.0991145446896553 -0.21939028799533844 -0.19802521169185638 
0.5329911708831787 -0.46932345628738403 -0.06422998756170273 0.43862536549568176 -0.22504271566867828 -0.11319193243980408 0.2860258221626282 -0.059862032532691956 -0.28909382224082947 0.06888139247894287 0.07987414300441742 -0.0008170578512363136 0.05283445119857788 0.026164917275309563 0.04649641737341881 0.05822375416755676 
0.09265413135290146 -0.21400856971740723 -0.07383045554161072 0.22621846199035645 -0.22857075929641724 0.030547015368938446 0.09384877979755402 -0.03949548676609993 0.1491636484861374 0.04645979776978493 0.19610829651355743 -0.09835987538099289 0.3292471170425415 -0.004838174674659967 0.056325871497392654 0.3027426600456238 
0.3414478898048401 0.16199475526809692 -0.014627581462264061 0.027532929554581642 -0.13013315200805664 -0.10635901987552643 0.07216893136501312 0.0968346893787384 -0.20364423096179962 0.2830895483493805 0.11648423969745636 -0.10344184190034866 0.0036387848667800426 0.045269567519426346 0.12226732820272446 0.25749850273132324 
-0.021465646103024483 0.32948020100593567 -0.06074638292193413 -0.2738815248012543 0.005781684536486864 0.1018618568778038 -0.08953223377466202 0.2739732563495636 0.15971383452415466 0.1916525512933731 0.1064751148223877 -0.11740332096815109 -0.23752184212207794 -0.08858276158571243 0.11709867417812347 -0.14985840022563934 
0.12872233986854553 0.16192308068275452 0.1279674768447876 -0.001432559103704989 0.15233607590198517 0.16096355020999908 -0.2187756448984146 0.11851006001234055 0.19692809879779816 -0.16197136044502258 -0.030533332377672195 0.31554123759269714 -0.03933786228299141 -0.11094953864812851 -0.0037392147351056337 0.1514200121164322 
0.10659181326627731 -0.19664862751960754 -0.056337323039770126 0.06088170409202576 0.29882168769836426 0.15585669875144958 0.04106350988149643 -0.22709771990776062 0.2061014026403427 0.09045615792274475 0.030105827376246452 0.09778579324483871 -0.012222949415445328 0.02210371568799019 -0.1535845398902893 0.08870840072631836 
-0.03402521088719368 -0.1736493855714798 0.19147224724292755 0.003004473866894841 -0.008279719389975071 0.15060080587863922 0.0716785192489624 -0.00044841167982667685 0.051948174834251404 0.06525313854217529 0.11439432203769684 0.1452668011188507 0.11421432346105576 -0.06632677465677261 0.14151673018932343 -0.1102299764752388 
-0.1227777898311615 0.06711054593324661 -0.08190130442380905 0.18668940663337708 -0.02593173272907734 -0.030608460307121277 -0.0788099467754364 0.07821565866470337 0.08608325570821762 -0.37613362073898315 -0.11116385459899902 0.2839890122413635 0.048269908875226974 0.207722008228302 0.08747203648090363 0.003676977474242449 
0.15498751401901245 -0.285226434469223 0.23884820938110352 0.2617540955543518 -0.3994518518447876 0.059274815022945404 0.29583540558815 0.15843212604522705 -0.18640346825122833 0.004480167292058468 -0.09973471611738205 0.05972381681203842 0.1509382426738739 -0.058219995349645615 0.0506245382130146 0.08541034907102585 
0.21183307468891144 0.19725067913532257 -0.20061811804771423 0.0015900512225925922 0.041397251188755035 0.1309647411108017 0.12409265339374542 0.07486119121313095 0.14463232457637787 -0.16433799266815186 0.12871354818344116 0.32512757182121277 0.13028869032859802 -0.0008675610879436135 -0.038550443947315216 0.09015102684497833 
0.2696763277053833 -0.07688531279563904 0.08537298440933228 -0.13527034223079681 -0.0044712950475513935 0.16260944306850433 0.10119844973087311 0.13358403742313385 0.3681579530239105 0.2040918618440628 0.15709687769412994 0.24019154906272888 -0.05786857381463051 -0.10235010087490082 0.18781521916389465 -0.03190438449382782 
0.1900130659341812 -0.15986844897270203 0.19659359753131866 0.08164076507091522 -0.28986281156539917 -0.08957348018884659 0.23725096881389618 0.17623211443424225 -0.19459372758865356 -0.21029338240623474 0.1094212755560875 0.27851712703704834 -0.16929998993873596 0.18355333805084229 -0.11527225375175476 0.07074663788080215 
0.15974456071853638 -0.005030412692576647 -0.1765895038843155 -0.16454961895942688 0.06265853345394135 -0.15182308852672577 -0.14592140913009644 -0.08921153098344803 -0.11137506365776062 -0.011851569637656212 -0.062331248074769974 0.0048024835996329784 -0.07365629822015762 0.29265183210372925 0.10553210973739624 0.027994254603981972 
0.04543274641036987 0.05638911947607994 -0.15430481731891632 -0.07763716578483582 -0.02764570713043213 0.0687185600399971 0.034340351819992065 0.0481313094496727 0.10832593590021133 0.12031975388526917 -0.03280789032578468 0.14159147441387177 0.044453348964452744 0.21853218972682953 0.10140140354633331 0.023753372952342033 
-0.09690125286579132 -0.18719427287578583 0.028901517391204834 -0.07907279580831528 0.13465866446495056 -0.08464892208576202 -0.06599175184965134 0.09720180928707123 0.05328311771154404 -0.03303176537156105 0.09139040857553482 -0.11571092158555984 0.08207999169826508 0.03618049994111061 0.326267272233963 0.09258221834897995 
-0.013390934094786644 -0.1010776162147522 -0.04168174788355827 0.061213862150907516 -0.05696919560432434 -0.17983300983905792 -0.07469235360622406 -0.0885775089263916 -0.08345311880111694 0.14858171343803406 -0.12252236902713776 0.03159775957465172 -0.1498701572418213 -0.008060785010457039 0.2778358459472656 -0.1351422816514969 
-0.04667796194553375 -0.17380112409591675 -0.10278251022100449 0.14453189074993134 0.22593280673027039 0.19870980083942413 -0.1492501050233841 0.050436630845069885 -0.035782258957624435 0.22193492949008942 0.18745943903923035 0.07366830110549927 0.05848681181669235 -0.12092665582895279 0.045267678797245026 -0.2073960304260254 
0.027907738462090492 -0.11061062663793564 0.16881582140922546 0.06647428870201111 -0.06697893887758255 -0.08673960715532303 0.20279230177402496 0.2065555304288864 0.06408067047595978 -0.16150031983852386 0.31178075075149536 0.07309841364622116 0.21042580902576447 -0.1687340885400772 0.1750771552324295 0.15258216857910156 
0.3188753128051758 -0.12844936549663544 0.5117032527923584 0.2429044097661972 -0.05406317114830017 -0.10104663670063019 0.23252050578594208 0.30837318301200867 -0.28527989983558655 -0.30425775051116943 0.05466713756322861 0.11848251521587372 -0.3317543864250183 0.22519594430923462 0.08880480378866196 -0.057042237371206284 
0.1498083770275116 -0.6376165151596069 0.31673768162727356 0.08395325392484665 -0.21880729496479034 -0.05440954864025116 0.5417561531066895 -0.0026431987062096596 -0.3414880037307739 0.10500814765691757 -0.42728617787361145 -0.12312086671590805 -0.18116460740566254 0.15575185418128967 0.1783001720905304 0.11422115564346313 
0.18791458010673523 0.330573707818985 0.2559233605861664 0.20128031075000763 0.18847651779651642 0.28125908970832825 -0.08257808536291122 0.19668488204479218 0.0699237808585167 0.0823206901550293 0.03286372497677803 0.1064050942659378 -0.11042289435863495 0.0945073589682579 0.10063479095697403 0.05270596221089363 
0.06293527781963348 0.06872443109750748 -0.09729252010583878 0.13639520108699799 -0.2898593842983246 0.10900752246379852 -0.022783804684877396 0.12454871088266373 0.16861151158809662 -0.11668392270803452 -0.2063332349061966 -0.0647697001695633 -0.03175664693117142 0.120813749730587 0.10058353841304779 -0.013003242202103138 
-0.00021032645599916577 -0.1998288482427597 -0.09544465690851212 0.018570348620414734 0.17604726552963257 0.039584651589393616 0.09712199866771698 -0.21563753485679626 -0.13960136473178864 0.03559073433279991 -0.02710925228893757 -0.08345691859722137 -0.007159164175391197 0.24646461009979248 -0.040214743465185165 -0.3334164619445801 
0.21383391320705414 -0.09462283551692963 -0.26671120524406433 0.2777484059333801 -0.025265147909522057 -0.011414362117648125 -0.049630507826805115 0.11772500723600388 0.210482656955719 0.02120114117860794 0.11388280242681503 0.14923405647277832 0.3640989363193512 0.08482762426137924 0.09396432340145111 0.09531594067811966 
-0.21611404418945312 0.09323195368051529 0.06760570406913757 0.11995740234851837 -0.330100417137146 0.24162553250789642 -0.15661980211734772 -0.11376065760850906 0.25590768456459045 -0.21124695241451263 0.05821382626891136 0.07281900197267532 0.15363430976867676 0.24361787736415863 0.16273747384548187 0.09443733841180801 
0.4978886544704437 -0.321768194437027 0.2101181149482727 0.16122344136238098 0.10261428356170654 -0.1267959624528885 0.4524134397506714 0.24423179030418396 0.13464628159999847 -0.38854771852493286 0.24619489908218384 0.05105479806661606 -0.07306844741106033 0.21046936511993408 -0.00021255014871712774 0.3073630630970001 
-0.0208795927464962 0.021442631259560585 0.06734063476324081 0.3516979515552521 0.049096111208200455 0.07605728507041931 0.030303895473480225 0.1359020620584488 0.18316134810447693 0.11320812255144119 0.1373065859079361 0.00855103600770235 0.07803994417190552 -0.10956346243619919 0.07905923575162888 -0.16572725772857666 
-0.003899275790899992 0.2037288397550583 0.007119746878743172 0.06473865360021591 0.0582929402589798 0.1440323293209076 -0.1261042207479477 -0.1248248964548111 0.029657112434506416 0.058676160871982574 -0.15499195456504822 -0.08621927350759506 0.020983995869755745 0.22941571474075317 -0.05656381696462631 0.21666109561920166 
0.1789294183254242 0.04530872404575348 0.12640579044818878 -0.03632158041000366 -0.30713987350463867 0.08658906817436218 0.4438100755214691 -0.011841239407658577 -0.02537359669804573 -0.01887551322579384 -0.30854299664497375 -0.00231555150821805 0.009993675164878368 0.27517759799957275 0.32654711604118347 0.1535615772008896 
0.07284028083086014 -0.0029789151158183813 0.13020488619804382 -0.2422741949558258 0.05093245208263397 0.2061145156621933 -0.14124199748039246 0.20294947922229767 0.22898386418819427 -0.34924477338790894 0.343400239944458 0.10069277137517929 0.10838576406240463 -0.09364321082830429 -0.4048786163330078 0.26834630966186523 
0.1240800991654396 -0.14111191034317017 0.03672721982002258 -0.12068164348602295 0.3623402714729309 0.18382783234119415 -0.19500315189361572 -0.029382310807704926 0.24901516735553741 0.027300044894218445 -0.17003583908081055 0.14722593128681183 -0.14226196706295013 0.1425802856683731 -0.10780917853116989 0.3316723704338074 
0.14302945137023926 0.15008892118930817 -0.18605919182300568 0.13061624765396118 0.14575353264808655 0.010750779882073402 -0.12746065855026245 0.23239019513130188 0.020886791869997978 -0.2279880791902542 0.22509199380874634 0.14775335788726807 0.17936310172080994 -0.08953157812356949 -0.16022856533527374 0.1267842799425125 
0.52016282081604 -0.3476603925228119 0.2934441864490509 0.0006695479387417436 -0.10168163478374481 -0.0009828679030761123 0.16962981224060059 -0.06396007537841797 -0.016122331842780113 -0.14918547868728638 0.11763044446706772 -0.18275515735149384 -0.00725200492888689 0.16043658554553986 -0.15013615787029266 0.10566555708646774 
0.14905118942260742 0.16461001336574554 0.03959427773952484 0.15852025151252747 0.28554973006248474 0.10342764109373093 -0.06660149246454239 -0.017953678965568542 0.34347832202911377 -0.26469263434410095 -0.13166622817516327 0.09490417689085007 0.05302044749259949 0.041878364980220795 0.1227208599448204 0.34303829073905945 
0.16593214869499207 -0.0817040205001831 0.21577920019626617 0.2236633002758026 0.13682222366333008 0.04809081554412842 0.10310643166303635 0.13571953773498535 0.1350424885749817 0.02278008498251438 -0.05467204004526138 0.10036953538656235 0.20267121493816376 0.09243547916412354 0.053408849984407425 0.2821062207221985 
-0.12364214658737183 0.19176293909549713 0.04297947883605957 0.22036074101924896 0.12892764806747437 0.07965965569019318 0.31032174825668335 -0.1106254830956459 0.239802286028862 -0.15497010946273804 -0.0032458885107189417 0.1446627974510193 -0.2702728509902954 -0.09491647779941559 0.012437725439667702 -0.24672535061836243 
0.06006797030568123 0.11579323559999466 0.041260503232479095 0.23296184837818146 -0.06060832738876343 0.2968901991844177 0.2081577032804489 -0.24276471138000488 0.023486100137233734 -0.3820202052593231 -0.17681023478507996 0.21566876769065857 -0.19012372195720673 -0.17854107916355133 0.1803136020898819 -0.09255465865135193 
-0.005368904676288366 -0.03585304692387581 -0.052196260541677475 0.08307573944330215 0.2452850192785263 -0.017037225887179375 -0.013053268194198608 0.1617709845304489 0.03113001026213169 -0.39434921741485596 -0.13126042485237122 -0.05478662997484207 -0.03370323404669762 -0.0452166385948658 0.20771248638629913 0.29687100648880005 
-0.002047332702204585 -0.4350466728210449 -0.08454814553260803 0.14171995222568512 -0.41844627261161804 0.06812268495559692 -0.35957229137420654 -0.05235769972205162 0.13062836229801178 0.16186875104904175 0.08958952873945236 0.06994397938251495 0.2919907569885254 0.21828676760196686 0.027994448319077492 -0.018933130428195 
-0.12074609100818634 -0.11443137377500534 0.011899811215698719 0.08319520205259323 -0.07387106865644455 -0.032275937497615814 -0.07812409102916718 -0.10638156533241272 0.2837182879447937 -0.07425606995820999 0.15002906322479248 0.12165958434343338 0.25692567229270935 -0.12281611561775208 -0.03236822411417961 -0.03274993598461151 
0.27618318796157837 -0.2728138267993927 0.12488348037004471 0.06440231949090958 -0.10975884646177292 -0.30662328004837036 0.1430714875459671 0.23988518118858337 -0.15442074835300446 0.14859789609909058 0.14600008726119995 -0.0710463747382164 -0.0563240721821785 0.01742645353078842 0.05719593167304993 0.15848562121391296 
0.03460624814033508 0.17654970288276672 -0.09512796998023987 0.02463085763156414 0.11961494386196136 0.16204296052455902 -0.06921632587909698 -0.1255398839712143 0.054049860686063766 -0.12698782980442047 0.17525584995746613 0.2657829225063324 0.15489602088928223 0.06892552971839905 0.07122622430324554 0.11553690582513809 
-0.25090059638023376 0.22427500784397125 0.08350414782762527 -0.029031498357653618 0.23864692449569702 0.32085373997688293 0.0875687301158905 0.031050272285938263 0.48417025804519653 -0.45374906063079834 0.2376459836959839 0.05058436840772629 0.00700044259428978 -0.278499960899353 0.006651484873145819 -0.02438143454492092 
0.12848763167858124 -0.202414870262146 0.14751917123794556 0.12355856597423553 0.12923094630241394 -0.014292431995272636 -0.0416627936065197 0.028715601190924644 0.1581369936466217 -0.300270140171051 0.2990425229072571 0.241073876619339 0.18862691521644592 0.028427010402083397 -0.0929327979683876 -0.009799202904105186 
-0.08834962546825409 -0.060053300112485886 0.03252192214131355 -0.2201472967863083 -0.23207922279834747 -0.05422933027148247 -0.09877729415893555 -0.1694457083940506 -0.013156246393918991 0.2267286777496338 0.05242647975683212 -0.036014437675476074 -0.1569851040840149 0.01712614856660366 0.2178325653076172 -0.10095755010843277 
0.23987369239330292 -0.03751849755644798 0.026915060356259346 0.14730311930179596 0.11121673136949539 0.18758130073547363 -0.017730018123984337 0.043867938220500946 -0.05254741385579109 -0.1990233212709427 -0.10134216398000717 -0.11623547971248627 -0.2226749062538147 0.1397971659898758 0.10257890075445175 0.2924513816833496 
0.1316966861486435 -0.11472588777542114 0.0073556420393288136 0.14650115370750427 0.0741167962551117 0.15562976896762848 0.09426424652338028 -0.19649375975131989 -0.06906551122665405 -0.12280289828777313 0.08740001916885376 -0.09635647386312485 -0.12124375998973846 0.19656436145305634 0.1955052763223648 0.042156118899583817 
0.13091687858104706 0.09869848191738129 0.14098238945007324 0.09079395979642868 -0.3392215371131897 -0.08734018355607986 -0.15567710995674133 0.23282741010189056 0.18350228667259216 0.1205330640077591 -0.014485989697277546 -0.22077879309654236 0.20516793429851532 0.2460520714521408 0.054599594324827194 -0.05135297775268555 
0.014428501017391682 0.17379768192768097 0.17623457312583923 0.04638158157467842 -0.0843091756105423 0.1263955980539322 0.016712134703993797 -0.12743808329105377 0.01491805911064148 -0.01097995787858963 0.18460896611213684 -0.14469517767429352 0.10455524921417236 0.07778079807758331 -0.004254271741956472 -0.27147188782691956 
0.005885240156203508 -0.266782283782959 -0.027508938685059547 -0.16306759417057037 -0.132486492395401 0.0634327083826065 -0.21966412663459778 0.030030440539121628 -0.11721651256084442 -0.10778602957725525 0.18675516545772552 0.1509627252817154 -0.16151374578475952 0.13812702894210815 0.10044406354427338 -0.10602542012929916 
0.24870283901691437 -0.4043910801410675 0.21249261498451233 0.117087721824646 -0.19407428801059723 0.23034635186195374 0.27715933322906494 0.05156082659959793 0.018042191863059998 -0.4720821976661682 0.15036748349666595 -0.023719705641269684 -0.1747487187385559 0.049668312072753906 0.13002362847328186 -0.2996048331260681 
0.14342272281646729 -0.4213719666004181 0.07879534363746643 -0.08352847397327423 0.02962249517440796 -0.0619845874607563 0.309597373008728 -0.0565301775932312 -0.03590558469295502 0.03586021065711975 0.20798943936824799 -0.1731550693511963 -0.08225821703672409 0.3040911555290222 -0.03976941853761673 -0.003408425487577915 
-0.1488674283027649 0.12659789621829987 0.00010095949255628511 0.07229872792959213 0.2657703757286072 0.15744462609291077 0.02659738063812256 0.15905259549617767 0.140587717294693 -0.4331478178501129 -0.016140803694725037 0.0526958703994751 -0.14783917367458344 -0.07112142443656921 0.17910084128379822 -0.15710952877998352 
-0.1520792841911316 0.07383006066083908 -0.20101721584796906 0.18034346401691437 -0.37771496176719666 -0.08463132381439209 -0.06574837118387222 -0.13703563809394836 0.3067404329776764 -0.05224227532744408 -0.1078961119055748 0.15164682269096375 -0.01992018148303032 0.15596133470535278 -0.10977964103221893 -0.12505173683166504 
0.22104500234127045 -0.35827913880348206 -0.002395588206127286 0.08263128250837326 -0.2875027060508728 -0.3142511248588562 0.13000106811523438 0.14205889403820038 -0.25009599328041077 0.09426634758710861 -0.1734444797039032 0.15674783289432526 -0.14531663060188293 0.11468490958213806 0.08903365582227707 0.03441259264945984 
0.11525596678256989 0.09359102696180344 0.20809246599674225 -0.0581001415848732 0.3562905192375183 -0.04155382141470909 0.2092091292142868 0.13315464556217194 0.13399384915828705 -0.3676130473613739 -0.24384509027004242 0.09712260216474533 0.0401308536529541 0.048768263310194016 0.13455772399902344 0.0628490149974823 
0.004847495350986719 -0.36711540818214417 0.021996790543198586 -0.19674178957939148 -0.20781384408473969 0.010338731110095978 -0.1631946563720703 -0.11606702208518982 0.3157833516597748 0.03462645038962364 0.27273961901664734 0.24423818290233612 0.167105570435524 -0.0815458670258522 0.1359451711177826 0.10786385089159012 
0.11972147971391678 -0.32340696454048157 0.05707096680998802 -0.10942746698856354 0.3629559576511383 -0.019159922376275063 0.42984211444854736 -0.09065332263708115 -0.18290908634662628 -0.323724627494812 0.020743634551763535 -0.12286528944969177 -0.3023616075515747 -0.044815003871917725 0.022175587713718414 0.27858802676200867 
0.16398663818836212 0.19949917495250702 0.19486936926841736 0.26936110854148865 0.10418742150068283 -0.13699766993522644 0.3510395884513855 -0.00016216504445765167 -0.1731804460287094 -0.588226318359375 0.08411151170730591 -0.08770173043012619 0.04665945842862129 -0.01873205229640007 0.102640800178051 -0.13449949026107788 

