0.14533323 -0.31834218 0.27802616 0.20714982 -0.028391844 0.08213255 -0.24608979 0.07639857 0.106870614 0.042896044 -0.4006026 -0.162406 -0.07727801 -0.20680192 -0.06006658 -0.41778773 0.26834655 0.23195854 -0.21793352 -0.079206266 -0.21818566 0.09092889 0.3147017 -0.012794152 -0.4012766 -0.10911435 -0.35652006 -0.28968808 0.20995422 -0.02754789 -0.46078295 0.05768776
0.1369916 -0.27774644 0.23958693 0.28467986 -0.20531796 0.23348635 0.2203274 0.46013236 0.2804322 0.42372215 -0.2681381 -0.11525017 0.32687083 -0.38737234 -0.44781053 -0.01560242 0.051351752 0.38524094 0.23105027 0.026642183 0.2889077 -0.07211813 -0.2777976 -0.06509743 0.12076989 0.4299331 -0.0720762 0.3233983 -0.1816517 0.019790646 -0.084466666 0.0729216
-0.08837983 0.18144815 -0.055047713 0.03713763 -0.0827709 0.2646778 -0.01724238 -0.1533922 0.152889 -0.15578243 -0.049773723 -0.05840237 -0.25020897 -0.37459996 0.5933114 0.058487594 0.43600026 0.09770119 -0.110247664 0.1067675 0.17961618 -0.4295917 -0.16132122 -0.011860386 -0.07752077 -0.012767035 -0.015243798 0.0018150576 -0.0018392135 0.016964467 -0.015779989 0.021905193
-0.18002558 -0.07051662 -0.38249636 -0.36479706 -0.21190104 -0.14887404 -0.43752933 -0.33141053 -0.385976 0.18897617 0.13788943 0.52576613 0.03256398 0.36864245 0.06288102 0.18032353 -0.16603114 -0.4656502 -0.057747036 -0.08283911 -0.30329138 0.075242534 -0.30823162 0.5093652 -0.10564472 -0.07087843 0.10773113 -0.20783582 -0.24602516 -0.07912243 -0.22986023 0.010945636
0.08439663 -0.18582997 0.16893569 0.14905 -0.36534595 -0.27223763 0.044350963 -0.027517015 -0.093996845 -0.21394095 -0.53773916 -0.1414614 -0.08275224 0.028587783 -0.39711076 0.08038933 -0.6353774 0.14088623 -0.44031364 -0.5365049 -0.14009468 0.016675035 -0.115978606 0.7463862 -0.6548481 -0.16743799 -0.029744579 -0.1007922 -0.18625474 -0.47622448 -0.18195473 0.106467254
-0.18710157 -0.064521186 0.014114938 -0.07576679 -0.16673605 -0.07834382 0.12526374 -0.44825903 -0.14392042 -0.04673117 0.092413075 0.44699088 -0.08414973 0.15404968 0.22240981 0.22545728 0.16156729 -0.23466873 0.22433788 0.14602987 -0.011619599 -0.043172874 -0.2956865 0.17217931 0.33941418 -0.013789095 0.51517165 -0.16468954 -0.26565513 0.10941159 0.20135555 -0.0113780005
-0.19519852 -0.35170588 -0.09955426 -0.014108375 -0.31704372 0.056758385 0.16313945 -0.1272499 0.20108424 -0.24717529 -0.21882945 -0.13700624 -0.13977894 -0.22166789 -0.17588471 -0.16095336 0.06540127 0.12040446 -0.29986587 0.03176527 0.03857169 0.22790776 -0.13740727 0.04077712 -0.11193475 -0.13835059 0.07503791 -0.22445267 -0.06698687 -0.012051121 -0.28685072 -0.24063143
0.26443127 -0.31899577 -0.06522035 0.115041226 -0.1491056 0.29362497 -0.11320406 0.20170948 0.33084995 -0.16833228 0.36265147 -0.25987443 0.1930468 -0.33961144 0.3430699 -0.48869655 0.23649135 0.21571283 0.07654351 -0.06560348 0.47071472 0.31990308 0.30648246 -0.41718706 -0.025870103 -0.016320372 -0.15729807 0.188383 0.18620181 0.7556206 -0.8053771 0.09007568
0.57310826 -0.40723202 0.62291855 0.56077117 -0.059363633 -0.08298871 0.6167269 0.23348592 -0.011644466 0.24971975 -0.50649935 -0.33334538 0.20301475 -0.20483856 -0.5128408 -0.6438328 -0.4450321 0.3612503 -0.3481527 -0.4525758 0.3950016 0.538968 0.36758894 -0.14928918 -0.31889597 0.82655805 -0.7066409 0.24520521 -0.30060476 0.16369781 -0.40808064 0.14114752
-0.07753245 -0.12632656 -0.26593503 -0.30221945 0.11498158 -0.2581082 -0.10382477 0.08695587 -0.83616084 0.11098558 0.45372915 -0.0653853 -0.0116300825 0.21795821 0.109062776 0.116279006 0.21066059 -0.3375836 0.068287425 -0.008739475 -0.1633819 -0.30877814 -0.12707946 0.121264 0.02262649 -0.082234085 -0.07828441 0.34031197 0.0733764 -0.2886496 -0.09994431 -0.14269057
-0.19871531 -0.0847393 -0.17172329 -0.33227012 -0.09698742 0.14362054 -0.18889605 -0.3625181 -0.0017382166 0.37987152 0.2490072 -0.46474478 0.0030524249 -0.017466241 0.15656526 -0.21840161 0.11111861 -0.24144788 -0.067707606 -0.01686848 0.1425771 -0.32240897 -0.2480674 -0.16469876 0.047323365 0.17297938 -0.070909485 0.02156669 0.03779014 0.19243234 -0.09179778 -0.17079626
-0.47888097 0.75660676 -0.19220194 -0.1163972 -0.061620556 -0.5756411 -0.27303383 -0.31904492 -0.6017306 -0.039345358 0.411748 0.47847438 -0.14397521 0.39523482 0.3691014 0.7807589 0.5912005 -0.59577847 0.17164283 0.57645655 -0.75038 -0.4618789 -0.07852844 0.24730545 0.43598613 -0.2725916 -0.04367506 -0.41808337 -0.53370005 -0.2563378 0.85633016 -0.06146729
-0.34174925 0.05256716 -0.046278726 -0.12162183 0.10814189 -0.45065513 -0.07991853 -0.14921261 -0.4835642 0.01095441 -0.09270053 0.25780216 -0.08973894 0.13704304 -0.15898278 0.25309342 -0.2092091 -0.22094728 0.322122 0.38112068 -0.26913047 -0.27364653 -0.21803468 0.43565813 -0.0048426725 -0.5094111 0.24112426 -0.57063824 -0.3397064 -0.4484962 0.22786033 -0.31822747
0.47953358 -0.68124056 0.23622729 0.3425754 -0.008833221 -0.21853739 0.38916332 0.5493339 0.30613524 -0.010256281 -0.15956911 -0.38239625 0.22705545 -0.44547877 -0.048400823 -0.49813515 0.068136685 0.16625153 -0.3298636 -0.5121088 0.5214234 0.1324324 0.24571829 -0.26736954 -0.39215145 0.09795557 -0.2362667 0.30209985 0.19378468 0.31926784 -0.9390201 -0.20074406
0.27746612 -0.03625898 0.16231717 0.2582477 -0.1828763 -0.24616244 0.3912041 0.21647695 0.09263099 0.28715092 -0.4542738 -0.17162922 0.17949027 -0.089153536 -0.06312754 -0.31207678 -0.3738756 0.13657866 -0.39627984 -0.28781784 -0.17334707 -0.009732166 -0.060470857 -0.09792566 0.021254232 0.113571234 -0.121057935 -0.10432302 -0.16843514 -0.012026729 -0.48713547 -0.063267894
0.10575757 -0.07043841 -0.11542285 0.060660724 0.07563708 0.1094688 0.03260451 0.1746364 -0.15628625 0.04170369 -0.1004154 0.120686114 0.0862739 0.09094849 -0.04345624 -0.013163276 -0.070701554 0.004182222 0.20155154 0.06258325 -0.18764272 -0.1712706 0.079016514 -0.11225026 -0.027742712 -0.07744283 -0.1545618 0.20742705 -0.03328639 0.16271041 0.22450358 -0.012424583
0.13889642 0.039349873 -0.06411054 0.2735746 0.025095131 -0.32942474 -0.23142307 -0.35270575 -0.46711355 -0.08563121 0.3887224 -0.49402297 0.16479899 -0.21277824 0.13415876 -0.1632489 -0.1758085 0.3601094 0.114377424 -0.1405012 0.117479935 -0.12885308 -0.0206846 0.027164675 0.059095412 0.008215459 0.07011642 0.5433268 -0.15928118 -0.23652597 -0.18198732 -0.122158036
0.10377797 -0.1176759 -0.21324053 0.15448232 0.024733081 0.16902384 0.43253028 -0.026340311 -0.15947217 0.3392635 0.28495184 -0.1372405 0.25357693 -0.5470725 -0.07118782 -0.11249576 0.61971605 0.109606616 0.046965707 0.04409013 0.34854987 -0.046364956 -0.58125937 -0.57528555 0.45441326 0.46905568 0.027892964 0.4594628 -0.056446414 -0.17305972 -0.18389243 -0.2235691
-0.39110863 0.18253891 -0.32271406 -0.20851725 -0.0031107897 -0.40160394 0.021494353 0.096824884 -0.9216832 0.92720383 0.6150489 0.10585698 0.12257047 0.0025891291 0.5852582 0.15056877 0.26907775 -0.016613446 -0.2897091 0.05689926 -0.19263136 -0.21141553 -0.24410167 -0.16992109 0.18950479 -0.31040272 0.2581458 0.3594708 -0.19115387 -0.59352666 0.28923544 0.06968876
-0.23041455 -0.118846506 -0.07284476 -0.040851824 -0.11820792 -0.066114634 0.19337943 0.028035372 -0.20592594 -0.14621443 -0.043207683 -0.20205197 0.07686648 0.15349075 0.00078900094 0.1079099 -0.09539686 0.044678714 0.15805043 0.0051488085 -0.22678278 -0.11602524 -0.1516202 0.19457611 -0.20544238 0.1256061 0.09281368 -0.06839255 -0.07596212 -0.39594567 0.07300706 0.07468375
0.025155643 0.125403 -0.32862413 0.0980522 -0.05183904 -0.53480226 0.094296426 -0.06695382 -0.42762545 0.3069048 0.075206034 0.12005681 0.20759645 0.10843552 0.15167883 -0.0996697 0.027995005 0.0067805555 0.112038314 0.14120597 -0.21923435 -0.2846326 -0.62734723 0.03247512 0.009573212 0.10801592 0.052524034 0.30218557 -0.30869427 -0.71162874 -0.023465918 0.029160513
0.0012417127 -0.17515129 -0.05940637 -0.048702177 -0.04984367 -0.6471722 0.023059778 0.0013977579 -0.59800917 0.074567094 0.25562564 -0.00987188 -0.20838596 0.0065834173 0.21353899 0.079497315 -0.2485568 -0.23257871 0.27563563 0.31603202 -0.05538742 0.14794642 -0.1239039 -0.079166725 -0.10958932 -0.28877804 -0.176133 0.023271639 -0.37874487 -0.5798438 0.042025495 -0.27043256
0.0018415883 -0.14571486 0.08484436 0.14773516 0.09410129 -0.020030595 0.039775323 -0.06834485 -0.15692975 0.03945285 -0.20269777 0.029489065 0.10840944 -0.12108752 -0.026018936 -0.22186738 -0.100590095 -0.23547581 0.07328959 -0.2890418 -0.033157174 0.05332281 -0.022115722 0.16005847 0.1478826 0.17048095 -0.09124533 -0.14866425 0.033376977 -0.12962815 -0.09171386 -0.15072323
-0.1402584 0.19810596 -0.09814586 -0.24070595 -0.3851617 -0.18677002 -0.06473792 0.1375005 -0.37450153 0.1102211 0.28676838 -0.051735498 -0.06515728 0.11434323 -0.11243535 -0.15999909 0.2802531 0.12123534 0.17587458 -0.24476276 -0.23727408 0.13851076 -0.12850815 -0.04995616 -0.08886111 -0.005538011 0.059630286 0.09952063 0.0131509565 -0.08791807 0.09011928 -0.31100032
0.1777613 -0.17125519 -0.0029490727 -0.06947411 -0.20056269 0.25350863 0.19094685 0.14755982 -0.19254307 -0.10716134 0.2646102 -0.098936126 0.08307847 -0.27396336 -0.018292662 -0.21679658 0.22953437 -0.3190105 0.0121943485 -0.028349187 0.020237245 0.21282999 0.05822322 -0.051296942 0.1312187 -0.1364461 -0.06716845 0.1603367 0.28117037 0.38723737 -0.15405923 0.032936532
0.32778946 -0.72556263 0.13789465 0.47832122 0.028353192 0.43949097 0.12484033 0.40096414 0.61950886 -0.29482487 -0.45844617 -0.3022942 0.09995591 -0.31622255 -0.42630962 -0.29922628 -0.22631672 0.3105323 0.081008784 -0.32690668 0.35211957 0.30238226 0.76121885 0.07942101 -0.6877321 0.026672956 -0.4293222 -0.15295647 0.05086888 0.162605 -0.72926646 -0.27330133
0.029042104 0.095673196 -0.004993287 0.11892024 0.04374372 -0.32176632 0.09259992 0.07834191 0.029640574 0.3248718 0.326872 -0.6216373 0.08057258 -0.1463342 0.3920614 -0.4468924 0.021779144 0.27368525 0.35903478 -0.66229177 0.37326688 -0.30528834 -0.3703656 -0.68401575 0.18663491 0.27834845 0.20344225 0.14009517 0.18894607 -0.32041296 -0.23359516 0.036248483
-0.15977898 0.18480136 -0.03250182 0.08385099 0.079171434 0.15122102 -0.07970894 0.00055259065 0.21159776 -0.0041322494 -0.31696257 0.32981354 0.007969229 -0.17701446 0.084324576 0.052290898 0.1347814 0.023164598 -0.18703014 0.16956794 -0.03591336 -0.09577776 0.023052998 0.39894313 -0.17684235 0.1954938 0.10614649 0.075530924 0.0357624 0.15966158 0.2450753 -0.17920294
-0.024908457 -0.32172552 0.2589368 -0.11408499 -0.33743072 0.0830069 0.010955322 0.017480846 0.37153488 -0.22367522 -0.31302887 0.040414196 0.13115843 -0.092901535 -0.367182 -0.3407493 -0.2257086 0.15440296 -0.42644697 -0.12517332 -0.050732885 -0.061599318 0.30522364 0.16961999 -0.17326054 0.25480747 -0.24093758 0.039460886 0.26264745 0.17102335 -0.17610422 -0.0016061764
-0.33827507 -0.077906385 0.063670754 0.11089017 -0.19855084 -0.6076793 -0.38757646 -0.069084965 -0.5189641 0.028567955 0.2712939 0.20175476 -0.005454732 -0.061115593 0.22246653 0.38637817 -0.07172969 -0.12588999 0.22349231 0.44656253 -0.5223398 -0.46895233 -0.46921661 0.038483784 0.14921921 -0.16820085 0.22091071 -0.07125653 -0.2280411 -0.46985137 0.2549474 0.058571175
0.015216079 0.22744626 0.20423964 0.17353033 0.05309949 0.23428278 -0.13478729 -0.34693295 0.17174675 -0.33727142 -0.55062944 0.34028107 0.093118206 0.0940941 -0.70644236 0.21371116 -0.4921029 0.036430575 -0.081365995 0.35115615 -0.032844096 0.124746785 0.17527205 0.27080262 -0.2119655 0.29512858 -0.18598945 -0.058420073 0.30727783 -0.13497546 -0.16438016 0.07331011
-0.12999214 -0.045101143 -0.05787062 0.05247423 0.17477274 0.018968249 0.05586878 0.039016757 0.062709115 0.041435998 -0.13922065 -0.106656544 0.079295665 -0.2096756 -0.014911568 0.17971386 -0.18687001 -0.12217008 0.16642614 0.02453449 0.1520673 -0.016139248 -0.032209106 -0.28804746 -0.18519516 -0.072421886 0.049389604 0.0859552 -0.071160905 0.14146182 0.09293732 -0.08445776
0.056655973 0.21091275 0.12586482 0.0041204086 -0.18803023 0.047554746 -0.13878764 0.04275538 0.088521846 0.027447833 -0.88106894 -0.2723518 -0.13658722 0.2292862 -0.3170299 -0.09363063 -0.17640944 0.06789836 -0.27869797 -0.11979614 -0.24031237 0.03446087 0.24399397 0.24844888 -0.34234577 -0.113704234 0.16383725 0.050080072 -0.049338326 0.26684615 0.17035224 -0.2377484
-0.26903263 0.031571247 0.050392125 -0.26815432 0.056674153 0.0056434846 -0.08414852 0.12001945 0.15396373 -0.0218623 -0.42384002 0.2625526 -0.34916615 0.2679989 -0.14418036 0.30364054 -0.08546169 -0.23338832 0.02648586 0.26706848 0.0849058 -0.108988695 -0.01188538 0.04285909 -0.069620185 -0.54610956 -0.13618954 -0.37389064 -0.0037963565 0.15495571 -0.13567112 0.003728654
0.2657948 -0.27283114 0.36067232 0.23641028 0.1903734 0.010079982 -0.20117028 0.30868116 0.50100094 -0.4607411 -0.3653053 0.28224412 -0.012068678 0.14324133 -0.3490725 0.16589218 -0.19389647 -0.025283173 0.051135518 -0.03641803 -0.23883136 0.4038004 -0.09665494 0.19922015 -0.19639573 -0.22067823 0.1177157 -0.22165394 0.28540537 0.39682364 0.021729324 -0.11415399
-0.35380635 0.30637285 -0.4434185 -0.044934273 -0.0085733915 -0.34165907 -0.4143392 -0.53830576 0.017113972 -0.3367139 -0.37670165 0.4784471 -0.37140918 0.1674862 -0.22745913 0.4795034 -0.22540039 -0.19222854 0.00074730197 0.36824796 0.0034763885 0.028589545 -0.16558136 0.4364014 -0.15649348 0.16797478 0.1611098 0.058430303 -0.090684585 0.050236598 0.355156 -0.055784993
-0.041542776 0.011405329 -0.1281646 -0.010484691 -0.31903276 0.44818643 0.040370446 0.103283085 0.19580512 0.03000245 -0.21532008 0.083194375 0.21482755 0.07874157 -0.5452767 0.017048664 -0.4768873 0.13908608 -0.03984377 0.11148602 0.08491281 0.27711743 0.07665215 0.20359258 -0.47511452 -0.149362 -0.19759732 0.15717393 0.16237177 0.34750023 -0.1870433 -0.18410166
-0.13040213 -0.2722786 0.24301635 0.25174445 -0.04017828 0.3739618 -0.092025384 -0.32733235 0.36078393 -0.17816794 -0.56212735 -0.026122874 -0.122051515 0.010514796 -0.40968004 -0.049718093 -0.38622752 0.06504554 -0.19426695 0.03030764 -0.19621472 -0.11505369 0.1592297 0.11334684 -0.46827284 0.4728544 0.008824209 0.20091102 -0.0067978525 0.18019626 -0.10453362 -0.20423993
0.0815245 -0.17516801 -0.19626212 0.056716874 -0.21231203 -0.13681036 -0.101767905 -0.014240006 -0.15940043 0.11139767 -0.05177495 0.08876002 0.10881168 -0.046943765 -0.2834404 -0.00069438113 -0.10025106 0.19259594 -0.034322556 -0.09219046 -0.18815574 0.08938268 -0.30790326 -0.12590162 -0.041272104 0.23689997 -0.045742348 0.13969718 -0.12945768 -0.12593672 -0.05232486 -0.17278038
-0.03380422 -0.29249147 -0.053414945 0.2442074 -0.106660254 0.3823912 0.21190904 -0.07451854 -0.011709664 0.09889279 -0.4194484 -0.040371936 -0.088426605 0.18360987 -0.24053872 0.08067096 0.13595393 0.14793949 -0.15026368 -0.011251001 -0.017164288 0.0938885 -0.14592539 0.36239287 -0.2586984 0.08750581 -0.30899644 0.043267477 -0.048473023 0.08503954 -0.3883759 -0.031077541
-0.16876385 0.39462343 -0.09997776 -0.23334251 -0.24128562 0.15982653 -0.38074213 -0.45352226 0.21028067 0.18490723 -0.10245006 0.37898907 -0.37411398 0.21977864 0.020109845 0.22228555 -0.32507074 -0.29662603 -0.09457192 0.033126112 0.16123885 -0.24188043 -0.10385496 0.14387201 -0.08671599 0.16282974 0.050533395 0.36051902 0.09083285 0.028562276 0.48966718 -0.04857797
0.22191332 0.015663415 0.060417876 0.09583172 0.10186968 -0.26430377 0.40521577 0.07869511 -0.117999814 0.1505498 0.025290895 0.06798139 0.28091007 0.033304986 0.14291722 0.031219743 0.36115396 0.10663557 0.17053936 0.066602856 0.3262194 -0.049991585 -0.6420308 -0.2868625 0.30592597 -0.13856858 -0.17519943 0.52113193 -0.323636 0.24484095 -0.17938745 -0.1925718
0.0732366 -0.0057844906 0.2535605 -0.078637235 0.07481275 -0.060629748 -0.31315508 -0.043238163 0.14173053 0.16305427 -0.076762944 -0.06294417 0.13830715 0.1410336 -0.08525891 -0.2339491 -0.1388617 0.19661076 0.00284456 0.22825275 0.19099833 0.08386055 -0.09871848 0.3091211 -0.2516772 0.16448572 -0.085136645 -0.12506033 0.1793183 0.101906374 -0.18867598 -0.06629062
0.24128704 0.06097372 0.5771641 0.3557182 0.066099055 -0.051729508 0.26795813 0.19524413 -0.017784014 -0.19732596 -0.16146302 -0.16594572 0.41093937 -0.10534029 -0.045882057 -0.20703596 0.10377444 0.25672716 -0.023885233 -0.2431378 -0.03748785 0.38393003 -0.093804166 -0.22631378 0.13172667 -0.097685486 -0.06660526 0.14863473 -0.122672565 -0.38387427 -0.10079239 -0.1590012
0.43357378 -0.42685091 0.024604486 0.09166887 -0.32413143 -0.045710918 0.4607695 0.030696074 0.15730493 0.26230797 -0.19956577 -0.1866847 -0.10266064 -0.37729105 -0.2527317 -0.38478526 -0.20048396 -0.08049732 -0.1838825 -0.030190125 0.042319223 0.15493965 -0.09062933 -0.383083 -0.030347558 0.04521551 -0.3408987 0.32187524 0.05140963 -0.22395602 -0.3923039 -0.2911728
0.4588473 -0.1327717 0.11387998 0.22855225 -0.02185153 0.057225242 0.21797432 -0.15226132 -0.0068372935 0.03134268 -0.27467462 -0.20696516 0.14972682 -0.122489154 -0.27938637 -0.010959419 -0.21255776 0.09972107 -0.059898768 0.09625975 0.02520303 0.1889971 -0.35678875 -0.09417532 -0.14312553 0.24964318 -0.26765513 0.07805587 0.049992956 -0.06715351 -0.26296163 0.15809421
-0.024451682 0.23778015 -0.1531769 -0.26731262 0.04540163 0.13402994 0.03490758 0.15468161 0.087705314 -0.30833617 -0.6078945 0.2782466 -0.2235942 0.21242888 -0.30773953 0.38311073 -0.20060302 -0.31245068 -0.08453757 0.3335589 0.19298019 -0.10040134 0.3788337 0.36509112 -0.15739748 -0.19180022 -0.09179274 -0.12559398 0.010116566 0.27978784 0.2450271 -0.19753943
0.15404636 0.19187203 0.11751613 -0.18209705 0.19282193 -0.17055212 -0.045011286 0.1471159 0.16511486 -0.16471104 0.06748714 -0.21090162 -0.09789486 0.17867 0.07315566 0.12094507 -0.053753346 0.18433261 0.1248975 -0.1699341 0.053149987 -0.11282414 0.2267083 -0.14837347 -0.036984395 -0.20856354 0.21160892 -0.05451365 0.10249248 -0.034952242 -0.047518063 -0.085834354
0.16878767 -0.0066755773 0.024279144 0.16393787 -0.19030881 -0.28250852 0.25891495 0.21457078 -0.18276791 0.15200482 0.19794199 -0.32093018 0.14687687 0.031367194 0.22365572 -0.01812954 -0.035640404 -0.012917942 -0.2880012 -0.30700198 -0.11258726 0.29271472 -0.04919034 0.015401891 -0.14291537 -0.03277619 -0.41875848 -0.18823044 0.07637883 -0.049513448 -0.04628842 -0.16209033
-0.064454414 0.029332535 0.04197537 0.016355129 -0.077989146 0.11159959 -0.15828499 -0.13232781 0.12770785 -0.31249347 0.35893908 0.11678808 0.004364037 0.20682219 0.43043652 0.2591086 0.33450305 -0.12321212 -0.039953113 0.0333434 0.12717119 -0.095890984 -0.18639402 -0.18622275 0.29074377 0.07978631 0.38286692 -0.08144057 0.04425796 0.17564587 0.24000108 -0.2102313
0.28409833 0.040076356 0.032589674 0.25429416 0.026141288 -0.04718614 0.2637274 0.018116482 0.22956236 -0.16363798 0.15998079 0.075192586 -0.13130973 -0.2278332 -0.098604724 -0.13989705 0.13305865 -0.009149161 0.03833901 -0.22593577 -0.23218916 0.1409458 0.009347993 0.08703991 -0.20055763 0.25651452 -0.13265648 0.019233197 -0.1737363 -0.40063474 0.0015203938 -0.2259455
0.16344976 -0.081438914 0.04813517 -0.046446964 -0.24859352 0.05146039 0.17115101 0.2152061 0.046148904 0.0055783917 0.11287214 0.14935537 0.23219146 0.039274354 0.025575522 -0.1259508 0.14234224 0.07104154 0.08007641 -0.045379885 0.04179308 0.024621136 0.29704833 -0.042332105 -0.123027675 -0.07410945 0.11943784 0.038332842 0.025542494 0.0033710129 0.013452467 -0.12044706
-0.10378822 0.041400976 -0.011845971 0.09233576 0.050821535 -0.19580185 0.03597051 0.16140352 0.076637715 -0.24281825 -0.05250353 -0.030913075 0.2294057 0.19657415 0.105330504 0.14930102 -0.17737937 0.12807387 -0.064641826 0.010710557 0.044664714 -0.024241593 -0.26139286 -0.09226128 0.15655608 0.14533505 0.23757158 -0.07573162 0.11871664 -0.1954349 0.21617587 -0.21140674
0.18983275 0.09013845 0.14616059 0.24877223 0.09934564 -0.027965652 0.09849074 0.24109848 0.117529675 0.18471187 -0.033294972 -0.024933279 0.16266808 0.028497143 -0.088816464 0.086443834 -0.37545213 0.21409783 -0.17829572 -0.27657998 0.2046657 -0.13004495 -0.030808581 -0.03509546 -0.24147783 0.05321155 0.20217364 0.2516595 -0.0033804826 -0.19662115 0.043225486 -0.2277035
0.08916175 -0.12128402 0.08580302 0.014513545 -0.35024196 0.024418043 0.117535785 0.11709631 0.13432248 -0.15615217 0.013029093 -0.05135685 -0.116702184 0.017743908 0.23851803 -0.092708655 -0.19150555 -0.1747539 0.12549464 0.09210597 0.17931165 0.016714688 -0.27229026 -0.056164168 -0.15555897 0.059144713 -0.014733482 0.11959717 0.06015437 0.045416884 0.16854197 0.10717843
0.08203913 0.1807565 -0.32145333 -0.10807275 -0.06287454 -0.060733363 -0.096551746 -0.06384604 -0.1114772 -0.14536151 -0.38795847 -0.10900387 -0.0073359655 0.20586349 0.09962956 0.035283428 -0.29379588 0.038129143 0.052670524 -0.19748 -0.045588296 -0.188443 -0.110435404 0.10612843 0.008655948 -0.355193 0.14316577 0.011648488 0.1694479 -0.011029842 0.14819375 -0.13732679
0.12722777 0.12457834 -0.037445683 0.11165216 0.098765574 0.12468162 -0.033030394 0.0022138047 -0.19986053 0.05115833 0.16426389 -0.05089716 -0.115452185 -0.060064852 -0.12567976 0.0032303783 0.30902988 -0.091619015 0.2861256 0.087317176 0.07777036 -0.2454887 -0.14951412 -0.068675786 0.18926324 -0.24453858 -0.018120823 0.046315026 0.008045205 0.071503654 -0.056447428 -0.28122976
-0.10123625 -0.22552204 0.12896799 0.11702304 -0.24101599 -0.07499449 0.03935602 -0.12414888 -0.015729036 -0.030864095 -0.07547834 0.3449912 0.14613807 -0.27481234 -0.30437648 0.122411065 -0.035041194 -0.21454632 0.14089875 0.095858105 -0.35842106 0.07228177 0.11577241 0.19726615 -0.11991847 -0.5808829 -0.06658827 -0.25329196 0.2013565 0.22168308 0.12598148 0.06363902
-0.20984204 0.048336785 0.28197697 -0.16334842 -0.24409308 -0.15846737 0.028202366 0.10968731 0.09442678 0.080431715 0.24077643 -0.23143794 -0.07715198 -0.13871348 -0.18984215 -0.007296271 -0.047226142 -0.1531178 0.17108165 0.09979326 -0.17899215 0.18996964 -0.25382105 0.091549404 -0.058290087 0.17437537 0.11843118 -0.21093051 0.10791246 -0.061848566 -0.03740992 -0.0026158656
-0.14047222 -0.075891234 -0.3150356 -0.09462391 -0.016241629 0.23405236 0.16452727 0.024108281 0.22258045 0.19066744 0.07844663 0.023511812 -0.18679829 0.10786901 0.13672417 -0.14068487 0.25799772 0.14451344 0.040399227 -0.16714336 -0.035187267 -0.15448187 -0.020867297 -0.38423774 0.5421007 -0.21882235 0.08168689 -0.27362546 -0.13764945 0.33769593 0.026702316 0.03871653
0.24365214 0.23799863 -0.13100225 -0.09518627 0.081151 0.2984946 -0.009447296 -0.09584608 0.20444547 0.052569877 -0.13843475 0.04392128 0.14225572 -0.07896803 0.0052264053 0.067386776 -0.08522884 -0.27712196 -0.06250796 -0.04281397 0.14447995 0.041039664 0.049803916 0.013058005 0.15210126 -0.32505038 0.25112882 0.22547536 0.22705753 0.31875372 0.31490025 -0.09090044
0.121311136 0.21730001 0.16593854 0.16956943 -0.39624724 0.29510334 -0.23529194 0.047531653 -0.059466463 0.09854142 -0.24142288 0.18632618 0.06161617 -0.005368365 -0.18831697 -0.13456203 0.19567844 -0.26877335 -0.12888949 -0.09837721 0.16494341 0.1056692 0.07195853 0.015995275 0.20536686 0.037121233 0.10205894 0.18443303 0.22440274 -0.105078384 0.14539987 -0.22633837
-0.22137327 0.19582231 -0.107164726 -0.23339339 -0.07299751 -0.019217722 0.18269765 -0.22118552 0.059871677 -0.6656536 0.4591675 0.018211244 -0.49939913 0.17171407 0.16913639 0.1069672 -0.025206733 -0.04711926 0.1873581 0.14929955 -0.011525147 -0.17032218 0.16124792 -0.572808 0.33111998 -0.28855103 0.09149598 -0.07593549 -0.35946408 -0.10003457 0.18885887 0.019232621
0.14660291 0.18787971 -0.053107757 -0.14907284 -0.041237544 -0.07882449 0.041579008 0.091934346 -0.14137787 -0.028456142 0.16267332 0.1619677 0.0106402375 -0.06484649 0.08063051 0.0065055317 0.21182251 -0.06271408 -0.20562701 -0.12167512 -0.08793799 0.012383491 -0.018875318 -0.15230086 -0.081204765 -0.24931253 0.10918155 0.16200435 0.21736701 -0.2643695 0.17026861 -0.15733282
-0.042134717 0.046062246 -0.00045624955 0.12715927 -0.27278265 -0.16168289 -0.03236665 -0.13739267 0.33878392 -0.26830322 0.13103421 0.023814857 0.042593226 0.02240732 0.0535959 -0.17410836 0.0806655 -0.23717423 0.33014134 0.23124267 -0.14148735 0.30662176 0.3579095 0.1144948 0.08088404 0.051791463 -0.05603074 -0.32632387 0.29279637 -0.117286414 0.029593337 -0.04593692
-0.014505808 0.29169208 0.11241482 -0.22993869 0.22032115 -0.08707022 -0.2910749 -0.31667596 0.083397485 -0.25024533 -0.27774256 0.2065115 -0.11065632 0.3081168 0.076574065 -0.025756625 0.020327741 -0.10799815 0.113670684 0.12810943 -0.10428696 0.004975455 -0.25898358 0.17221627 -0.21060963 0.13065222 -0.098633654 -0.3284093 -0.0333762 0.15077546 -0.018433098 -0.15210314
0.22308555 0.28926885 0.10393987 -0.14309347 0.051294547 -0.227448 0.02124329 0.03947664 -0.017336057 -0.009769278 -0.08810193 -0.020009281 0.08640756 0.1185627 -0.06532254 0.14479719 0.05988855 -0.12408872 -0.021211412 -0.07592173 -0.079751454 -0.0390116 0.096387014 -0.176506 0.25408235 -0.06938959 0.13978638 -0.36784765 0.017947981 0.20797676 0.13202535 -0.20084658
-0.13050024 0.30786833 0.16946028 0.17301741 0.10588874 0.042875603 0.42879853 0.08486502 0.241418 -0.06683926 -0.007791844 0.06991525 0.022700679 0.23993473 0.18603395 0.0872882 -0.34602788 0.082059585 -0.12752046 0.22281885 -0.016159566 0.11930687 -0.14577031 0.002485497 -0.23009646 0.18263116 -0.0018899315 0.17278384 -0.17005964 -0.023986716 -0.0012845675 0.025067467
0.13389617 -0.04558759 0.41089782 0.2901418 -0.06812678 0.23885943 0.08470666 -0.0776778 0.28085575 -0.1861314 -0.012547309 0.06530412 -0.01902576 0.05988527 0.012891224 -0.2055728 0.13688803 0.2921197 -0.3809151 -0.050421096 0.2993737 0.12054416 0.08709713 -0.2634521 -0.0062548416 0.13264269 0.041685402 -0.03166631 -0.085300766 0.14337526 0.20593409 -0.31186998
0.095148146 0.3942765 -0.12226005 0.15029994 0.101430096 0.1833001 0.08359694 0.34620315 0.05438679 -0.36669528 0.06848195 -0.25600454 0.1294772 0.1762056 0.028558683 0.15160766 0.23503523 -0.014599761 -0.049146235 0.12352706 0.06372649 0.29226372 -0.22628942 -0.048626058 0.027708227 0.00738447 -0.06043934 0.14406213 -0.03992831 -0.11031098 0.1052225 -0.15362383
-0.18861084 -0.14258759 -0.06252081 0.17136385 -0.14114054 -0.12432467 0.13522187 -0.11982661 0.16143394 -0.16376908 -0.097091235 0.14959644 -0.08823029 0.0008185161 0.09781562 0.017059699 0.055991266 -0.061818294 -0.1307248 -0.01820674 -0.13155977 -0.07720646 -0.06345186 0.045357797 0.15370077 0.005119765 -0.2583989 0.088798106 0.07948579 -0.036396038 0.05190672 0.052816086
-0.106538676 -0.05753527 0.14258014 -0.13665676 -0.0008812668 0.15552412 -0.19751234 0.21709198 0.122248456 -0.16697712 0.18783678 -0.039173648 0.02313735 -0.15733296 0.06790283 -0.07270124 -0.02295005 0.08432024 0.0727785 0.14317235 0.10102462 0.25051144 -0.029071763 -0.016838204 0.047629826 0.07397692 -0.14438246 0.0034955374 0.056769256 -0.0016148522 0.20088309 -0.2095591
-0.28027102 0.20994268 -0.011203683 0.11444971 0.20544 0.04413307 -0.04822727 -0.16449949 0.28292766 -0.11713608 -0.044136062 0.24616624 -0.39330336 -0.01389001 0.1977282 0.12565966 0.016157674 -0.3100335 -0.089086145 0.36198547 -0.29630226 0.008841467 -0.0029360363 0.23076713 -0.16694453 0.009676146 0.17534944 -0.3262016 -0.0009097557 -0.3837427 0.080690384 -0.20420375
-0.16067399 0.1985397 -0.06844947 -0.3759929 -0.06000269 -0.075957365 -0.21207057 -0.29287657 0.32023555 -0.15520711 0.043384895 0.28924808 -0.34601688 -0.119456336 0.23253497 -0.0028431937 0.2634416 -0.04030333 0.09545141 -0.12701446 -0.069100216 -0.25884548 -0.013660349 0.1872043 0.28411642 -0.03941482 0.0064958157 -0.28085133 0.16781233 0.12747654 0.20960651 0.0555159
0.18264294 0.030105505 0.07396148 0.17082138 0.024306882 0.0028225787 -0.22223403 -0.12882261 -0.05936995 -0.23878697 -0.04308021 0.10778333 -0.08322673 -0.130615 -0.11865261 -0.07702831 -0.18279517 0.01281165 -0.13835356 -0.20965426 -0.15258761 0.27843007 0.06630078 -0.20923078 -0.037632093 0.022914672 0.101533666 -0.05273963 -0.07196134 -0.11037511 0.076366395 -0.09882566
0.43575433 -0.101549484 0.016368382 0.03381309 -0.18975447 0.454234 0.16112494 0.19939137 0.5258596 -0.122690804 -0.051888797 -0.11197186 0.3699551 -0.10973421 -0.0898131 -0.48529533 -0.48472136 0.0644438 -0.083536826 -0.0506071 0.07644636 0.21594064 0.25489858 -0.13325003 -0.21298587 0.22901277 -0.3956639 0.32545495 0.07297701 0.003295252 -0.051788267 -0.07170738
0.015537049 0.15901248 -0.06060606 0.09620268 -0.2502956 0.029177181 0.011181768 0.034555044 0.08513672 -0.35940355 -0.11573271 -0.13300058 -0.3975646 -0.012680572 -0.101705045 0.043499958 0.10991239 -0.15769142 -0.03131161 0.1120829 0.07975276 0.10177731 -0.2247789 0.10532048 -0.054079007 0.045462377 0.048019353 -0.32503623 0.062364586 0.000299866 -0.07474338 -0.02597056
0.2309835 -0.034797486 0.060207356 0.022221193 -0.18801193 0.0813259 -0.116367705 0.18850099 -0.06457274 -0.12783101 0.0747025 0.11542337 -0.11635212 -0.13244005 -0.11958677 0.16124652 0.056983333 0.09010623 -0.24236427 0.15355039 -0.14710988 0.09960951 0.13720743 -0.032420788 0.15739813 0.1473625 0.041677084 -0.1928716 0.022704665 -0.27834213 0.18718116 -0.19994056
0.019764116 -0.082383946 0.1486612 -0.15537964 -0.29440263 -0.005571398 0.078763224 0.08005488 -0.121985026 -0.041614156 0.053494826 -0.06532582 -0.22716102 0.12151469 0.14641029 0.15450133 0.2021793 -0.2530197 0.08006315 -0.07823029 0.25753596 -0.021918405 0.18775839 -0.27883866 -0.15111992 -0.0049505616 0.2245531 -0.076660186 0.047338355 -0.09617741 -0.121355526 -0.06597762
-0.0070974934 0.029414613 -0.15480222 0.19967787 0.16899411 0.1280686 -0.10918507 -0.103712216 0.122178614 0.114573024 0.17302053 -0.106721476 0.023425726 0.18659687 0.21918614 0.17601098 -0.17173694 0.19333933 0.036211148 0.11973985 0.015578191 -0.16266835 0.08434659 -0.26054087 0.20366317 0.091169246 0.24737863 -0.052724253 -0.0602123 -0.003260163 0.043084055 -0.19538389

