-0.0025596933 -0.20329721 -0.05063833 0.0061327587 -0.15858571 -0.06735036 -0.14581528 -0.12839077 0.22456446 -0.09881024 0.1645556 0.026428256 0.055842247 0.15133616 -0.14069977 -0.04664407 0.04393431 -0.20861284 0.024178995 0.13933899 -0.23072186 0.031162862 -0.039472524 0.10209789 -0.13097472 0.002636879 -0.04024563 0.016851392 0.28169066 -0.28311598 0.29888272 0.008622471
0.24515526 -0.037766457 0.036643904 -0.26876464 0.13977492 -0.048282888 -0.24824305 -0.03907217 0.2161449 -0.24679525 0.16539556 -0.08449858 -0.19361949 0.01403841 -0.19256096 -0.23949349 0.29380837 -0.26869616 -0.29773298 0.06285697 -0.023090383 0.063536435 -0.070140205 -0.1453638 0.032959506 -0.08748071 -0.03797457 -0.2504406 0.17592874 -0.13417733 0.28189668 -0.26844102
-0.20029834 -0.071211606 -0.047993857 -0.0007725683 -0.018757343 -0.3913389 -0.21059595 -0.11857862 -0.32528657 0.19807614 -0.18732807 0.1890819 0.16903634 -0.27960697 0.12342635 0.21137281 -0.2369779 0.11351897 0.3106602 0.1300305 -0.23775004 -0.038711887 -0.13234754 0.20816574 0.12463739 0.1291944 0.37050527 0.2905675 -0.20810403 -0.050553072 -0.123698406 0.030135075
0.012091385 -0.09843268 -0.16054031 0.24980313 -0.13161887 0.06692218 0.09914453 -0.22962539 -0.07792979 0.17771332 -0.1351609 0.01394128 0.2899845 -0.14279225 0.056753684 0.085965924 -0.0796328 -0.04940924 -0.07252761 -0.06457534 -0.07855896 -0.2527761 -0.017645018 0.2700361 -0.037435528 0.13752782 0.07546881 0.08758461 0.020206302 -0.12583436 0.008663281 0.13081846
-0.08429916 -0.08781758 -0.084770404 -0.07045995 0.0028410289 0.07310408 0.049455497 -0.07430513 0.16326988 0.0059105475 0.09681336 0.19315659 0.15601909 0.13863222 -0.073259644 -0.22226143 -0.004788762 -0.09846012 -0.08725689 0.10626989 -0.052439265 -0.2023459 0.09649659 0.05710431 -0.074761815 -0.068081364 -0.13993683 0.08696627 -0.02176582 0.10901529 -0.15468997 -0.042262215
-0.14454268 0.11276857 -0.063860066 0.2963038 0.08310525 -0.3847107 0.04224225 0.06449208 -0.04550552 0.23546243 -0.05518267 0.17150192 0.15559335 -0.23810926 0.2607013 0.22504854 -0.020791214 0.19252397 0.059056047 -0.07292362 -0.24726638 0.1959529 0.11888778 0.23726176 -0.16523185 0.20301753 0.20902307 0.27555653 -0.31571397 0.098387934 -0.28752303 0.020271081
-0.19654231 0.005175718 -0.16695839 0.109642334 -0.100303456 -0.028106652 0.1338972 -0.16635 -0.0628325 0.14094442 -0.10739438 0.10964305 0.16148174 -0.1462179 0.12516941 0.2261195 -0.15701775 0.18713327 0.13763268 -0.12469409 0.11426248 0.12181635 -0.12134853 0.04451803 0.044421315 0.18945679 0.094275296 0.15010774 -0.1890529 0.11474318 0.038318887 0.24936426
-0.09931805 -0.27531925 0.059784967 -0.013362191 -0.042933926 -0.100148946 -0.20004004 0.103090785 0.2210513 -0.10553905 0.0237939 -0.1270102 0.06080505 0.16216716 -0.012681207 -0.17630914 0.21927363 -0.09658096 -0.07275601 0.029548137 -0.14175452 -0.16798057 0.030759647 -0.032755934 0.07324743 0.03585598 -0.07793883 0.0046795784 0.12145399 -0.554182 0.23572755 -0.219413
0.086283796 -0.0980438 0.03342975 -0.054353803 -0.088070884 0.08358 -0.2437254 -0.23032801 0.095482424 0.019325035 0.25989884 -0.32239246 -0.1379921 0.030846892 0.1213103 -0.08721753 0.1339352 -0.22321497 -0.07841345 0.1006075 -0.036257196 -0.2816632 -0.13539274 -0.27065545 -0.13627717 -0.011262151 -0.11118278 -0.036030177 0.19410136 -0.3120143 -0.09064277 -0.2698071
-0.17844614 0.00020655409 -0.00052419124 0.072400995 -0.05246375 -0.052635852 -0.01639479 0.06277827 -0.0066103567 0.06227075 -0.14677249 0.14030515 0.4133478 -0.0068185693 0.048385493 0.26180637 0.13087764 -0.016560303 0.18172242 -0.17631747 -0.2991905 -0.12437244 0.08502249 0.5265466 0.021627432 0.23210259 0.21193363 0.26619092 0.011242249 0.16372748 0.2380865 0.12678011
-0.14094383 0.09435436 -0.14915416 0.11159747 -0.14866391 -0.033078965 -0.015303703 -0.01648599 0.14632477 0.053901933 0.06082646 0.16530326 0.1261879 -0.052347362 0.0047884802 0.1300739 0.06858455 -0.10772676 -0.107288495 -0.063095376 -0.18615785 -0.16827278 -0.0105677005 0.3711988 -0.021985363 -0.07674634 0.015529832 -0.05036202 0.06162466 0.17626023 0.27036837 -0.057188552
0.11290327 -0.073741585 -0.09338572 0.20393543 -0.122275084 0.030178396 0.07194447 0.18304662 0.1308906 0.04511372 0.10320051 0.035135243 -0.109532714 0.05064186 -0.10062201 0.009870545 -0.11110112 0.01895259 -0.079216905 -0.028400691 -0.32100546 0.20177437 -0.07364427 -0.07595876 -0.19899338 0.019705411 0.043945216 0.11037789 -0.15075988 -0.011105477 -0.09250469 -0.06575061
-0.09140008 0.09298545 -0.035925716 0.022695046 -0.044922262 -0.23248543 -0.044491023 0.17098184 -0.14773624 0.08336583 -0.21816975 0.21490757 -0.08561067 -0.24997936 -0.014728424 0.14735578 -0.13835727 0.062007003 0.19961788 -0.095413625 -0.09184289 0.13732675 -0.03051689 0.014118708 0.12433207 0.06981295 0.11193605 0.1729391 0.055172943 -0.06843661 0.1514311 0.22129443
0.14065106 -0.20277728 -0.06492521 0.02149914 -0.15939829 0.16731149 0.06090637 -0.19270106 0.17389478 0.07756112 0.0022700378 -0.13496922 -0.018543802 0.14976044 0.012260114 0.09099981 0.18531796 0.06831326 -0.12740862 0.05380086 0.01050798 -0.18249017 -0.13972285 -0.06554147 -0.027618708 0.025790323 -0.1448468 -0.10744914 0.12294891 -0.044749554 0.080727406 -0.12265033
-0.10560028 -0.18994491 -0.14073323 -0.19873755 -0.124086946 -0.1213694 0.13465096 -0.12681212 0.105239786 0.041526534 0.06108025 -0.08215213 0.046438046 0.25158164 -0.1669706 -0.10498946 0.10839263 -0.12251342 -0.20261554 0.09499799 0.067755 -0.16012442 -0.16224536 -0.15812722 -0.0030064022 -0.12569721 -0.30967522 -0.077465735 0.20935299 -0.25673574 -0.0052470774 -0.0077523924
-0.23833132 0.20220862 0.09097514 0.18218082 0.053761587 -0.17044012 -0.06755279 -0.11189406 0.03770415 0.22849053 -0.02494409 0.2538012 0.012495961 -0.0096538365 0.11386257 0.050524853 -0.021381667 0.0855264 0.032801136 0.058010105 -0.3571864 0.057632048 -0.089325994 0.14625815 -0.047754757 0.11076226 0.13267803 0.1330615 0.07033234 0.18146983 0.06497661 -0.05682008
0.004173635 -0.17404869 -0.01756101 -0.0026742218 -0.009287447 0.12786897 0.015592719 -0.19963974 0.19956371 0.14604168 -0.12254615 0.026980637 -0.14711878 0.19477803 0.13515225 -0.1299648 0.018620374 0.040059328 0.035941184 -0.07797731 -0.2851333 -0.16288148 0.0130157415 -0.17748071 0.11812496 0.023828734 0.022185624 0.13484792 0.09866587 -0.22947834 0.04498722 -0.054278236
-0.21826154 0.13535087 -0.07691233 -0.006421127 -0.15310447 -0.31001124 -0.14966467 -0.07930687 -0.10917386 0.144532 -0.22350141 0.21307948 0.14919712 -0.2666974 0.02896431 0.25070024 -0.23959897 -0.013032083 0.21167746 0.1502552 -0.2040928 0.039913855 -0.09006722 0.06743703 -0.013633475 0.22583705 -0.041407496 -0.038231086 -0.12411276 -0.14105886 0.1823688 0.22186051
0.0951745 0.255652 -0.09680061 0.23345098 -0.094957836 0.043359973 0.16040869 0.11958342 -0.33637306 0.15235372 -0.17532554 0.004452461 -0.056948617 -0.32391065 0.30672643 0.16851169 -0.09470348 0.18362072 0.2934002 -0.025966039 -0.2645809 0.3003352 -0.11415712 0.06505789 0.014006322 0.21925284 0.05879027 -0.09284408 -0.14448443 -0.120183334 0.046685904 0.09374793
0.10015167 0.061856445 -0.1164764 0.05510762 -0.104661345 0.10683996 0.14551392 -0.28582785 0.075513996 -0.059831817 0.024312811 -0.07929079 0.023112146 -0.21037829 0.008072453 -0.17961174 0.19819725 -0.20318347 -0.10820381 -0.051890314 -0.2971836 -0.12905456 -0.18759124 -0.25162685 0.13819396 0.111732185 -0.04265369 -0.043938417 -0.23816554 -0.053850953 -0.039459743 -0.059654023
0.023456154 -0.07944456 0.083489984 -0.15025368 0.014380466 0.20636299 -0.10423544 -0.3593031 0.29706776 -0.010098647 0.13827428 -0.058631543 0.029428005 0.29844216 -0.15461761 -0.1437464 0.23178926 -0.1336314 0.014820089 -0.14012149 0.05150589 -0.44256157 -0.18904005 0.007088553 -0.029930728 -0.1247684 -0.25507247 0.024244219 0.13447204 -0.16039404 -0.07444052 0.02464239
-0.3569076 -0.2466489 -0.07380028 -0.047237158 0.11841419 -0.11144832 -0.1267055 -0.15045092 0.23536055 -0.24811551 0.044222314 -0.307808 -0.28443146 0.14244078 -0.24791081 -0.113754876 0.35007855 -0.1392619 -0.29599643 0.1020445 -0.32468656 -0.30748913 -0.083852075 -0.1485275 -0.13826561 -0.3108173 -0.0702101 -0.39591548 0.26399133 -0.029022288 0.42393976 -0.29898015
0.0788229 0.06000022 -0.0619584 0.17165339 0.011156372 -0.25775424 0.31528482 0.16870208 -0.21981175 0.22244662 -0.0030098888 0.15991043 -0.23433127 -0.2624598 0.099243306 0.1648832 -0.014272809 0.06549147 0.101016074 -0.09342704 0.32483628 0.3800404 0.06959279 -0.274282 -0.07517471 0.12962638 0.09740348 0.14207157 -0.34574127 -0.028419683 -0.24913576 0.1437767
-0.06686013 -0.2170148 -0.0008160416 0.032686427 0.13371362 0.016956363 -0.18794121 -0.16131309 0.07514057 -0.0016523756 0.13697465 0.1075566 0.0026507059 -0.035573203 0.07040563 0.10000283 0.076221526 0.060258728 -0.05420517 -0.15657027 0.06832068 -0.09478921 -0.18923976 -0.013092243 -0.08351306 0.11984984 0.041289445 0.10545585 0.026451034 -0.2187695 -0.19369456 -0.0440013
0.35581627 -0.30062097 -0.11267206 -0.16034555 0.13734029 0.07765366 -0.20072846 -0.24763535 0.27351588 -0.25878316 0.2684227 -0.04410807 0.020644713 0.18770343 -0.29663232 -0.11180619 0.15980348 -0.34326547 -0.100073315 -0.15804511 0.2867051 -0.44835237 0.011379636 -0.25821882 -0.10879896 -0.1992996 -0.25395778 -0.18342373 0.11825017 0.04076936 0.10730925 -0.32995334
0.120732285 -0.14723761 -0.19704467 -0.32091033 0.109244026 0.360773 0.022462366 -0.12724139 0.33662054 0.05339195 0.27930498 -0.17242754 0.070079945 0.1749205 -0.06266468 -0.06089123 0.13913104 -0.34608012 -0.23389943 -0.077091314 0.0649597 -0.2783094 -0.094160706 -0.34514156 0.06341254 -0.13118193 -0.09392254 -0.3274754 0.17530385 -0.075397916 -0.0526179 -0.061059304
0.24208896 -0.048973802 -0.16885006 -0.14420958 -0.178054 0.23972268 -0.0857014 -0.1370912 -0.041887797 -0.18348622 0.27484787 0.068811096 0.08095925 0.1861781 0.104007445 -0.014253282 0.17630863 0.044240117 -0.16220021 -0.029125089 0.09826709 -0.24420321 0.13481842 -0.15539125 -0.12919924 -0.020498263 -0.23781186 -0.0023848906 0.17096822 -0.25606838 -0.15419143 -0.2105928
-0.060899228 0.34121117 -0.15543188 0.1045324 -0.017550275 -0.050786253 0.044624355 0.26204723 -0.3212797 -0.034748394 -0.11953703 0.073898256 -0.07472733 -0.2848137 0.17246458 0.08510788 0.11764218 0.115730084 0.13879353 0.04252899 0.016965223 0.43342426 0.080443755 0.07602112 0.1472709 0.3368187 0.1793298 0.30803826 -0.15215145 -0.12347608 -0.1643688 0.29209992
-0.060011473 -0.11771476 0.075316325 0.03343965 -0.036459703 0.022303076 0.24810776 -0.035873305 -0.042873584 0.12691621 -0.0662037 0.07121112 0.16745593 0.02465374 -0.011811849 -0.07316803 0.05026897 0.1267213 -0.044264853 0.05262558 0.16420949 0.12773561 -0.10164549 0.01008241 -0.089121096 0.066997945 -0.030747741 -0.046527077 -0.0058130296 0.0811592 -0.015631117 0.06522882
-0.08333861 0.28302008 0.087210275 0.17910354 -0.12732223 -0.16092269 0.14068009 0.17713279 -0.17621276 0.27479318 -0.2377935 0.16215844 0.122421205 -0.24205425 0.16623917 0.16588256 0.050511744 0.10425555 0.24517813 -0.0045155953 -0.14361022 0.3625429 -0.12524201 -0.21884379 0.13718347 0.027242431 0.18331851 0.31732607 -0.3234533 -0.018483806 -0.09441075 0.29212078
-0.43078062 0.14376333 -0.13334197 0.1696601 -0.13521056 -0.017016368 -0.1533437 0.08221385 -0.07785014 -0.09559517 -0.0034655011 0.16996361 0.044895392 0.113589406 0.18953566 0.18893291 -0.36476493 0.08473544 0.048542123 -0.05151269 -0.23904425 -0.022159642 -0.08187971 0.06650113 0.047366943 0.15841842 0.02046725 0.16762227 -0.07953887 -0.14906463 -0.30126002 0.19843327
-0.07577121 -0.19477701 0.13039841 0.05056021 0.069052525 0.042273063 0.05025171 -0.083033055 0.02604465 -0.060274374 0.112499215 -0.14769866 -0.27345562 0.10259731 -0.016113976 -0.17727485 0.07744287 -0.010533241 0.12070661 0.08144032 -0.04877685 0.028230373 -0.15756175 -0.20188783 -0.13414371 0.038033407 -0.021798857 -0.13060184 -0.03297622 0.02388559 0.19102791 0.061357252
-0.10169888 0.17080931 0.103745304 -0.04159821 -0.00079630315 -0.1972044 0.18280299 0.12230169 -0.12553859 0.23376636 -0.09112476 -0.08849733 0.10219664 -0.041771468 0.21820098 0.25347626 -0.18096617 0.058976352 0.066984475 0.082735784 -0.24266733 0.011588716 0.044723306 0.24497688 0.027706666 -0.04584002 -0.09523483 0.20429188 0.06102403 -0.244168 -0.10746672 0.11623718
-0.23601836 -0.14534889 0.083702326 0.10622115 0.083363436 -0.23787434 0.011468519 -0.021243831 0.023135873 0.09818507 -0.05766828 -0.19957304 0.14709747 -0.12369997 0.23328154 0.09017745 -0.37521565 0.023948379 0.026836086 0.08298446 -0.045237288 -0.08872615 0.11570308 -0.029864514 -0.013413896 -0.17568853 0.09476497 -0.09125377 -0.09967469 -0.432612 -0.11248474 -0.00056005927
-0.030775134 0.07263917 -0.12369956 0.14818493 -0.063969344 0.0173047 0.20177202 0.013645049 -0.14845642 -0.014314668 -0.046799257 0.055459652 -0.10176745 -0.033174954 0.08287659 -0.042221498 -0.10779323 0.041909866 0.13482548 -0.1612568 0.12245004 0.05519878 -0.0072936714 0.15604119 0.14345995 0.081157126 0.030742792 -0.045438994 0.033930887 -0.0824449 0.086120605 -0.099193595
-0.00334059 0.21351406 -0.053755958 0.15590641 0.059878737 -0.28366882 0.13863134 0.32733592 -0.33292493 0.19793537 -0.07343591 0.1871717 -0.18460281 -0.16905348 0.069338106 0.34279355 -0.25849974 0.18058322 0.03843678 -0.14769408 -0.2658403 0.27189705 0.025033437 0.274981 -0.15369208 0.06482148 0.25273043 -0.00077408657 -0.18339898 0.3268553 0.051066656 0.22692011
-0.19757876 0.34951985 -0.051415265 0.111272 0.054240763 -0.10425742 0.25677773 0.23396118 -0.37198654 0.05816602 -0.19336197 0.2640066 0.08577029 -0.46060616 0.006872955 0.21604382 -0.12021403 0.3104843 0.40746275 0.13302384 -0.25855854 0.6397054 -0.06890146 0.67380816 0.032830697 0.19023198 0.4147998 0.29277283 -0.3624503 0.38855344 -0.38524893 0.12599425
-0.025179887 -0.24142013 -0.1857256 0.097077355 -0.0054821223 0.014011207 -0.15284625 -0.23545058 -0.03238978 -0.082162045 0.14037968 -0.15277945 -0.067835055 0.055394653 -0.12096909 0.056208998 -0.15335897 -0.25711656 -0.03937369 0.04000357 0.2025597 -0.35860676 -0.14810053 0.05974681 -0.110717006 -0.03887511 -0.03188703 -0.1758084 0.15035391 -0.39355296 -0.28101435 -0.016113522
0.3228556 -0.22399385 -0.15851545 -0.18750875 -0.0051960647 -0.010344452 -0.20494758 -0.26585758 0.2751074 -0.10060363 0.3157818 -0.3154792 -0.29224294 0.2746543 -0.1705211 -0.082082614 0.16946752 -0.025890224 -0.21758373 0.116642535 0.33400303 -0.0936844 0.1387842 -0.39632773 -0.039679274 -0.21889038 -0.12266983 -0.2793056 0.10696928 -0.07650344 0.07703439 0.043911207
0.09792701 0.084908634 0.14048186 -0.08312759 -0.04961782 0.05500872 0.20310098 0.13199346 0.02424688 0.18848069 -0.06384042 0.06938236 0.2418274 -0.15698223 0.14113776 0.046028644 -0.1579204 0.015133457 -0.0039471565 0.1531534 -0.15307063 0.055085756 -0.09882267 0.023304636 0.14080915 -0.09213531 -0.004090344 0.242902 -0.31891495 0.05522852 0.18734159 -0.02933544
-0.083504125 0.40409553 0.028129412 0.32570872 0.018361576 -0.44933596 0.3807584 0.6350261 -0.32204792 0.22629109 -0.54384977 0.2813301 0.0034282769 -0.48270562 0.31289372 0.13139772 -0.0035005973 0.31614947 0.31857237 0.15719396 -0.3459996 0.60054773 -0.0995349 0.5474494 -0.09705186 -0.042869 0.45283872 0.17044625 -0.6378001 0.62353176 -0.28438646 0.28615576
0.1079849 -0.078140266 0.04520671 -0.15888315 -0.1330153 -0.026028676 -0.09074789 -0.19339186 0.20491038 -0.21721281 0.16282606 -0.0790837 -0.22474909 0.15990995 -0.095327765 -0.21922716 0.15923898 -0.15091524 -0.11522926 -0.10946048 -0.29501477 -0.107621595 -0.13919954 -0.24303441 0.044945758 -0.2722803 -0.010319417 -0.14241323 -0.104447424 -0.17677599 0.3088088 -0.007579281
0.12239527 0.017401932 0.09705663 0.09439049 -0.17001145 0.069567874 0.05959961 0.2010273 -0.1222327 0.03458721 -0.15531139 0.030476315 0.0076379795 -0.017435951 -0.12187268 -0.01757649 0.05562978 -0.0032079953 0.13272792 -0.032636087 -0.4942212 0.22769566 -0.111998245 -0.1255672 -0.17564191 0.061531767 -0.08938778 0.12854837 0.026096774 -0.09439523 -0.03959467 0.089207724
-0.31184968 0.23418984 -0.17195536 0.14069383 0.1341261 -0.09171917 0.2659924 -0.020203112 -0.37136936 0.31356436 -0.25342843 0.3115706 0.07197835 -0.28874838 0.30888814 0.46051273 -0.34743363 0.16904542 0.2836295 -0.16170833 -0.52642196 0.22611089 0.10906851 0.10385743 0.11601222 0.30562407 0.107713215 0.3421308 -0.22023839 -0.5209382 0.27896032 0.37596297
-0.25124183 0.03523497 0.079492725 -0.013797833 -0.0064564203 -0.08371481 -0.108368985 0.010828547 -0.13374439 -0.13590083 -0.06177353 -0.050585072 -0.089535885 -0.024674822 -0.05853888 0.11102287 0.075183816 -0.10745882 0.106821276 -0.117884755 0.04329731 0.10663454 -0.007993815 -0.11221851 0.02279224 0.0995494 0.22603326 0.07929803 0.17940138 -0.038231675 0.047986552 0.018122032
-0.05188537 0.1010703 0.12050686 -0.22007337 -0.15921012 -0.08187005 0.052548546 0.09053268 0.020309912 0.020040216 0.001800435 -0.071667105 -0.010453143 0.08126625 0.13049218 0.016896239 0.14454666 -0.10194189 -0.1534827 -0.083693214 -0.06921565 -0.21862414 0.07369577 -0.07495271 0.096088305 0.1297465 -0.15102066 -0.1764339 -0.06815702 0.12880807 -0.0005250512 -0.028900495
-0.10356189 -0.022364287 0.04602296 -0.18943122 -0.09430003 -0.047732808 -0.033526387 -0.16054055 0.03706758 0.111535154 -0.04110507 -0.19093828 0.21153054 0.027214548 0.022506237 -0.10325472 0.06760463 -0.23216236 0.0880666 0.075802945 0.0812642 -0.25707743 0.077553034 0.024018217 0.013160086 0.07478269 -0.03197589 0.09641306 0.15971148 -0.33291134 -0.6076069 -0.01389979
0.101094924 0.1179454 -0.08354061 -0.12050229 0.09953301 0.13187483 -0.16414796 -0.29714423 0.09067285 0.016702875 -0.051903125 0.012173043 -0.2742456 0.15014334 0.10440232 -0.2319794 0.062869295 -0.026994493 -0.09137561 -0.1288411 0.16317056 0.09480901 -0.065657854 -0.22453313 0.11434259 -0.014263774 0.04285854 0.021877144 0.14369585 -0.19572252 0.047229048 0.0818367
0.16085425 0.07522948 0.14160167 -0.1768053 -0.08884127 0.07326245 0.30037484 -0.040057957 0.081441775 0.13260613 0.014255103 -0.054730352 0.0013689672 -0.1066639 0.06405282 0.06135773 0.0710756 0.002005351 -0.014626638 0.021870552 0.20990922 -0.07680503 -0.053608205 0.026128637 -0.16189864 0.058559917 0.1314163 0.1720085 0.0009116478 -0.14517607 0.121372595 0.20636408
-0.2540226 0.17427464 -0.08007008 -0.06928621 0.071644746 -0.069943555 0.02589138 -0.047285605 0.18394153 0.0727288 -0.06654158 -0.10757445 0.08564775 -0.009802773 0.03749042 0.13418657 -0.15994048 -0.20210363 -0.017729823 0.012976747 0.12067872 -0.031130852 -0.08103874 -0.11581323 0.110710256 -0.12789446 -0.09579401 -0.13281329 -0.0062297676 0.032347724 -0.05560373 0.03994
-0.10635862 0.062997796 0.035136826 0.10951171 -0.13203208 0.07237317 0.1608623 0.10313756 0.030676905 -0.08942757 0.05505886 0.1234948 0.05872638 -0.009763204 -0.03435385 0.014253732 -0.14725076 0.11479171 -0.029658355 0.05949555 -0.15071249 0.050649066 -0.022765055 0.22121637 0.043578144 0.013382351 0.16305125 0.2167231 -0.070661135 -0.04217723 -0.13834684 -0.08043144
-0.14832804 0.22021283 0.032131173 0.012759929 -0.11590508 0.039038017 0.19304316 -0.017650533 0.12346639 0.0539344 0.02082372 -0.064391166 0.24081792 -0.0035902325 -0.060441144 0.122332364 0.09854729 0.07263898 0.1662869 -0.060766563 -0.064613566 0.057821874 -0.046561226 0.07231529 -0.073127545 0.043987665 -0.08476743 -0.0043790345 -0.18334708 -0.017381223 0.24882203 -0.022671688
0.10352484 0.2448993 -0.14143392 0.033321615 -0.060569033 -0.08494139 0.12598704 -0.09659002 0.025965312 0.17199302 -0.0872748 -0.07703692 0.07741561 0.035550762 -0.047949634 0.17986524 0.0704651 0.11982595 0.19369467 0.063906096 0.15274657 0.06326287 -0.16081944 -0.080290556 -0.04533046 0.26242468 0.18092377 -0.08904317 -0.16820435 0.04882827 0.00061931484 0.07953302
-0.5492141 -0.17325635 0.00042589777 -0.011457352 -0.014529133 -0.3117235 -0.11775638 -0.14318804 0.1680941 -0.24514894 -0.2495297 -0.17740238 0.12844844 -0.035567913 -0.070300005 -0.022422595 0.1721711 -0.10695436 -0.23850416 0.1229133 -0.40108773 -0.34812543 0.02758601 0.122823365 0.015716825 -0.14154412 -0.2562348 -0.14691396 -0.26063427 0.33731222 0.0793347 -0.26248112
-0.069585234 -0.035966285 -0.12847584 0.10651044 -0.0945592 -0.08224877 0.18931244 0.14752205 0.0366703 -0.0055722315 -0.15669098 -0.025623856 0.011693277 -0.197287 0.17131631 0.10049986 0.002097103 0.046080224 0.05486766 -0.040022224 -0.13491647 0.20089537 0.00337563 0.3456101 0.0049356897 0.0698869 0.08721218 -0.0031195094 -0.16408648 -0.01014435 0.3651903 0.05494206
0.13906606 0.12766029 -0.063908406 -0.08577293 -0.12697256 0.07826557 0.19576259 -0.02342186 -0.02008087 0.17813048 0.1508588 0.11343965 -0.18426962 0.14180343 0.078502856 -0.10459143 -0.08591484 -0.038158275 0.02519204 -0.056926522 -0.029662743 0.18908882 -0.08458818 -0.22246848 0.09476076 0.054909915 0.07825904 0.11833004 -0.028552748 0.11471081 -0.18588579 0.1344764
-0.0025192574 0.021495555 0.0014605097 -0.020608407 -0.035729386 0.1760786 0.022830436 0.12756652 0.17741707 -0.16069877 0.0232467 0.11873972 0.004689232 0.14391175 -0.20039958 0.12801348 0.08799155 -0.17682105 -0.14043437 -0.16276158 0.27078164 0.05424254 0.047054216 -0.06756246 -0.15194026 -0.10410596 -0.011430152 -0.026778704 -0.14072782 0.06983859 -0.05989951 0.13076262
0.23177472 -0.12956284 0.05008185 0.047169626 -0.08518548 0.12797993 -0.0610641 -0.12289822 0.20618118 -0.15813845 0.16764253 -0.0978352 -0.1376235 -0.049554303 0.0940678 -0.18088655 -0.11311633 0.099555634 0.049238432 0.1089584 0.016117048 0.053131554 0.04035725 -0.037040874 -0.011424793 -0.09543942 0.0661071 -0.081460446 0.08561493 0.03222501 -0.012384128 0.07399812
0.08827871 0.09979375 -0.1760955 0.10251831 -0.00036634505 0.06740943 0.06927651 -0.07836083 0.004171895 -0.008842983 0.07274527 0.09136514 -0.168781 -0.04585093 -0.06964812 0.15621507 -0.11608458 0.017118866 -0.019627562 0.019146824 -0.018070735 -0.029345613 -0.17714171 -0.14349158 0.044652876 -0.049957354 -0.14618655 -0.14784071 0.05064367 0.28490174 0.122151636 -0.030642666
0.22135058 -0.06755033 -0.040038984 0.02007149 -0.06621692 0.04236742 0.018550754 0.020631548 0.008357506 -0.062250625 -0.26190135 -0.07055985 0.17596158 0.06873252 0.038954563 -0.107328705 -0.17448191 -0.057397526 0.12471298 0.088198535 0.35372388 -0.15856937 -0.11731732 -0.023428595 -0.0714793 -0.085761674 0.012089464 0.16062514 0.0958998 -0.14839557 -0.3256856 0.14513326
-0.0109414235 0.123426 0.07430666 0.16654962 -0.050911684 -0.0006260152 0.014361302 0.1847032 0.0024078821 -0.020012688 -0.1906426 0.030763537 -0.058806792 -0.20112652 -0.085165285 0.08316353 0.20200688 0.117814586 -0.15112029 0.03274701 -0.044679966 0.018832158 0.14545779 0.10611 0.070832044 0.16165748 -0.10971537 0.1106924 -0.11875953 -0.028975187 0.36381528 0.016243827
-0.024490517 0.16976014 0.13062057 -0.015823718 -0.00929785 -0.07162844 0.034654494 -0.09070789 -0.09767417 -0.1002192 -0.11973631 -0.07544574 0.0875274 -0.086058855 0.006248721 0.018560495 0.17388687 0.16664402 -0.13974787 -0.07727516 -0.41652057 -0.08020286 -0.14554696 0.2244569 -0.0052983733 0.1429561 -0.12510559 -0.09635131 0.015077934 -0.12576284 0.3726526 0.096381016
-0.39383835 0.08059762 -0.1499763 0.14585945 -0.118868604 -0.057001907 0.3929001 0.05880494 0.07935138 0.06278392 -0.117106065 0.13698007 0.12969777 -0.105125144 0.24174196 -0.13281697 -0.22050282 0.064822756 0.025216559 -0.00086776156 -0.09547383 0.3030929 -0.14237727 -0.10348352 -0.17566766 -0.112600386 0.12460095 0.20187674 0.024899533 0.04455323 -0.5307405 0.19862452
-0.17439915 0.20317692 0.06466532 -0.00029172524 -0.043192096 -0.27443594 0.22607626 0.2782086 -0.03617948 0.3595234 -0.29631943 -0.0038718 0.16103284 -0.18041945 0.22696157 0.36137488 -0.34098992 0.05497071 0.14986075 0.095208585 0.044863205 0.025804568 0.021681514 0.07604277 0.020603402 0.14090738 0.0641255 0.34012017 -0.18067929 0.31859794 0.08729284 0.068190545
0.20652671 0.033654224 0.09951142 -0.022235839 -0.15516773 0.00024487553 0.20868298 0.13449402 -0.045590334 -0.08197752 0.14034109 -0.19158907 0.07232885 0.072973825 0.034888156 -0.207934 -0.10382712 0.0345828 -0.10687998 -0.12602279 -0.013029829 0.111525714 -0.06879726 -0.16016173 0.05552013 0.09561631 0.10631894 -0.20103551 0.14503424 0.2017879 0.14915234 -0.13663122
-0.0064112097 -0.117609225 -0.17597549 0.06964884 -0.10319151 -0.09841497 0.022235228 -0.06995341 -0.0679869 -0.20139308 -0.06725388 0.17810467 -0.15673825 0.12785742 0.068491474 -0.12358584 -0.20764314 -0.08801628 0.08168796 0.08019642 0.20808835 0.1634464 0.020551931 0.122986056 -0.15411417 0.05077655 -0.04995199 -0.111120954 -0.11827718 0.35826376 -0.02928714 0.165615
-0.026192771 0.15126625 0.045980424 -0.15651333 -0.1512457 -0.20161016 -0.08340688 -0.17067775 0.033222914 -0.21610215 0.24338852 -0.19587265 -0.03913158 0.2650208 -0.28478822 -0.1750126 0.0786016 -0.16120094 -0.28502995 -0.08700269 -0.15664783 -0.12312271 -0.010547146 -0.10450212 0.11479036 -0.18625462 -0.11684002 -0.08747103 0.16214143 -0.19482598 -0.008977843 -0.04740039
0.073629975 -0.16702692 -0.006611651 0.06876673 -0.091437325 -0.11754998 -0.030118516 0.046572775 0.04947422 0.10270408 -0.07911693 0.07785603 0.15582617 0.007518005 -0.20582783 -0.21675634 0.22209887 -0.10916085 0.123485014 -0.0989645 -0.17714655 0.03125358 0.10234017 -0.11672216 0.0076707564 -0.03688444 0.14611876 0.10545306 -0.033142943 -0.23131129 0.22828577 0.078618675
0.14279486 -0.10774238 -0.16188875 -0.13170189 -0.036914956 -0.098604485 -0.003714724 -0.07847514 0.100036606 -0.15433063 -0.08049752 -0.10032249 -0.1529692 0.08195299 0.006531692 -0.14066851 0.14347583 -0.0786387 -0.15074328 0.104237616 0.24843965 -0.16193317 0.0008297735 -0.032437827 0.09656684 -0.10138332 0.042187035 -0.11751837 0.08420471 -0.20793207 -0.041169904 -0.19183786
0.31612006 0.0012609535 0.096207745 -0.26514775 0.1509167 0.30188793 0.18731774 -0.12805597 0.20728779 -0.0686531 0.22389708 -0.25773874 0.07654824 0.27152738 -0.15267932 -0.16755682 -0.03460545 -0.27994984 -0.044677675 -0.0028212732 0.06948853 -0.2112604 0.019993875 -0.025493108 -0.12431768 -0.22032131 -0.12944733 -0.013990675 0.21527046 0.20755515 0.027036611 -0.2083186
-0.17657869 0.2215833 -0.1771606 0.054467555 -0.1700188 -0.10365759 0.15450352 -0.04214427 0.004457222 0.21655175 -0.058860876 0.16934937 0.37073287 -0.188196 0.044017565 0.017348863 0.09252888 0.16236848 0.16768098 0.04774272 -0.15055895 -0.068485655 0.04063586 0.28627193 -0.050569225 0.03785847 0.15051708 0.29514325 -0.24988438 0.13299033 0.1089376 0.22325855
0.049161747 -0.021495298 -0.110202946 -0.10475894 0.09356735 -0.029633792 0.20961955 0.004495969 -0.09243569 0.22331847 0.06387425 -0.06714202 -0.10476077 -0.13180809 0.21377368 0.14587346 -0.05037633 0.043614388 -0.030824404 0.1488303 0.026973994 0.2517969 -0.11834287 -0.047042657 0.0028863451 0.07061593 0.1544245 -0.025633298 -0.043622695 -0.28393713 0.15136227 0.10717632
-0.1025791 0.009703488 -0.060785428 0.22895136 0.13008031 -0.06518118 0.20307316 -0.029609112 -0.10272724 -0.043576747 -0.020175258 0.12214208 0.07769101 -0.1900452 0.20606644 0.026299369 0.040023107 0.264569 0.21096101 -0.061351124 -0.19250983 0.16840492 0.13994135 0.3634075 -0.09429403 0.03688015 0.2783962 0.21192692 -0.25959796 -0.08169202 0.030998694 0.12208211
-0.10132326 0.11366898 0.03411702 0.036358215 -0.045519568 0.10042085 -0.056759227 -0.1942926 0.17234525 -0.088322245 -0.043033995 0.020557752 0.20708345 0.043827146 0.11752202 -0.10251266 -0.06794437 0.048093356 0.04421678 -0.03272699 -0.06342885 -0.0691832 -0.12147286 -0.098728634 -0.16395426 0.054827545 0.020128584 0.16140099 0.14059317 -0.1603233 0.23624425 -0.11014901
0.021495914 0.10259089 0.009140496 0.045892846 -0.1734565 0.010319175 0.044721697 -0.08208747 0.13121329 -0.027222576 -0.13382895 0.020135479 -0.05454777 -0.0637839 0.18289328 -0.019304356 0.042326253 -0.021163927 -0.027219636 0.0042695664 -0.27798134 0.13797358 -0.1542112 0.12881695 0.03858426 -0.038043268 0.038472757 0.20876946 -0.17565863 -0.051153775 -0.008307986 0.091442555
0.09043148 -0.09163672 -0.04796771 -0.08233572 -0.15100002 0.19032343 -0.10145271 -0.06318771 0.14508688 0.0116968285 0.047171466 0.2528295 0.010287977 -0.10939376 0.05038145 0.07672337 0.10168 -0.27503145 -0.122510195 -0.0026883616 0.11342175 -0.155381 0.13177611 0.189505 -0.17762612 -0.09744641 0.14985777 0.109026834 -0.0405377 -0.15242155 0.1374316 -0.06613039
0.16004778 0.07656115 -0.1271982 0.14788699 -0.045774255 -0.05892428 0.041719317 -0.033256795 -0.04836272 0.10067753 0.19267115 -0.18955429 -0.15885404 -0.059519414 -0.15696776 0.05911162 0.123642236 0.10909038 -0.10335484 -0.024998754 0.30579004 0.16543531 0.110252544 0.11541954 -0.046278734 0.07932592 0.09555987 0.01102648 0.112646915 0.17501459 -0.24592642 -0.13443707
0.15137097 0.17136085 0.105891414 -0.049864627 0.08347217 -0.06406426 0.12035237 0.20351213 0.05467758 -0.027372155 0.13223073 0.076872975 0.024224393 -0.042739134 -0.099897414 -0.16890538 0.13125716 0.025327072 -0.15750234 0.030123375 -0.16833544 0.014873217 -0.13031648 -0.12755339 -0.042683262 -0.13788462 -0.0043553356 -0.011913913 -0.065149695 0.1314817 0.13722171 0.060725532
-0.16477887 0.29661542 0.12731685 0.121065564 0.16029331 -0.3785291 0.3494819 0.41658166 -0.21137083 0.09933524 -0.23720972 0.30330393 -0.12855826 -0.1971636 0.25432855 0.173523 -0.12928459 0.030056948 0.31127536 -0.10244099 -0.45761538 0.35651746 0.026058372 0.29774308 0.092258416 0.24048668 0.01934859 0.10526632 -0.15570682 -0.25557053 -0.057569407 0.40575176
0.0015357089 0.14697215 -0.08667013 -0.04412746 -0.056087323 -0.19950978 0.040524773 0.1792464 -0.16310348 -0.12108009 -0.031594057 -0.0044148047 -0.06442968 -0.16917849 0.10799701 0.052260134 -0.012065705 0.14519674 0.124977864 -0.1357642 0.039344624 0.0060425946 0.032603778 0.2612143 0.059573587 -0.12091018 -0.17240565 -0.07130475 0.13982484 0.16478954 -0.09311977 -0.08125458
-0.084732614 0.059511602 0.12356888 -0.12945434 0.079687774 0.043763913 0.0028742012 0.054235976 -0.10110145 0.0033000312 0.013000377 -0.038846508 -0.08672393 -0.031159699 0.01808048 -0.09027708 -0.09834163 -0.053088292 -0.071946174 0.028429383 0.0032749854 0.16365628 0.13007423 0.049716324 0.10962746 0.06725706 0.15867153 0.08156739 -0.06891556 -0.18936016 -0.24194609 0.096995234
0.21931578 -0.05191211 -0.16688518 0.02460318 -0.00039296015 -0.107989214 -0.04817201 0.09233339 0.14726695 0.004229612 -0.040909156 -0.020959642 -0.0033096331 0.133088 -0.09069411 0.006929894 -0.076119445 0.23698366 -0.09231717 -0.109722786 0.11257275 0.03409172 -0.1580065 0.08094787 -0.025462441 0.033238247 -0.10128338 0.1561811 -0.07860217 0.17969993 -0.15378378 0.047112707
-0.021670662 -0.05942208 -0.030011078 -0.20939516 -0.07597356 0.099852316 0.122258574 -0.1405367 -0.050380666 -0.14279266 0.15823492 -0.28788754 -0.09215805 0.05743109 -0.09141669 -0.083321616 0.13670285 -0.11915128 0.04387197 -0.048356738 0.22379085 0.06476992 -0.08356665 -0.074265584 -0.08958422 -0.12004223 -0.083818845 -0.12727664 0.19628495 0.30840668 -0.108569935 0.06419132
0.19852301 -0.096836254 -0.035128064 0.07102623 -0.14399688 0.14045106 -0.007583504 0.19352846 -0.11175226 -0.03881597 -0.029812513 -0.017837578 0.15816171 -0.060449187 -0.07243443 0.09218043 -0.14145985 -0.25673148 -0.06051616 0.10984006 0.14709724 0.20399462 0.057061613 -0.01725688 -0.13002257 -0.07018812 -0.17183931 -0.03326943 0.13892587 -0.037471615 0.23847735 -0.07822823
0.081639595 -0.04047861 0.08717481 -0.09933137 -0.10730812 0.047906782 -0.21325967 -0.09672641 0.20772398 0.056556355 0.091030024 -0.23092341 -0.18503949 0.013429021 0.015289053 -0.01272264 0.016763195 -0.13538174 -0.0015508791 0.07925878 -0.15572631 -0.08626048 -0.019621525 -0.2736362 -0.032491364 -0.04853618 -0.13488339 -0.11766776 0.15343177 -0.23869179 0.37031326 -0.054500904
-0.0631039 -0.11636441 -0.023617351 -0.19152209 0.029443804 -0.14916986 -0.06948024 -0.21233635 0.08459527 0.07533177 0.038598746 -0.055702236 0.22814992 0.11705291 -0.03593806 0.011781666 0.10428515 -0.08302561 -0.18689829 -0.017588628 -0.023867164 -0.20972244 0.13013949 -0.06355355 -0.14793293 -0.046701353 -0.06610613 0.045751058 0.08776753 0.03957538 -0.0914762 -0.120356925
-0.08019207 -0.03022979 -0.024303585 0.1302425 0.02308225 -0.13284051 -0.01632495 0.09871035 0.1534494 0.010598979 0.07461323 0.15798217 -0.0251744 -0.00086813216 -0.0073388014 0.04346038 0.02042753 -0.14430529 0.043047976 -0.15945795 -0.09006255 0.020790653 0.10447126 -0.04829939 -0.004631039 0.1615285 -0.081790745 -0.038437046 0.048926953 0.059147302 -0.10772534 -0.015204966
0.05705518 -0.16333102 -0.09859634 -0.107966 -0.15586896 0.0048970035 -0.10730385 -0.16942738 0.14846338 -0.15529324 0.17268279 -0.18476224 -0.02949657 -0.108437665 0.14270078 -0.037516292 -0.14548542 -0.02162954 -0.14201117 -0.086859204 0.08122868 -0.008385159 0.099021725 -0.11428208 -0.13260703 0.006439092 -0.094395585 -0.019100042 -0.13465011 0.018922126 -0.07798168 -0.12419676
-0.07411401 0.043555897 -0.073900364 -0.1478441 0.042492934 -0.09364545 0.045964297 -0.061915834 -0.03216514 0.100848325 -0.20870522 -0.031198885 -0.03162503 -0.028136712 0.013843226 0.23388866 -0.2680363 0.22074911 0.23053455 0.14852817 0.012225198 -0.1925346 0.074772485 -0.11883463 -0.08882606 0.123468496 0.09535518 0.1645564 -0.18085933 -0.05621907 -0.15287757 0.15563291
-0.21460715 0.06954067 -0.02937137 0.021726143 -0.05623087 0.00085836556 0.15279715 0.027285667 -0.14778948 0.17125958 -0.0917724 0.07818867 0.07237654 -0.11401664 0.21864405 0.2511331 -0.1667295 0.11340031 0.123480916 -0.13741037 -0.15053542 -0.1968515 -0.0045748167 0.15711838 0.11375324 0.10711422 0.045646604 0.18893375 -0.13987318 -0.30639556 0.16623358 -0.052554138
-0.2340293 0.2195985 -0.19270864 -0.052194413 -0.03901608 -0.1605586 -0.075290516 -0.17602324 0.029983988 0.14305079 -0.24237347 -0.04959044 0.010577076 -0.01661119 0.029484158 0.09678781 -0.1301105 0.1590626 0.1682228 -0.09533956 -0.08615568 -0.11098723 0.14962149 -0.07431003 -0.04706172 0.114883125 -0.0035571463 0.11662287 0.00430556 -0.006228639 0.10849995 -0.011802949
0.25708738 -0.025016746 0.14051059 -0.05201956 0.051215753 0.10282246 0.058808222 0.26084226 0.14070196 -0.066045165 -0.07103177 -0.09166375 0.014689344 0.14664783 -0.17063491 -0.27822644 0.070195794 -0.10674881 0.021156859 0.15707237 -0.07372701 0.19413342 -0.05174673 0.039908778 0.05439833 -0.17427035 -0.06116903 -0.081358515 0.25791615 0.09251745 -0.051370777 -0.14908862
0.1338326 0.26036853 0.12656282 0.06495845 -0.05186462 -0.0028459309 -0.10494911 0.03558534 0.1325223 -0.11091188 -0.08489608 -0.018806199 0.10808589 0.05168323 0.1648381 0.21628924 0.043679226 0.20878853 0.18098633 0.096711054 0.14155532 -0.07509854 -0.16101633 0.06564228 -0.18378748 0.13396634 0.0199582 -0.020737026 0.08899337 -0.16824688 -0.067570016 0.20449437
0.16448554 0.0900078 -0.036078993 0.1526855 -0.18557312 -0.09026701 0.07493149 0.24185817 0.14935087 0.043539412 -0.03654296 0.20994863 -0.033230048 0.13173656 0.1618248 0.03224195 0.023202073 -0.13911287 0.2039879 -0.051763676 -0.15441245 -0.086811036 -0.16955784 0.009193277 -0.14855623 0.0623755 -0.12395043 -0.06471953 0.012020016 0.23247017 -0.08500516 -0.13074696
-0.1395361 -0.093633026 0.07990898 0.0450361 0.07944094 -0.18735571 -0.14283219 0.046164695 0.08240153 0.1797698 -0.0076765274 -0.09101439 -0.10654341 0.02123311 0.12282115 -0.006808344 -0.07489746 -0.02613155 0.18464772 -0.02246047 -0.37925425 -0.020599116 0.062766716 0.10454609 0.008649391 -0.016490623 -0.025283268 -0.12965128 -0.029321468 -0.18064478 -0.10403398 -0.010613898
0.04922606 -0.10610357 -0.12671551 -0.03615336 -0.11755271 -0.1496792 -0.21380475 0.22926308 -0.007682262 0.04286664 0.12303771 -0.008527175 0.21543908 0.07311983 -0.077762336 0.18987453 -0.09736832 0.15851618 0.10932077 -0.08119137 -0.007390535 0.028611515 -0.002429831 0.26230174 -0.16560084 0.0901104 0.1771258 0.023150254 0.048318565 0.04805141 -0.19143398 0.2092746
-0.09311882 -0.078340106 -0.16919278 -0.1348997 0.047909502 0.09629158 -0.06794223 -0.08087065 -0.017605422 0.013974734 0.039279852 0.038280576 -0.052529696 0.16924775 -0.04637491 0.13025807 -0.09567294 0.04619957 -0.005467176 -0.16609965 -0.058785755 -0.022682268 -0.060126647 -0.022875872 -0.030592676 -0.0014297769 0.011443164 -0.057221025 -0.0009781093 -0.25021443 -0.05190567 0.08826536
-0.019370718 0.020084908 -0.032965887 0.05480116 0.0034217068 0.14165132 -0.028990226 0.07085385 -0.06009592 0.09061552 0.03520477 0.05285472 0.012390899 0.08258418 -0.10546897 0.03138752 -0.015913557 0.15816687 0.017223908 -0.123918556 0.10404608 -0.16564478 -0.11826954 0.1672632 -0.046698455 0.13860616 -0.03214593 0.15106712 -0.045128733 -0.23574208 -0.22201739 -0.14805673
0.004391698 -0.18665871 0.13113087 0.040323175 0.07219419 0.115631305 0.050084 0.004945947 -0.02645587 -0.056361705 -0.08724222 -0.017809598 -0.19738571 -0.002613913 -0.010881346 0.13843937 0.17184412 0.07467373 -0.111416005 -0.016729027 -0.089064956 -0.25893056 -0.14052393 -0.052054983 0.14494494 -0.18638988 -0.13959168 -0.12758048 0.18716064 0.05134644 -0.050124705 0.010443259
0.27644384 0.031690054 0.021116605 0.08541107 0.15010592 0.18516749 -0.03898555 0.15614803 0.14431968 -0.0006525948 0.26111603 0.0046547335 0.02546694 0.2423925 -0.14773154 -0.3589591 0.17233819 -0.11583956 -0.12479224 -0.086466864 0.013383718 0.14092584 -0.08430515 -0.042043492 0.065900765 -0.10554913 -0.13870353 0.09696821 0.0691065 0.08886589 0.19554362 -0.26466355
0.14126708 -0.1633134 -0.09019067 -0.11864153 0.060870215 0.19976933 -0.099992864 0.10494634 0.1340971 -0.17910817 0.15282261 -0.06445944 0.11654788 -0.02229834 0.10311369 -0.21146266 -0.14422432 0.0139811095 -0.042399246 0.1472313 0.26471815 0.05522401 -0.17428914 -0.07268072 -0.15418328 -0.12629604 -0.19085085 -0.14821908 0.008595032 0.07953591 -0.13160649 -0.23076583
0.25110537 0.058653492 0.061570678 0.011231186 -0.0723013 0.10247605 0.20618983 0.06609984 -0.12872623 0.105161645 0.038169194 0.14808303 0.089412525 0.023212248 0.02400397 -0.14984289 0.026353648 0.13896416 -0.12309837 0.0722114 0.08133421 -0.050602492 0.16486415 -0.01506545 -0.108631134 0.13045952 -0.018250514 -0.05676074 0.2569193 -0.17917229 -0.27098718 0.033728074
0.10618772 0.050397605 0.03541917 -0.023855364 0.05382781 0.114583336 -0.18886219 0.10207323 -0.031524334 0.056268953 0.17521258 -0.11796579 -0.03629732 -0.072862715 -0.1393052 0.017094906 -0.033516742 -0.082862146 0.096798874 0.15185519 -0.011421414 0.04744316 -0.10260794 -0.11293485 -0.027809765 -0.18692514 0.15287621 0.056908123 0.104024656 -0.15402621 -0.0022064354 -0.1585918
0.22505975 -0.12456706 -0.13853063 0.054937385 0.0044997768 0.16605006 -0.07504023 0.055668462 0.05203942 -0.0025974235 0.1991478 0.05306823 -0.07710005 0.20715454 -0.04653349 0.058778338 -0.020897344 0.12422743 -0.028965348 -0.040001053 0.100225314 0.015064263 -0.08426547 -0.031095535 -0.17761518 0.10165501 -0.06518811 -0.022519194 0.14636968 -0.033022936 -0.23867738 -0.074382946
-0.00023005116 0.19857801 0.05654111 -0.10859349 -0.18587533 0.035834577 0.06844576 0.00598589 0.0935896 0.0876209 0.16717513 0.036535 0.08103953 -0.036971413 0.091559 0.038166504 0.09189344 0.12674439 0.08179853 -0.13866785 0.10296013 0.028088946 -0.058908403 -0.054312494 -0.19422784 -0.12012948 0.12172347 0.023306612 0.018396495 -0.14081445 -0.017253002 0.022987375
0.05869442 0.19271399 -0.10455236 -0.09458206 -0.09247896 0.053259883 0.10018766 -0.03151659 -0.07495751 0.21997581 -0.09650237 0.10106264 -0.038094357 -0.044908147 0.100320995 -0.012465455 -0.022460353 0.05539102 0.13906127 -0.12662907 -0.33464423 0.010192268 -0.17785214 -0.10410901 0.09273444 -0.043870706 0.07507709 0.120018564 -0.16570751 -0.1353856 -0.28759465 0.22302367
-0.18996653 0.20035636 0.109584816 0.16192347 0.038194764 0.015040418 0.13182288 0.14642905 -0.09991504 0.1542122 0.06421229 -0.03762763 -0.08153682 0.1236585 0.14714794 0.18684892 0.110669404 0.023430025 0.16304284 0.13234538 -0.15206626 -0.013291828 0.09373042 -0.0007827728 -0.14200988 -0.14469932 -0.08449349 -0.04645192 -0.101390004 -0.0016168932 0.20367052 -0.12666477
0.14606422 -0.24699752 -0.053744037 0.09048933 -0.006634757 0.24897833 -0.28073305 0.16390854 0.080083 -0.11804325 0.22032048 -0.0094243325 -0.11631745 0.19839859 0.063705795 -0.15069695 -0.12962227 -0.07638761 -0.1323725 0.04611492 0.27315277 0.10256771 -0.13923836 0.0014389647 -0.14371297 -0.1914937 -0.22816615 -0.16552973 0.16773961 -0.04137224 0.019938838 -0.1597872
0.09445411 0.07953711 0.066032484 0.04691586 0.071048796 -0.03581539 0.21745619 -0.14446743 -0.03479683 -0.039845936 0.08236406 -0.088560425 0.0066863876 -0.012932306 0.0700959 0.020563597 -0.12576541 0.032269537 0.12636171 -0.14803678 -0.14719364 0.1917445 -0.056530286 0.044812296 0.05875427 -0.10043605 0.23218147 0.21962695 0.091674864 -0.1943832 -0.2305774 0.091399305
0.047434554 -0.04942208 0.09151032 -0.01261279 -0.14707756 -0.06488739 0.023995152 -0.0173091 -0.07567841 -0.036210272 0.10985953 0.13362415 0.20425372 -0.16786167 -0.01788206 -0.09166595 0.049705572 -0.05836171 0.08086987 -0.15829961 0.2744703 -0.07812906 -0.08915509 0.07576358 0.023826664 0.1899757 0.11456742 0.15570325 -0.12355013 -0.028239556 -0.09816708 -0.036210123
0.2948137 -0.12032847 0.13081342 -0.12002678 -0.122193605 0.13614069 -0.15004693 -0.07440019 0.11949331 -0.10755876 0.062007777 -0.31353423 -0.033374257 0.26059848 -0.26533502 -0.0061546247 0.24437718 -0.1834387 -0.06422663 -0.04766096 0.009910064 -0.08138955 0.05468878 -0.09789901 -0.16751395 -0.16657354 -0.12010518 0.014049306 0.12793556 -0.22802414 -0.16964178 -0.032645542
0.07911711 0.121587336 0.019544242 0.15621795 -0.038273092 0.012450129 0.069640346 0.24880183 0.060036596 -0.013968505 -0.033058316 0.13997431 -0.034193434 0.12558685 0.004660919 0.0613974 -0.14134392 0.16537775 -0.13857199 -0.12183309 0.105020605 0.10648211 -0.112631954 0.13120721 0.015401436 0.06736159 0.0035326083 0.0406536 0.06808716 0.043527268 -0.19359986 -0.06582372
-0.0483954 0.14541274 -0.05560197 0.14831145 0.10466285 -0.14026615 0.099214636 0.17363448 0.13891745 -0.10886586 0.07431361 -0.18493874 -0.23524514 -0.13917537 -0.063342944 0.083938666 -0.12841567 0.12607227 0.078462735 -0.15675005 -0.04588262 0.16479868 -0.14623994 -0.05869103 -0.14813991 -0.05078295 0.079820745 -0.13052851 -0.05118972 -0.15824427 -0.17568833 -0.0153513085
-0.20985417 0.09607719 0.1338263 -0.012261383 0.064471565 0.07193143 0.040031146 0.12629916 -0.109156944 0.19479544 -0.08043252 0.05898078 0.08345805 -0.07363075 0.07965649 0.15644044 -0.100451544 0.18487066 0.19998153 0.024438001 -0.039417706 0.18323633 0.092195615 -0.059832457 -0.081974365 -0.048155334 -0.057438288 -0.024942659 0.14666504 -0.071477436 -0.1351839 0.17821148
-0.2087344 -0.011842925 -0.025246287 -0.10579927 0.09717274 -0.27787212 0.2581508 0.06065906 -0.036179144 0.076914564 -0.032946616 0.19029151 -0.21038125 -0.089028455 0.2850967 -0.003103912 -0.059692975 -0.014358171 0.12578082 -0.13705808 0.0064677475 0.06191717 0.1356595 0.121277876 0.081962876 0.029646216 0.09243375 0.22499111 -0.24935439 0.07149502 -0.2771263 -0.10040177
0.19080174 -0.15404096 0.0041038273 -0.18786491 -0.16231579 0.20302616 -0.10031477 0.05840471 0.049514692 -0.24646504 0.20180923 0.032979038 -0.10257418 0.21094596 -0.08889811 -0.036184613 0.13602337 -0.19903798 -0.04179381 -0.10117277 0.07995314 0.24050087 -0.012707656 0.06491491 -0.023172252 -0.18652405 0.021904787 -0.19638795 -0.07418325 -0.022011431 0.0959233 -0.011608385
0.075892605 -0.11818643 0.07825053 -0.17686546 -0.115548804 -0.009662316 0.042928427 -0.01115896 -0.016790846 -0.19709066 -0.07454642 0.09808953 0.19297943 -0.009696072 0.014778855 -0.07817328 0.003216808 0.05233101 0.08254362 0.026589684 -0.065737344 -0.081543006 0.14305413 -0.30324763 -0.019141158 -0.007495305 0.1156473 0.036646374 0.21945743 -0.042503916 -0.05472724 0.08180257
-0.16113329 0.1365187 0.026980648 -0.084035635 0.024634063 -0.111789666 -0.12645832 0.042955283 -0.07027123 -0.14028601 0.07401753 0.17610943 -0.0012617386 0.18150093 0.11187199 -0.0814861 -0.096135326 -0.023741178 0.03697213 0.037962478 0.094184965 0.009476886 -0.16693059 -0.17903514 -0.01575606 0.096355595 -0.11481571 -0.18481535 -0.07216023 -0.1801896 -0.0063460185 0.15500337
0.20175534 0.019581828 0.116670206 -0.06855282 0.13647379 -0.056812815 -0.14434917 0.2081113 -0.011995826 0.10697052 0.12291033 0.07272848 -0.02696444 0.13088915 -0.14868817 -0.12567484 -0.1341313 0.039730445 -0.040409803 0.066326745 0.0013003086 0.113400914 -0.07863909 0.044732008 0.0154696265 -0.18568274 0.022530148 -0.0012337108 0.046314407 0.3171983 -0.07832162 -0.029589439
-0.2347591 0.12430033 -0.10091952 0.16019014 -0.10110464 -0.17271602 -0.17487869 -0.030324595 -0.12371572 0.08563537 -0.13083522 -0.17638762 -0.15723157 -0.007690387 -0.0831648 -0.13611344 0.06313787 0.12190462 0.20454413 -0.03475492 0.19748648 -0.04153891 0.14703532 0.11533879 -0.114876896 0.102743156 0.21231914 0.05850875 0.055006754 -0.19429843 -0.22062805 0.1945631
0.14857666 -0.13277498 -0.13874109 -0.15307066 0.073709115 0.0065657883 -0.12909485 0.0438234 0.011307372 0.024835242 -0.1139257 -0.11422739 -0.15395384 -0.017255893 0.15077445 0.029039316 0.101854034 -0.06739101 0.012331549 -0.19953541 0.04445911 0.014081829 0.1428348 0.051561005 0.03186461 0.01858335 0.02878923 -0.15346676 0.030383175 0.023943055 0.17000659 0.0994105
-0.071737126 0.004017241 0.12474586 -0.09003056 0.088772215 0.0973809 -0.13313062 0.03385678 -0.023356019 0.12311887 0.056639638 0.024163214 -0.14709947 -0.13240713 0.14693196 0.034444544 0.099624865 -0.08335285 0.071049094 -0.18915041 0.255189 0.14322348 0.07022723 0.12617 -0.12506685 -0.030739162 -0.04243278 0.021395175 -0.06764759 -0.024597056 0.03972406 0.19147316
-0.041069277 0.12877317 -0.013905421 -0.11520734 0.07323261 0.1565756 0.085618705 0.106184795 0.018798962 -0.06799698 0.15720244 -0.026880385 -0.0069915783 -0.17123248 0.13597782 -0.030516736 0.051997658 -0.07966707 -0.11340286 0.017717803 0.15810987 0.02545239 -0.13170846 -0.024186 -0.17836705 0.049893916 -0.06729302 -0.03864177 -0.021183629 0.21341024 -0.09184471 -0.20172255
-0.07321861 -0.0603536 -0.123040766 -0.29195583 0.0069320016 -0.09621191 -0.063365825 -0.09238007 0.2003841 -0.2687578 0.24232104 0.046534497 -0.086093925 0.16137157 -0.4429139 -0.30013883 0.16508988 -0.15618151 -0.12513566 0.031795442 0.24040243 -0.040132374 -0.15704633 0.09310417 -0.10132331 -0.3643901 -0.197804 -0.16275135 0.31454557 0.18691312 -0.041283786 -0.21241695
-0.11535016 0.13390246 -0.1356163 0.062047165 0.095055185 -0.045073215 0.12961376 -0.0231882 -0.07987022 -0.06538572 0.10364324 0.118532844 -0.1846485 0.13343808 -0.00097606 -0.026147934 -0.15527153 0.0891732 -0.08050313 -0.14134313 0.048529487 0.171572 0.10463261 -0.04318357 0.12183795 0.20609471 0.06724335 -0.08599653 0.10817604 0.028817736 -0.14910695 -0.114575624
-0.11233186 0.14127894 0.10931921 0.031196313 -0.14791888 0.14051022 0.01418953 -0.07964757 0.18929513 0.0006430949 -0.049650647 -0.14583167 0.102769524 0.04796995 0.08560711 0.09638078 -0.161493 0.12538277 -0.022482576 0.050963633 0.20732956 -0.049218737 -0.1320553 -0.117122896 0.10768201 -0.076415315 -0.17435656 -0.18141347 -0.08943577 -0.10605866 -0.13770145 0.03014315
0.080937035 -0.17722349 -0.10508332 0.18647116 -0.056627527 -0.030462738 -0.11713539 0.13571663 -0.0149055505 -0.07552482 0.21944623 -0.059074983 -0.2052547 0.24602874 -0.04511656 -0.10793805 -0.16265103 -0.20405327 0.0006929371 -0.15915088 0.09210016 0.04696402 0.047933932 0.1026826 0.153408 -0.15216209 0.17746337 -0.16674381 0.25429282 -0.24272157 -0.297501 0.11796721
-0.019241212 0.14807107 -0.13742237 -0.08601072 -0.07665008 0.16074176 -0.06534226 0.12996198 0.04828781 -0.035012893 0.16984572 0.1284266 -0.26692304 0.0004476566 -0.069428414 -0.12888266 0.122652926 0.07306897 0.03909203 0.094253115 0.040493555 0.14141934 -0.0044230456 -0.0073302 -0.06573749 0.0726693 -0.02619472 -0.013748658 -0.1396895 -0.16378927 -0.16960779 0.08694637
0.14357637 -0.12502198 0.11965004 -0.11862198 -0.13763699 -0.09220761 -0.07926691 -0.07532729 0.18292758 0.0046570324 -0.03780693 -0.03166556 -0.04985283 0.08395047 -0.124442786 0.093765795 0.021063415 -0.08322921 -0.1592309 -0.12379268 0.034986515 -0.012382466 -0.044000015 0.014914729 -0.14466414 0.009443337 -0.16390842 0.10615961 0.12646079 0.15645625 -0.2235252 -0.11925731
-0.179425 -0.07782978 -0.09381208 -0.016989293 -0.10058518 -0.09867765 -0.11731719 0.0810237 0.102383874 -0.010144071 -0.08642207 -0.09691112 -0.36702126 -0.06523683 0.10467029 -0.1217614 0.1333705 0.11918349 -0.1578666 0.12602642 -0.10163996 0.1514743 -0.17662044 -0.2500222 -0.12133967 0.048237536 -0.020888867 -0.11160046 0.19616282 -0.04808229 0.059041124 0.091376685
0.25824 0.16509712 0.03913688 0.034979448 0.109131604 0.08131544 0.08981234 -0.0022241978 -0.18301375 -0.13037364 -0.23462144 -0.14278142 -0.17774965 -0.14711791 0.042660255 0.26547837 -0.25417137 0.1824439 -0.051088076 0.00900273 0.27230412 0.27267042 0.088141054 0.17121814 0.113099836 0.031580027 0.28388208 0.24776451 -0.0059313863 0.3985431 -0.022455905 0.06778416
0.053186186 -0.12810549 -0.089504756 -0.094488196 0.06977176 -0.04095434 0.07033559 -0.19810078 0.022014365 -0.07885356 0.047679935 0.03434706 0.051407326 0.13865688 -0.10999779 -0.025393168 0.050093856 -0.25728038 -0.17016953 -0.108181864 -0.15748884 -0.01780979 -0.021500964 -0.031403225 -0.102222145 0.1371985 -0.04968479 0.049472302 0.04699818 -0.071210325 -0.3089273 0.034997582
-0.1359593 -0.011952798 -0.14969566 0.17972179 0.10536178 0.11567554 -0.031286914 -0.09391133 0.011047935 0.086988814 0.13093086 0.01069241 0.07145947 -0.010269035 -0.14731109 0.12923165 -0.14357501 0.08399875 0.08143468 -0.13771836 0.1465346 0.24682383 -0.083731934 0.25955734 -0.07908367 0.023476737 0.092732586 -0.113848254 0.10823518 0.08436232 -0.19910535 -0.087132886
-0.15934916 -0.03522092 -0.013850578 0.030154921 0.121585116 0.09559307 0.13730447 -0.15222488 0.022206485 -0.08919762 -0.0085654585 0.23927559 0.10390769 -0.10711999 -0.108211264 -0.18085834 0.093320645 -0.1115016 0.039185487 0.04239349 -0.053314388 0.025135431 0.07402928 0.046123464 0.03662615 -0.01307835 0.043654427 0.11308648 0.04707494 -0.034461457 -0.11563874 -0.19516023
0.10585585 -0.079380706 0.12321613 -0.13485216 -0.15376717 0.10693724 0.0631747 0.10062221 0.067037925 -0.12049053 0.13808335 0.027290111 0.0025880265 0.19083238 -0.10540938 -0.1631482 -0.014966238 0.12163655 0.007969924 0.042750858 -0.008570751 -0.044786207 -0.03903128 0.11156503 -0.03612211 -0.1440746 0.18877107 0.06090583 0.110835 -0.0077533936 0.07448138 0.012668865
-0.12656963 0.020742763 -0.18612663 0.01802898 -0.12764335 -0.10964565 0.12228441 -0.07612387 -0.08214143 -0.06656389 -0.17403089 0.11510182 0.092103206 0.14113963 -0.019602861 -0.012724484 0.094650574 -0.13932721 0.14041969 -0.03724547 0.14533207 0.07963141 0.025371948 0.1507136 -0.096320674 -0.1314703 0.09228299 0.057309937 0.1649661 0.04967647 -0.08849627 0.13673158
-0.041274767 -0.0071163243 0.028846867 0.09130568 -0.052909836 0.14040776 -0.008811332 0.15134037 -0.1140648 -0.026334759 0.0077591315 -0.09693393 0.09635071 0.013959433 -0.15966788 -0.10897057 -0.013668743 0.1296926 -0.08924967 0.012475795 0.15332796 0.22571748 -0.020155763 -0.057108756 -0.040191244 -0.16580847 -0.10273469 -0.0017142926 -0.10597962 -0.005402554 0.092467725 -0.039463192
-0.031640712 0.014330119 -0.12656951 -0.035999186 0.06360679 -0.10849215 0.11772429 -0.02358351 -0.0049058604 -0.048435412 0.08674771 -0.1699895 -0.088620126 -0.058318947 0.0043436904 0.05326225 -0.0013349947 0.11892906 -0.07399851 -0.0819401 0.21262576 -0.033651855 0.10919335 0.16650979 -0.080892324 -0.141899 -0.0074103833 0.15875396 0.04331137 0.037383277 -0.06749439 0.0043412503
0.2020817 0.04248469 -0.10857035 -0.13836102 0.09250805 0.004161796 -0.012914133 -0.089251906 0.07318322 0.023637291 -0.13999379 0.043868944 0.13282466 0.13394086 0.08813606 0.03451367 -0.013267186 -0.06786645 -0.084420174 0.07658948 0.106151626 0.12318127 -0.12316065 0.0894535 -0.10637299 0.08461211 0.11879673 -0.1875355 0.15443556 0.13165876 0.2128439 -0.035835225
0.14301053 0.2040719 0.06429215 -0.10139072 -0.13875337 0.056987528 0.21190973 0.041063365 -0.010800532 0.09305737 0.059259318 0.05187202 0.18745571 0.15230146 -0.09030817 -0.15905797 0.059980057 -0.15809752 -0.012566622 -0.065773524 -0.010675103 0.117144644 -0.0334997 -0.00979012 0.046156645 -0.26898718 0.012127122 -0.029926602 -0.052587055 0.16556439 0.07269642 -0.119863
-0.060529374 0.10258008 0.067478426 -0.08149537 -0.16509824 -0.16264635 0.039534267 -0.04272355 0.13816725 0.033547223 -0.096254155 0.0034690564 -0.16781542 0.093049705 -0.20465575 0.0591419 0.05414402 -0.08906963 0.058773354 -0.14631632 -0.19143349 0.08132958 -0.09115501 -0.09520553 -0.15309872 0.030697662 0.085219264 0.0953217 0.14419726 0.09137925 0.034961145 -0.11554835
0.068460405 0.048709344 -0.15956384 -0.14095572 -0.13480733 0.06901189 0.11189153 0.10840551 0.10994097 -0.007476338 0.18669136 0.07659464 -0.084661104 -0.014954436 0.0916821 -0.09128436 -0.023640268 -0.15939455 0.102542214 0.072099425 -0.08328294 0.04733957 0.1256472 0.08616723 0.1280444 -0.06885039 -0.07160548 0.11147229 0.09972622 -0.07540668 0.04658209 0.040107347
0.09188977 0.0065321373 0.0907681 -0.05255144 -0.09246232 0.12037737 0.09598642 0.14681195 0.0037511413 -0.038154177 0.13403286 0.004623846 -0.16845067 -0.085288875 -0.07003374 0.05976684 -0.00667118 0.04901351 -0.064416565 0.056849733 0.07641271 0.06625917 -0.17868584 0.057446305 0.027636012 0.1323484 -0.026079912 -0.011096618 0.006182258 -0.06151937 -0.029671919 0.08915434
0.055528954 0.05704392 0.088238575 0.023420572 -0.13802685 -0.007500754 -0.04460974 0.017064417 -0.022574447 -0.062145114 0.04604971 -0.06510499 -0.22431143 0.14115344 -0.020462971 -0.18871793 -0.12788136 -0.04367731 -0.12458272 0.12902243 -0.15443026 -0.008685778 -0.040219396 0.028934957 -0.086476125 -0.1624832 0.18045558 -0.02299626 0.07427561 -0.0693997 -0.19399956 0.031593263
0.13670617 0.09554463 -0.10223524 0.11427693 -0.19233218 -0.15808928 -0.11767771 0.19180188 0.04322223 -0.064919114 0.123144135 -0.2921598 0.036757246 0.061769743 0.007039647 0.067748494 -0.12226814 0.101541914 0.10194767 -0.067840636 -0.015525922 -0.094267786 0.13707899 0.0606684 0.07831248 0.028957944 -0.045133706 0.07470317 0.13057572 0.038114414 -0.095146425 0.0049051684
-0.008051691 0.14748558 -9.507874e-05 -0.0015263231 -0.050595544 0.115258396 -0.2026737 0.15794037 0.058481887 -0.11267324 0.07002235 -0.087972395 -0.036473427 0.07326818 -0.055228833 0.08378697 0.0071080024 0.1789693 -0.05250548 -0.017867288 0.14300388 0.059577968 0.047269672 -0.031350233 -0.108326904 -0.1024853 0.17942406 0.19986475 0.10080752 0.17795417 0.07312481 -0.038389716
-0.038163662 0.02166627 -0.030678958 0.16611698 -0.08952051 0.17513607 0.050240405 0.20250027 -0.082345225 0.053945836 -0.014952349 -0.195117 -0.073289104 -0.045759294 -0.10557591 0.109625295 0.12784347 -0.061739385 -0.10368189 0.020371497 0.009990192 0.099791974 0.017104521 -0.24855709 -0.024984375 0.13876203 0.08371894 0.0681496 -0.012268411 0.028915426 -0.031968664 0.09039629
0.08296632 0.052928973 -0.1331529 -0.18034226 -0.05650147 0.22923832 -0.0453741 0.029016517 0.0073102396 0.16614233 0.03843396 0.19057345 0.09983164 -0.013616466 0.042156495 0.03272053 0.23269857 -0.111888 -0.07446664 -0.07411351 0.048634775 -0.0766573 -0.00093824003 -0.23037171 -0.20465209 -0.029912483 -0.15262413 -0.114070855 0.25134692 -0.16369447 0.06599536 0.16860434
-0.0021973425 0.044777337 0.1271988 0.16055685 -0.023028955 0.056433372 -0.09772124 -0.006907924 0.19267295 0.035690207 0.16611578 0.11609361 0.044442844 0.028389912 0.113194816 -0.02720388 0.046001825 -0.15521781 0.0022052291 -0.15572715 -0.11671079 0.10505382 0.14295013 -0.10598551 0.079174966 0.023320321 0.14711623 -0.08001077 -0.07507018 0.024708612 0.02916568 0.12995315
0.1257165 -0.13357624 0.09003634 0.0790312 0.1442874 -0.038081028 0.009690011 0.085277855 -0.061522096 0.16522293 0.17859532 0.08120516 -0.3205332 0.033259336 0.27361965 -0.016678369 0.2462003 0.07050744 0.113063335 -0.054724254 0.20965096 0.058728326 0.06370164 -0.0097673 0.10471632 -0.02866455 0.057364207 -0.069055095 0.12644927 0.13026956 0.044640258 0.020811327
0.10701767 -0.18199642 0.033092573 0.1424646 -0.05631265 0.18233639 -0.05905368 -0.08536627 0.09408569 -0.026871804 -0.11022893 0.02693802 -0.13251038 -0.052390106 -0.13210182 0.11466621 0.35860777 -0.15883045 0.1074431 -0.07185118 -0.018056035 0.004670454 0.05730415 -0.16189285 0.07299433 -0.12549604 -0.00978229 -0.013036698 -0.100736365 -0.11122988 0.1103899 -0.0951495
-0.18734829 -0.080662005 -0.16406418 -0.07420533 -0.11475055 0.013200305 -0.071553044 0.104568556 0.053152855 0.04291515 0.01104427 -0.10899977 0.13245735 0.17286877 0.088268965 -0.07872348 0.073596574 0.11736201 -0.101491235 0.022787394 -0.18304344 0.09441762 -5.8181642e-05 -0.06516625 -0.09670612 0.07926384 0.06119804 -0.12200598 0.08734102 0.12180606 -0.11614008 0.067276016
-0.07389841 0.06278873 -0.04893844 0.08975987 -0.106882975 0.15730576 0.08816608 -0.09903379 0.0891423 -0.04380938 -0.019644994 -0.0743088 0.1544803 0.1634402 -0.13307716 -0.15631346 0.14168432 0.049608342 -0.113459095 -0.21379663 0.1280116 0.10019845 -0.023981685 -0.06255375 -0.060876053 0.11657252 -0.035601605 -0.15889953 0.1188616 -0.08838278 0.041836172 0.10962507
-0.20088342 -0.1545599 0.05895048 0.0040478855 0.1266714 -0.052496042 0.1237295 -0.069308616 0.16787633 -0.15795906 0.21035954 -0.060195222 0.13018902 -0.04062312 0.06580022 0.12073823 -0.28509504 -0.13829973 -0.02419518 -0.15913235 0.18677247 -0.02731867 -0.1540002 0.0064437017 -0.06744711 -0.1549886 0.10716553 0.025735613 -0.03332084 0.20766437 -0.2680458 0.045473427
-0.019120198 -0.18774624 -0.09958312 0.11247135 -0.09014665 0.19981283 -0.18584022 -0.07607717 -0.013652395 -0.0028813402 0.081772104 0.07147249 0.1781873 0.022196818 -0.024768528 -0.2162813 -0.10809548 0.09093839 0.060350504 -0.15693991 0.17679995 -0.2724157 -0.023350678 -0.17923048 0.061594095 0.113160975 0.047895864 0.049691092 0.20658058 -0.08472054 -0.16165324 -0.15248021
0.14034714 0.08050019 -0.14451139 0.11792609 0.1511749 -0.18524799 -0.19697553 -0.08186912 0.17196043 -0.10984372 0.14605434 -0.075303175 0.078109965 0.05412423 0.16887195 -0.1691097 -0.018654184 -0.0987661 -0.1715084 0.08368993 -0.1978049 0.23645677 0.101819254 0.077266805 -0.1090423 0.030552516 -0.08457569 0.024142502 -0.1112223 -0.070599504 0.20227449 0.121643014
-0.11463374 0.014785297 0.0090309875 -0.18485168 -0.027400589 0.08070395 -0.34144187 0.15330122 -0.093596205 -0.091987185 0.16174486 -0.2648458 -0.2900717 0.008470876 0.088779405 0.105839975 -0.017951116 -0.08359858 0.070793904 -0.048592016 -0.22857685 0.17170256 -0.11228749 0.1447239 0.059368618 -0.056575533 -0.100445874 -0.18175904 0.05127693 0.10749578 0.19274275 -0.026426297
0.18185239 0.0051983823 -0.13789172 0.00081088423 -0.077718385 0.09572509 0.1588903 0.16926752 0.06661916 0.07989334 0.116041794 0.13881037 -0.012278587 -0.059208997 -0.09665925 -0.113434345 0.09429421 0.11542604 -0.02336554 -0.17185329 0.167223 0.11450061 -0.09484341 0.107245535 -0.071633786 0.0940227 0.021009259 -0.040132258 -0.13934688 -0.040592287 -0.0070614973 0.09228262
-0.12848873 -0.048535183 0.01498049 -0.17374013 0.032026306 -0.06888405 0.080540344 0.088671036 -0.03576904 -0.020766387 0.1768412 -0.07724907 -0.2579605 0.05396727 0.1430965 -0.02490024 -0.015686877 0.1343218 0.10580741 -0.09685682 -0.11032301 0.052114386 -0.09035617 -0.011212657 0.10336811 -0.2217924 -0.11297326 -0.105577 -0.11635629 -0.058391195 -0.07956817 0.050322153
0.075249285 0.14867517 0.08739092 0.10239105 -0.08515572 -0.15169893 -0.085575365 -0.0027578291 -0.12349129 0.19250515 -0.031562824 0.022648593 -0.015338211 0.14061388 -0.0077823834 0.13087025 -0.09602994 -0.1062226 -0.06561665 0.13453962 0.046833515 0.04208484 -0.13957702 0.04687775 0.15423498 -0.17063183 -0.040330134 0.076702975 -0.035801094 -0.008022618 0.005896251 0.0032557882
0.0053479453 -0.036288742 0.015425801 -0.07591842 -0.1379263 0.22935812 -0.007620272 -0.03920309 -0.14894548 -0.21794184 -0.096962534 -0.18406066 -0.05076335 0.033188585 -0.04781143 0.14447537 0.17254815 0.115808286 -0.06508907 -0.1033572 0.0921325 -0.01864492 0.00954332 0.22383127 -0.18729806 0.051462974 0.080634065 -0.092544906 0.028717363 0.062464774 -0.09304374 0.11828297
-0.044769518 -0.1301238 -0.1601579 -0.06421168 0.095962346 0.078378715 -0.022870434 0.017896399 0.04639511 -0.19248115 0.19791166 -0.38487348 -0.0200476 -0.08316906 -0.15658315 -0.22082455 -0.068190955 0.020244544 0.09485975 -0.056293443 -0.06583956 -0.0035853072 -0.08105798 -0.10246525 0.0094448775 -0.01833913 0.093480855 -0.1311559 0.16011591 -0.014339717 0.03745398 0.09050484
0.047344234 0.0018616103 0.16588587 -0.13397627 -0.008852586 -0.1018296 0.090420015 0.15544721 -0.16807477 0.18433042 -0.18535717 -0.031871833 0.06898593 -0.0041446 0.0011589465 0.15717137 -0.06721848 0.1512142 0.09225818 0.113294125 -0.07222095 -0.24831957 -0.1424824 0.078436464 -0.15930521 0.30055296 0.0054722754 0.23031232 -0.08778881 -0.18344294 0.34900063 0.15907186
0.11575725 -0.094934806 -0.13633753 0.06641677 0.033844654 -0.04626834 -0.021332854 -0.20254701 0.2052676 -0.074073516 0.005050954 -0.13358381 -0.04054614 0.055255514 -0.13114694 0.12880607 0.09296599 0.029563943 0.09016755 -0.027444106 0.05527133 -0.0038039498 -0.0929133 -0.060841545 -0.1715415 0.04634795 -0.08103121 0.024682427 -0.0018668704 -0.18148665 0.067735344 -0.111491434
-0.20647398 -0.030588143 0.080691166 0.08228494 -0.105082795 0.04515468 0.003632921 0.0032131197 -0.0008951351 0.2550348 -0.14038885 0.009633525 0.14768545 -0.103336155 -0.00076797226 0.12131813 -0.26734895 0.17323717 0.038337488 -0.048094656 0.06968882 0.16637401 0.079232424 -0.042015113 -0.07543375 0.12862337 0.093511306 0.087353386 -0.04718224 0.0387476 -0.14761442 0.1655396
-0.04437188 -0.069037855 -0.15304418 0.111400194 -0.026840014 -0.1315005 -0.34025425 0.08277661 -0.1227737 -0.18355374 -0.015178775 -0.3365622 -0.047165696 -0.09180086 -0.051025476 0.10509018 -0.18388514 0.08340123 -0.103566065 -0.017909728 -0.10974688 0.008642428 0.03260033 -0.02161711 -0.11421728 0.11766611 -0.12897685 0.06418082 0.14419788 0.16356039 -0.03848226 -0.17443787
0.22535172 -0.24386829 -0.08501892 -0.015731204 -0.0010858083 -0.112294234 -0.20758283 -0.018972399 0.019493828 -0.0833222 -0.0551574 -0.036179367 -0.03512191 0.019806195 -0.0691455 0.08314938 0.1846451 -0.23787354 -0.035057858 0.018752402 0.088922925 -0.23236877 1.0910856e-05 0.19806722 -0.14873877 -0.25745788 0.026802493 -0.23708895 0.1828149 0.19043922 -0.008645155 -0.17140855
-0.017223565 -0.13568477 -0.17500784 0.047431346 -0.18070926 -0.06978027 -0.005356665 0.01711358 0.114458285 -0.06203325 -0.06751148 -0.031831667 -0.034638576 0.0110562295 -0.01555174 0.009512398 0.04308672 -0.13086128 0.10740339 0.029895904 -0.1976417 -0.1515223 -0.02798017 0.18053758 -0.19725274 0.053381436 0.05814968 0.05308526 -0.104217246 -0.006769362 -0.07339583 0.02208215
-0.06593172 0.05396954 0.031127973 0.10289745 0.12548761 -0.07979211 -0.023102202 0.09909377 0.008144171 -0.1534332 0.20083846 0.046482418 -0.18615927 0.093654275 -0.0027319207 -0.19013704 -0.07185584 -0.13414688 -0.043276813 -0.09348211 -0.06093339 0.01004821 -0.019750262 0.056905806 0.04770115 -0.17648657 -0.07044998 -0.076427974 0.23898272 -0.08668764 0.11336528 -0.16254361
-0.17657758 0.11876042 -0.111220725 0.13703477 -0.14440951 -0.11249308 -0.010228929 0.102644116 0.016780267 -0.031444956 0.11835968 0.013160358 0.020151936 -0.15317 -0.10808879 -0.16545753 -0.08234037 0.11221087 -0.03758162 -0.052207883 0.111066565 -0.00070655777 -0.120564535 0.13800554 -0.041890323 -0.25736713 0.18866841 0.0032247666 0.07657449 0.0120580215 -0.024169033 -0.071271285
-0.07183984 -0.046239678 0.059255656 0.05101143 -0.016455501 0.0068927924 -0.09057333 0.0012216633 0.054643396 -0.13176243 0.20062713 -0.0071192463 -0.16252542 0.18218915 0.08137614 0.030800069 0.014098958 -0.03927568 -0.028224641 -0.019500354 0.10471428 -0.012409492 -0.10961744 -0.11107535 0.076467544 0.037288338 -0.18400589 -0.12914672 0.14957133 -0.25748768 -0.20251754 0.05036465
-0.028115794 0.00067346136 -0.1124347 -0.08772879 -0.011868209 0.07579987 0.18258032 0.037435476 -0.24463661 -0.13621871 0.0504863 -0.24331692 -0.09824509 -0.052023407 0.08458174 0.09646066 0.03223465 -0.041642807 0.07031325 -0.13087705 0.2183344 0.0022075803 0.113247804 -0.011474189 0.025188938 -0.040153455 0.16228424 0.09893879 -0.03471397 0.009685236 0.092385754 -0.029567692
0.17885704 -0.19494154 0.089371175 0.06400344 0.060123917 0.076975375 -0.3145436 -0.13730803 0.12680073 -0.21228163 -0.0032021883 -0.33931485 0.08049246 -0.113413386 -0.28533325 -0.1603717 -0.05729743 -0.10050564 0.00380861 0.1005418 -0.019192174 -0.18983881 0.042152036 0.24978377 0.056466423 0.09554096 0.09204126 0.12693591 0.17641142 -0.0025242728 0.18857239 -0.1138336
0.19731812 -0.072486736 -0.11680632 0.049612787 0.11688662 0.06739608 -0.22484219 -0.13825043 0.009482382 0.026825761 0.06196376 -0.13136029 -0.19850108 -0.07730659 0.008800933 0.04752157 -0.2145232 0.13111654 0.07294806 0.12069276 0.047703985 -0.11178509 -0.17006697 -0.006937292 -0.12357168 -0.06395526 -0.008440645 0.041645408 -0.11158876 0.0041612107 0.0659978 -0.19744995
-0.2771532 -0.011161926 -0.058597594 0.17581503 -0.0417788 0.059482567 -0.041851513 -0.06840741 -0.19283703 0.10401618 -0.03376679 -0.23989871 -0.11969578 -0.07574548 -0.044084784 -0.07963253 0.07571135 0.14570034 0.06870004 -0.12602267 -0.122394204 -0.037696224 -0.062348235 -0.026206387 -0.078002654 0.06487871 0.016195787 -0.11895045 0.05183788 0.048344716 -0.15636937 0.07095077
0.28039423 0.046625867 -0.16579391 0.09636302 0.1397756 0.053052485 -0.4940493 0.14211263 0.074480504 -0.25686628 0.21290238 -0.13795501 -0.20210145 -0.025159342 -0.08993617 0.10109985 0.15438198 -0.17194685 0.029852957 -0.10433747 -0.08074908 -0.2159166 -0.11051561 0.039385412 0.09239856 -0.08860374 -0.11340789 -0.12317641 0.083663434 0.015838983 0.30180326 -0.0673583

